<?xml version="1.0"?>
<MethodSetup Method="BDT::BDTG_fold4">
  <GeneralInfo>
    <Info name="TMVA Release" value="4.2.1 [262657]"/>
    <Info name="ROOT Release" value="6.22/02 [398850]"/>
    <Info name="Creator" value="bzabinsk"/>
    <Info name="Date" value="Tue Oct 12 11:01:44 2021"/>
    <Info name="Host" value="Linux noName 5.4.0-42-generic #46-Ubuntu SMP Fri Jul 10 00:24:02 UTC 2020 x86_64 x86_64 x86_64 GNU/Linux"/>
    <Info name="Dir" value="/data/CERN/DIHiggs/HHML_GFW2/HHML_2LSS_1Tau_v4/BDT_TMVA"/>
    <Info name="Training events" value="30784"/>
    <Info name="TrainingTime" value="2.27359941e+01"/>
    <Info name="AnalysisType" value="Classification"/>
  </GeneralInfo>
  <Options>
    <Option name="V" modified="Yes">False</Option>
    <Option name="VerbosityLevel" modified="No">Default</Option>
    <Option name="VarTransform" modified="No">None</Option>
    <Option name="H" modified="Yes">False</Option>
    <Option name="CreateMVAPdfs" modified="Yes">True</Option>
    <Option name="IgnoreNegWeightsInTraining" modified="No">False</Option>
    <Option name="NTrees" modified="Yes">1000</Option>
    <Option name="MaxDepth" modified="Yes">4</Option>
    <Option name="MinNodeSize" modified="Yes">5%</Option>
    <Option name="nCuts" modified="Yes">20</Option>
    <Option name="BoostType" modified="Yes">Grad</Option>
    <Option name="AdaBoostR2Loss" modified="No">quadratic</Option>
    <Option name="UseBaggedBoost" modified="No">False</Option>
    <Option name="Shrinkage" modified="Yes">5.899000e-02</Option>
    <Option name="AdaBoostBeta" modified="No">5.000000e-01</Option>
    <Option name="UseRandomisedTrees" modified="No">False</Option>
    <Option name="UseNvars" modified="No">4</Option>
    <Option name="UsePoissonNvars" modified="No">True</Option>
    <Option name="BaggedSampleFraction" modified="Yes">5.152000e-01</Option>
    <Option name="UseYesNoLeaf" modified="No">True</Option>
    <Option name="NegWeightTreatment" modified="Yes">ignorenegweightsintraining</Option>
    <Option name="Css" modified="No">1.000000e+00</Option>
    <Option name="Cts_sb" modified="No">1.000000e+00</Option>
    <Option name="Ctb_ss" modified="No">1.000000e+00</Option>
    <Option name="Cbb" modified="No">1.000000e+00</Option>
    <Option name="NodePurityLimit" modified="No">5.000000e-01</Option>
    <Option name="SeparationType" modified="Yes">giniindex</Option>
    <Option name="RegressionLossFunctionBDTG" modified="No">huber</Option>
    <Option name="HuberQuantile" modified="No">7.000000e-01</Option>
    <Option name="DoBoostMonitor" modified="No">False</Option>
    <Option name="UseFisherCuts" modified="No">False</Option>
    <Option name="MinLinCorrForFisher" modified="No">8.000000e-01</Option>
    <Option name="UseExclusiveVars" modified="No">False</Option>
    <Option name="DoPreselection" modified="No">False</Option>
    <Option name="SigToBkgFraction" modified="No">1.000000e+00</Option>
    <Option name="PruneMethod" modified="No">nopruning</Option>
    <Option name="PruneStrength" modified="No">0.000000e+00</Option>
    <Option name="PruningValFraction" modified="No">5.000000e-01</Option>
    <Option name="SkipNormalization" modified="No">False</Option>
    <Option name="nEventsMin" modified="No">0</Option>
    <Option name="UseBaggedGrad" modified="No">False</Option>
    <Option name="GradBaggingFraction" modified="No">5.152000e-01</Option>
    <Option name="UseNTrainEvents" modified="No">0</Option>
    <Option name="NNodesMax" modified="No">0</Option>
  </Options>
  <Variables NVar="13">
    <Variable VarIndex="0" Expression="tau_pt_0" Label="tau_pt_0" Title="tau_pt_0" Unit="" Internal="tau_pt_0" Type="F" Min="3.00003262e+04" Max="8.48961250e+05"/>
    <Variable VarIndex="1" Expression="p_DR_l1_l2" Label="p_DR_l1_l2" Title="p_DR_l1_l2" Unit="" Internal="p_DR_l1_l2" Type="F" Min="3.56512666e-02" Max="5.69275713e+00"/>
    <Variable VarIndex="2" Expression="p_Dphi_l1_j1" Label="p_Dphi_l1_j1" Title="p_Dphi_l1_j1" Unit="" Internal="p_Dphi_l1_j1" Type="F" Min="-3.14127064e+00" Max="3.14156914e+00"/>
    <Variable VarIndex="3" Expression="p_DR_l1_j1" Label="p_DR_l1_j1" Title="p_DR_l1_j1" Unit="" Internal="p_DR_l1_j1" Type="F" Min="3.85276437e-01" Max="5.60959148e+00"/>
    <Variable VarIndex="4" Expression="p_DR_l2_j1" Label="p_DR_l2_j1" Title="p_DR_l2_j1" Unit="" Internal="p_DR_l2_j1" Type="F" Min="3.97296637e-01" Max="5.72648382e+00"/>
    <Variable VarIndex="5" Expression="p_invMass_l1_j1" Label="p_invMass_l1_j1" Title="p_invMass_l1_j1" Unit="" Internal="p_invMass_l1_j1" Type="F" Min="1.49106379e+01" Max="2.90840625e+03"/>
    <Variable VarIndex="6" Expression="p_invMass_l2_j1" Label="p_invMass_l2_j1" Title="p_invMass_l2_j1" Unit="" Internal="p_invMass_l2_j1" Type="F" Min="1.35205669e+01" Max="2.09786768e+03"/>
    <Variable VarIndex="7" Expression="p_drCloserLepToTau" Label="p_drCloserLepToTau" Title="p_drCloserLepToTau" Unit="" Internal="p_drCloserLepToTau" Type="F" Min="2.40885660e-01" Max="4.57767963e+00"/>
    <Variable VarIndex="8" Expression="p_invMCloserLepToTau" Label="p_invMCloserLepToTau" Title="p_invMCloserLepToTau" Unit="" Internal="p_invMCloserLepToTau" Type="F" Min="9.70290565e+00" Max="8.50627319e+02"/>
    <Variable VarIndex="9" Expression="p_drCloserJetToLeadLep" Label="p_drCloserJetToLeadLep" Title="p_drCloserJetToLeadLep" Unit="" Internal="p_drCloserJetToLeadLep" Type="F" Min="3.85276437e-01" Max="5.35628653e+00"/>
    <Variable VarIndex="10" Expression="p_drFarestJetToLeadLep" Label="p_drFarestJetToLeadLep" Title="p_drFarestJetToLeadLep" Unit="" Internal="p_drFarestJetToLeadLep" Type="F" Min="4.65125293e-01" Max="5.73482418e+00"/>
    <Variable VarIndex="11" Expression="p_sumPtleptauAll_Ptjet" Label="p_sumPtleptauAll_Ptjet" Title="p_sumPtleptauAll_Ptjet" Unit="" Internal="p_sumPtleptauAll_Ptjet" Type="F" Min="5.25975972e-02" Max="1.59938431e+01"/>
    <Variable VarIndex="12" Expression="p_invMl2j1j2" Label="p_invMl2j1j2" Title="p_invMl2j1j2" Unit="" Internal="p_invMl2j1j2" Type="F" Min="3.08923531e+01" Max="6.10816504e+03"/>
  </Variables>
  <Spectators NSpec="1">
    <Spectator SpecIndex="0" Expression="p_Event_No2" Label="p_Event_No2" Title="I" Unit="" Internal="p_Event_No2" Type="F" Min="1.00000000e+00" Max="3.48190000e+04"/>
  </Spectators>
  <Classes NClass="2">
    <Class Name="Signal" Index="0"/>
    <Class Name="Background" Index="1"/>
  </Classes>
  <Transformations NTransformations="0"/>
  <MVAPdfs>
    <PDF Name="BDTG_fold4_PDFSig" MinNSmooth="0" MaxNSmooth="0" InterpolMethod="2" KDE_type="1" KDE_iter="1" KDE_border="1" KDE_finefactor="1.0000000000000000e+00">
      <Histogram Name="BDT_tr_S_original" NBins="615" XMin="-9.9472904205322266e-01" XMax="9.9282908439636230e-01" HasEquidistantBins="1">
        -2.56252517e-02 0.00000000e+00 0.00000000e+00 0.00000000e+00 0.00000000e+00 0.00000000e+00 1.27753514e-02 0.00000000e+00 1.18829384e-02 0.00000000e+00 0.00000000e+00 3.44449264e-02 2.87304380e-02 3.98400080e-02 0.00000000e+00 5.76438655e-02 1.22335162e-02 2.03985961e-02 3.70712370e-02 1.47703186e-02 1.04848201e-01 -1.21990030e-02 -1.42168289e-02 1.21439318e-02 0.00000000e+00 3.15717712e-02 2.56466580e-02 1.00295447e-01 0.00000000e+00 6.48418993e-02 5.96705924e-02 6.07259964e-02 -4.58323943e-02 1.89623978e-02 1.06801740e-02 2.38661598e-02 1.33760499e-01 5.58552265e-02 6.98547009e-02 4.72721157e-02 0.00000000e+00 9.92180873e-03 1.42225146e-01 4.84373892e-02 6.71923532e-02 1.25978954e-01 3.85341846e-02 3.43625778e-02 2.67972693e-02 3.98503091e-02 9.81185557e-02 0.00000000e+00 1.14022308e-01 4.30457626e-02 1.81722183e-01 -2.99176053e-02 2.64401446e-02 8.00526446e-02 2.70834151e-02 5.30264115e-02 2.78660716e-02 4.55954944e-02 1.98237811e-01 3.81287413e-02 1.40373304e-01 9.37977164e-02 1.33493485e-01 8.96817624e-02 1.77816961e-01 1.43224254e-01 8.82627936e-02 5.05217060e-02 1.51533665e-02 0.00000000e+00 5.86873747e-02 2.00046957e-01 -5.46885341e-02 1.43022709e-01 6.91809343e-02 4.32762185e-02 7.66577076e-02 8.43259467e-02 2.81585217e-01 3.77675736e-01 1.37569651e-01 1.51037200e-01 7.87760902e-02 6.68191644e-02 4.63475098e-02 3.77771085e-02 1.09067256e-01 5.83365188e-02 4.84513042e-02 3.47004479e-02 9.45420007e-02 1.21424036e-01 7.33690622e-02 1.05809767e-01 1.51558552e-01 1.29050364e-01 6.93776539e-02 2.68990967e-01 9.28838726e-02 1.96743852e-01 1.24409444e-01 1.12995138e-01 2.53808206e-01 4.82576148e-02 1.29534198e-01 9.61183482e-02 2.94310529e-01 3.51576934e-02 8.73615496e-02 6.41698615e-02 1.16363373e-01 1.67880158e-01 2.40300920e-01 2.68668045e-01 2.78478376e-01 4.90789834e-02 1.87531371e-01 1.24408450e-01 2.45500178e-01 6.54237217e-02 2.08982113e-01 7.97545052e-02 8.71560891e-02 2.12798167e-01 2.84563524e-01 1.09551336e-01 2.29671717e-01 2.52718980e-01 1.87301621e-01 1.58655655e-01 9.09851136e-02 1.44798214e-01 1.99208137e-01 1.60936215e-01 2.37282138e-01 1.10094018e-01 1.51099536e-01 2.86557032e-01 1.85639912e-01 1.57324079e-01 1.12897386e-01 1.13768470e-01 2.29590157e-01 3.40235807e-01 1.99819526e-01 1.55174608e-01 3.33989899e-01 2.13466933e-01 1.11444077e-01 1.29554517e-01 1.45854048e-01 -1.78881274e-02 2.21921157e-01 7.04385908e-02 1.89752309e-01 1.30960758e-01 1.88525959e-01 9.72965127e-02 1.41988737e-01 3.18680475e-01 2.58570509e-01 2.61021733e-01 2.49575642e-01 3.97033669e-01 5.46494329e-01 8.51404742e-02 1.36845490e-01 2.88077029e-01 4.27863074e-02 1.26696438e-01 2.19699077e-01 1.41386360e-01 2.89984481e-01 5.13133160e-02 3.16292020e-01 7.19647223e-02 2.17558615e-01 1.69983846e-01 9.33862581e-02 1.96464658e-01 2.03935715e-01 5.06598566e-02 2.24174728e-01 1.12328488e-01 3.49831011e-01 2.33925644e-01 1.87519998e-01 2.63426244e-01 2.99216578e-01 5.69640821e-01 2.23971482e-01 8.62061758e-02 2.53018454e-01 1.19892979e-01 1.15601922e-01 3.54055515e-01 1.91504715e-01 2.44048978e-01 1.51195933e-01 4.35372024e-01 1.40425026e-01 3.28457174e-01 5.66199737e-01 1.31941240e-01 3.04420461e-01 2.59821700e-01 2.68493722e-01 4.02104465e-01 2.53011709e-01 3.09356815e-01 5.10261625e-01 2.88862541e-01 4.52013491e-01 2.61689668e-01 3.92651286e-01 4.76840106e-01 4.33717264e-01 2.84901512e-01 9.97230639e-02 1.91557725e-01 1.24978158e-01 2.50556356e-01 3.76787696e-01 3.41280149e-01 3.28319886e-01 4.73736599e-01 3.03982365e-01 2.31585511e-01 3.08518369e-01 4.91312678e-01 2.42245701e-01 3.92151189e-01 3.55772660e-01 2.35015495e-01 2.57495517e-01 3.83557455e-01 2.05872405e-01 1.81962463e-01 7.10810200e-01 1.46599214e-01 2.81911845e-01 1.97029950e-01 1.06268939e-01 8.82021792e-02 4.32069670e-01 4.23764107e-01 2.74440861e-01 2.61391097e-01 4.55348382e-01 2.32713519e-01 3.60511698e-01 2.37836243e-01 2.53699354e-01 -3.85452884e-02 2.64291588e-01 5.13205860e-01 3.12431298e-01 1.09366624e-01 4.30870118e-01 3.92077803e-01 5.33474252e-01 4.75154509e-01 2.94140000e-01 3.57861694e-01 3.90628405e-01 3.89684893e-01 2.52313665e-01 4.06762377e-01 3.79865242e-01 2.93471115e-01 2.49642571e-01 2.03074820e-01 1.81571262e-01 5.69017922e-01 1.28452410e-01 2.24846563e-01 2.23695258e-01 3.01056035e-01 5.89516225e-01 3.25945236e-01 4.35682200e-01 4.18133785e-01 4.31370424e-01 3.99566175e-01 1.38679871e-01 6.21948993e-01 2.51116176e-01 4.71309076e-01 2.83123030e-01 1.95076014e-01 3.73031985e-01 3.47976113e-01 2.85641243e-01 3.22647176e-01 5.68034554e-01 6.04874653e-01 1.62951052e-01 1.62686061e-01 4.05121340e-01 1.44247106e-01 2.85158104e-01 5.22107358e-01 5.28338529e-01 1.65787511e-01 3.87378029e-01 3.86568011e-01 3.27978919e-01 1.75254481e-01 3.53020152e-01 3.61612314e-01 2.94690890e-01 2.06105359e-01 2.43103652e-01 4.86835254e-01 5.09669975e-01 3.53425126e-01 4.21865771e-01 7.47852884e-01 4.31360544e-01 4.19955731e-01 3.46678572e-01 4.87043144e-01 5.73075521e-01 3.30090833e-01 2.27270054e-01 4.30534338e-01 7.51311070e-01 7.89989442e-01 4.04125961e-01 4.70716838e-01 4.39533098e-01 3.38433720e-01 5.76486603e-01 5.60710597e-01 5.13567072e-01 5.49140470e-01 5.42341668e-01 6.06797035e-01 5.14613426e-01 5.64770739e-01 3.55932603e-01 2.98491602e-01 3.26214895e-01 4.50461068e-01 4.16296469e-01 5.17705038e-01 4.21839451e-01 3.60652961e-01 3.83589871e-01 3.55244188e-01 5.77714022e-01 4.62763248e-01 4.26494550e-01 3.65978350e-01 4.91380007e-01 4.01794590e-01 3.89791420e-01 5.01918954e-01 3.88300152e-01 5.19379328e-01 4.08071568e-01 4.27046315e-01 4.97878950e-01 3.45744800e-01 4.19107295e-01 5.77659509e-01 8.07305688e-01 1.10833055e+00 8.44456737e-01 6.18323028e-01 7.15759978e-01 5.10217948e-01 6.37010262e-01 4.30326451e-01 6.78080085e-01 3.82587902e-01 7.04009295e-01 4.10350833e-01 5.48918703e-01 3.70291330e-01 3.63680000e-01 2.74734565e-01 7.29250755e-01 6.97287043e-01 9.42619625e-01 1.12909926e+00 7.65523134e-01 3.33371570e-01 7.08885156e-01 7.50384084e-01 6.78302658e-01 5.74742080e-01 4.12190282e-01 2.25352376e-01 7.14625334e-01 4.62224973e-01 5.05069594e-01 4.95797002e-01 4.77952950e-01 5.32918778e-01 7.19642824e-01 5.14612763e-01 2.78985514e-01 3.76314630e-01 8.99357674e-01 4.44838817e-01 3.68921665e-01 6.90505635e-01 6.59633476e-01 8.65204394e-01 5.03923024e-01 5.18470622e-01 4.37759098e-01 9.01616737e-01 5.38017650e-01 6.16844737e-01 3.92434084e-01 6.12489196e-01 5.29527320e-01 4.67476662e-01 5.70976478e-01 7.61357335e-01 7.27276336e-01 5.83565363e-01 5.60482744e-01 5.33126692e-01 6.92067058e-01 5.20331759e-01 7.03250389e-01 6.24521084e-01 4.54457647e-01 3.29073086e-01 4.01450083e-01 5.95485556e-01 7.39646414e-01 5.03314222e-01 6.88924423e-01 7.34634765e-01 8.24404615e-01 7.29460348e-01 4.95068741e-01 8.18336903e-01 6.31100151e-01 5.99941813e-01 7.44694869e-01 8.88512471e-01 1.04827930e+00 7.35177969e-01 6.57384650e-01 9.41137856e-01 4.50003635e-01 4.21409454e-01 5.97904026e-01 9.20590811e-01 1.14319305e+00 5.32551076e-01 9.40308695e-01 6.56392701e-01 7.04988676e-01 6.31249790e-01 5.74724756e-01 9.98502578e-01 5.46836339e-01 9.59532862e-01 4.71065961e-01 7.33578348e-01 1.08525045e+00 3.93428980e-01 5.85675843e-01 4.33265787e-01 7.63626929e-01 9.85922103e-01 9.79168101e-01 7.66934527e-01 8.23027436e-01 1.10205131e+00 8.20135177e-01 1.09739013e+00 9.46367885e-01 7.17165185e-01 5.11440412e-01 6.41890053e-01 5.19017739e-01 4.66048895e-01 7.46720042e-01 7.05962277e-01 6.49116346e-01 9.49824936e-01 6.60981963e-01 1.50428551e+00 6.13821298e-01 1.07995678e+00 5.97325634e-01 5.60909001e-01 6.55664004e-01 6.04394976e-01 7.07220264e-01 1.07399934e+00 7.78899844e-01 1.03298970e+00 9.23878688e-01 1.39123284e+00 1.21278990e+00 1.07761763e+00 5.66821011e-01 1.02887325e+00 7.91095726e-01 1.45553165e+00 7.92504165e-01 1.15723127e+00 4.54791142e-01 6.78037140e-01 1.61608129e+00 1.40570377e+00 7.70222890e-01 8.53063049e-01 1.12617934e+00 9.14349313e-01 1.13234935e+00 5.92797464e-01 1.15358884e+00 8.62649766e-01 9.92176177e-01 1.19869452e+00 6.91012150e-01 1.11193731e+00 8.53293914e-01 8.76415428e-01 1.18484693e+00 1.52104537e+00 1.31650772e+00 8.79548588e-01 1.17086827e+00 1.17009387e+00 7.74468441e-01 1.09896057e+00 1.27391184e+00 1.22116062e+00 1.19187101e+00 1.43922496e+00 1.05612820e+00 1.40799694e+00 9.20605219e-01 6.71788454e-01 1.46926235e+00 1.23841968e+00 1.34334633e+00 7.82585290e-01 1.37672282e+00 1.77930042e+00 1.39004295e+00 1.31958247e+00 1.37129407e+00 1.04564732e+00 1.23154013e+00 1.44073946e+00 1.47731348e+00 1.48071884e+00 1.29622683e+00 1.85812352e+00 1.28944545e+00 1.61184491e+00 1.16930181e+00 1.55602323e+00 8.15053901e-01 1.37800063e+00 1.23079133e+00 1.66070028e+00 1.16776108e+00 1.39743511e+00 1.05292848e+00 1.27021500e+00 1.62165090e+00 1.16164274e+00 1.98959441e+00 1.80949580e+00 1.64130106e+00 1.86294620e+00 1.78799472e+00 1.55472207e+00 1.59314638e+00 1.47267019e+00 1.95830437e+00 1.56316837e+00 1.00966488e+00 1.81828464e+00 1.37552265e+00 1.35290658e+00 2.00987444e+00 1.27505282e+00 1.22023972e+00 1.96121326e+00 1.15102770e+00 1.28795301e+00 2.04310201e+00 1.28250256e+00 1.25362653e+00 1.69521623e+00 1.70604115e+00 6.67128381e-01 7.96429824e-01 1.35335585e+00 9.06319277e-01 9.64454424e-01 6.10688508e-01 7.48799036e-01 6.87693410e-01 6.07739426e-01 1.05685179e-01 1.91242277e-01 0.00000000e+00 
      </Histogram>
    </PDF>
    <PDF Name="BDTG_fold4_PDFBkg" MinNSmooth="0" MaxNSmooth="0" InterpolMethod="2" KDE_type="1" KDE_iter="1" KDE_border="1" KDE_finefactor="1.0000000000000000e+00">
      <Histogram Name="BDT_tr_B_original" NBins="615" XMin="-9.9472904205322266e-01" XMax="9.9282908439636230e-01" HasEquidistantBins="1">
        3.77683708e-02 1.01476789e-01 2.91333269e-01 4.28067730e-01 6.40996963e-01 5.00185210e-01 8.03242563e-01 3.36911038e-01 4.15423776e-01 1.10089549e+00 1.24490124e+00 1.34733996e+00 1.08806636e+00 1.27271216e+00 1.51562892e+00 9.45115492e-01 8.98233290e-01 6.85089098e-01 9.33030770e-01 1.03400834e+00 8.00809717e-01 1.80784189e+00 5.25475723e-01 1.31547223e+00 1.86150157e+00 1.48981876e+00 1.06948672e+00 1.06519536e+00 1.52320806e+00 1.51376528e+00 1.11043741e+00 1.32674278e+00 9.89184235e-01 4.31237799e-01 1.02059155e+00 1.12531248e+00 2.23153949e+00 1.86700099e+00 9.65154931e-01 1.52427355e+00 1.22048503e+00 8.19805294e-01 8.19202543e-01 1.82103793e+00 7.70004449e-01 1.49646518e+00 7.30788262e-01 5.54266912e-01 9.12042867e-01 1.57192616e+00 1.21382370e+00 1.28010271e+00 1.17966312e+00 3.84686419e-01 4.92182361e-01 2.03652933e+00 4.92851844e-01 4.42702440e-01 2.00028371e+00 6.18788461e-01 1.06987917e+00 9.71681861e-01 8.53575995e-01 1.20312825e+00 4.46727400e-01 1.29807225e+00 1.39017888e+00 8.24872365e-01 8.50803563e-01 1.14929739e+00 8.59480741e-01 1.79730289e+00 8.26223562e-01 1.48591490e+00 3.11631783e+00 1.36121119e+00 8.92195724e-01 7.95837568e-01 2.13313675e+00 1.04151796e+00 9.26326222e-01 1.23728365e+00 3.46801474e-01 7.00103823e-01 2.63227973e+00 9.83389481e-01 1.29292199e+00 1.14781863e+00 4.14641693e-01 1.45402356e+00 9.09370266e-01 1.38648603e+00 2.09274503e+00 2.06590613e+00 1.50947686e+00 1.50886082e+00 9.04247809e-01 8.55997598e-01 1.60656305e+00 4.87225388e-01 8.48697858e-01 2.54043244e+00 1.82599663e+00 1.12718264e+00 8.29000832e-01 4.85570082e-01 6.45131268e-01 8.37141347e-01 9.97806006e-01 9.24749600e-01 9.97287392e-01 8.62070644e-01 1.01580370e+00 4.69385529e-01 6.24123229e-01 1.08995425e+00 1.19056977e+00 1.48228710e+00 1.07933676e+00 6.06050888e-01 1.87400769e+00 1.87988577e+00 7.57406594e-01 1.51588089e+00 8.07659526e-01 1.61266110e+00 1.62373326e+00 1.19686182e+00 8.96831920e-01 1.74902402e+00 1.39305529e+00 1.58811509e+00 9.29767999e-01 1.35357724e+00 6.34003457e-01 1.38003724e+00 3.08880457e-01 5.36565796e-01 9.03515207e-01 2.26411941e+00 7.84950189e-01 1.50655808e+00 8.04224758e-01 1.13936572e+00 7.06115797e-01 3.91407183e-01 8.20753810e-01 5.24958667e-01 1.05400110e+00 1.10273201e+00 4.19264947e-01 7.36283584e-01 7.90916439e-01 8.67761477e-01 1.37618486e+00 9.19684761e-01 3.68125018e-01 2.74721934e-01 4.10085065e-01 8.95214986e-01 6.85387806e-01 7.63237883e-01 7.18510083e-01 8.95440910e-01 6.76232742e-01 7.14875665e-01 1.17410433e+00 1.47589870e+00 1.94990831e+00 6.16495006e-01 9.79393872e-01 1.19100428e+00 -3.25006184e-01 7.51660154e-01 1.13750403e+00 1.40870286e+00 7.36050802e-01 1.16471564e+00 1.20892539e+00 3.25010400e-01 2.41844441e-01 2.44886496e-01 7.40050358e-01 1.12550601e+00 7.74443662e-01 8.12301401e-01 1.09863784e+00 1.46952371e+00 8.58577753e-01 5.07604568e-01 1.14755870e+00 1.06735690e+00 6.52654432e-01 2.53064302e-01 2.09694784e-01 8.01550836e-01 2.22477212e-01 6.32588401e-01 5.08609721e-01 3.41071900e-01 3.99709630e-01 3.67599639e-01 9.87197736e-01 5.20942139e-01 2.92340333e-01 3.43902568e-01 1.55360099e+00 3.24884744e-01 2.35591323e-01 4.08759379e-01 5.92208074e-01 5.56928511e-01 6.08294392e-01 7.97157428e-01 8.82181993e-01 3.04406462e-01 1.38076221e+00 7.52733241e-01 1.23057242e+00 1.80762931e-01 3.34658293e-01 2.42959261e-01 6.25344784e-01 2.79216309e-01 1.30350612e-01 7.34824379e-01 6.09201850e-01 3.16160116e-01 4.65923117e-01 5.72794281e-01 1.12324327e+00 1.21007205e+00 2.70718247e-01 2.65778628e-01 6.36349003e-01 5.35932051e-01 1.38786357e-01 8.30661489e-01 7.60733149e-01 1.73690172e-01 1.88403278e-01 2.07436203e-01 1.63177006e-01 6.36209727e-01 2.99406109e-01 7.37666234e-01 6.30970829e-01 7.63839870e-01 5.56821833e-01 5.98770311e-01 4.16475397e-01 2.40158912e-01 1.75154249e-01 4.24836168e-01 8.37529264e-01 5.76382555e-01 4.54846837e-01 2.29488677e-01 1.87861186e-01 1.80896278e-01 3.24681904e-01 9.58804468e-01 5.67813895e-01 6.81877018e-01 3.54827646e-01 3.82280084e-01 1.01284780e-01 6.32726437e-01 9.94752630e-01 2.90805384e-01 3.51994644e-01 6.16850594e-01 5.59677419e-01 1.82897565e-01 2.28427823e-01 4.07026492e-01 3.18452886e-01 4.47911033e-01 1.69372830e-01 2.24194049e-01 6.90396195e-01 6.38197666e-01 2.09039813e-01 8.09105930e-01 1.95942901e-01 3.32309942e-01 6.20926862e-01 3.18690530e-01 4.47840800e-01 2.71088897e-01 5.65982171e-01 3.51661958e-01 5.13163906e-01 1.66170175e-01 1.86018973e-01 1.63145878e-01 6.54416645e-01 1.10918705e+00 6.08673249e-01 4.35674519e-01 6.03140471e-01 4.38702058e-01 2.31887432e-01 1.05567486e+00 6.09239358e-01 1.60844447e-01 1.00347146e+00 1.04041747e+00 7.42356339e-01 3.77687487e-01 2.83041018e-01 6.23782820e-01 2.90816522e-01 1.84361799e-01 2.61394443e-01 5.71429884e-01 1.26406671e-01 2.57668233e-01 4.30068152e-01 2.09647387e-01 7.57802579e-01 6.52933706e-01 1.54631404e-01 5.24342679e-01 7.08899916e-01 5.89197071e-01 1.43638014e-01 1.00426193e-01 1.04955616e-01 1.08606663e+00 2.17448365e-01 2.96257970e-01 6.81705204e-01 1.17363608e-01 5.57988497e-01 1.14549642e-01 7.28716881e-01 6.55451903e-01 1.52022609e-01 1.74000136e-01 1.98264541e-02 1.74466091e-01 1.90484501e-01 5.98829964e-01 5.50613008e-01 1.37157149e-01 4.64466439e-01 1.11657592e-01 9.04309421e-02 1.51428477e-01 1.82446400e-01 1.74210965e-01 8.82230380e-02 2.66466959e-01 1.50234620e-01 1.64704607e-01 8.46838658e-01 1.07439637e-01 3.41867980e-01 4.57439066e-01 1.65959860e-01 1.54356764e-01 4.85229342e-01 2.44459765e-01 3.18275870e-01 9.95299099e-02 2.68680859e-01 1.29841038e-01 1.90454826e-01 2.52770705e-01 2.23055427e-01 1.98106151e-01 3.39883336e-01 5.61787898e-01 1.68805213e-01 1.12549733e-01 2.07410893e-01 1.66477848e-01 7.64470790e-02 2.76758736e-02 9.68899475e-02 1.03647786e-02 1.67842712e-01 1.63604522e-01 1.78126543e-01 9.91248608e-02 2.33881458e-01 9.99150864e-02 1.18770923e-01 7.34790660e-02 9.67565626e-02 1.38788311e-01 1.49475903e-01 1.74693373e-01 5.08103815e-01 1.71785391e-01 1.22407298e-01 1.43921250e-01 2.44899657e-01 1.41765498e-01 5.62785854e-01 1.69590445e-01 2.58971978e-01 1.91641607e-01 1.52195422e-01 1.07764029e-01 7.64949679e-02 8.75563406e-02 6.48748531e-01 1.90273778e-01 1.72697278e-01 8.05613323e-02 1.63348127e-01 4.54483638e-01 9.66617858e-02 1.11675725e-01 1.33765221e-01 3.57350213e-02 2.31657069e-01 1.19454434e-01 7.99003284e-02 3.30800241e-01 4.43263946e-02 9.94975083e-02 1.46913622e-01 6.24937632e-02 9.35881796e-02 2.31246687e-01 1.01303129e-01 2.51634483e-01 9.20362013e-02 9.83585866e-02 1.32171262e-01 1.37690511e-01 1.07873558e-01 6.04155893e-01 1.00474126e-01 8.49431266e-02 1.36634889e-01 9.92564590e-02 2.22224520e-01 1.33995611e-01 7.71748502e-02 2.78513818e-01 1.35755144e-01 3.20704641e-01 1.43244611e-01 9.72649255e-02 1.18045453e-01 1.02371891e-01 6.00309255e-01 1.77096229e-01 5.03477536e-01 5.10889199e-02 1.51170061e-01 9.15001469e-02 9.37383721e-02 1.58133223e-01 1.08905992e-01 1.06893004e-01 1.62111476e-01 2.74907184e-01 2.15164396e-01 1.24288016e-01 1.09835720e-01 1.39301549e-01 7.70520384e-02 1.24048482e-01 8.79852057e-02 5.78069007e-01 1.01672062e-01 9.35627350e-02 7.78248752e-02 1.07194687e-01 1.87251496e-01 5.65935547e-02 1.67485112e-01 5.17855712e-02 1.37012984e-01 2.36342776e-01 1.03850523e-01 1.46588774e-01 1.47801861e-01 7.67086177e-02 9.19865522e-02 8.70940380e-02 1.50819336e-01 1.19677527e-01 3.05979227e-02 1.37806210e-01 1.67329089e-01 8.18698590e-02 1.82273958e-01 9.36807618e-02 9.55867708e-02 1.47445065e-01 1.08406474e-01 6.12366925e-02 1.78764550e-01 8.54076445e-02 2.01444041e-01 1.92472254e-01 7.75216621e-02 -2.07412331e-02 5.70753636e-02 7.11894206e-02 1.06310379e-01 8.45232071e-02 1.55035514e-01 1.08186329e-01 7.40464708e-02 9.16544677e-02 -5.35539140e-02 1.46654740e-01 1.41276721e-01 6.16830580e-02 5.14033684e-02 8.56106968e-02 4.65466488e-01 1.36710285e-01 3.27898765e-02 1.58608184e-01 1.45332724e-01 1.38396191e-01 1.25647116e-01 7.74540846e-02 1.20376118e-01 1.06213541e-01 1.03830945e-01 7.14063647e-02 9.18439929e-02 1.19049625e-01 4.00449503e-02 1.10349251e-01 8.60330513e-02 1.26797103e-01 2.08600565e-01 6.74453080e-02 1.10595236e-01 9.20927963e-02 1.03015727e-01 8.54616397e-02 5.65407370e-02 2.24801270e-02 -2.89790781e-02 3.44334734e-02 1.31852170e-01 7.06373056e-02 6.00852724e-02 8.07881970e-02 1.03065431e-01 6.86903624e-03 1.57790019e-01 2.79440819e-02 1.27169649e-01 2.23282105e-01 6.47980222e-02 4.00577435e-02 2.63438415e-02 4.97100651e-02 1.46378778e-01 1.95617062e-01 1.33875732e-01 1.05041939e-01 6.45705294e-02 5.21257670e-02 9.02385914e-02 1.04912421e-01 6.49599916e-02 3.03156102e-02 1.85521466e-01 7.94547644e-02 8.00572871e-02 5.07438554e-02 7.47350867e-02 3.61422892e-02 4.66042897e-02 7.77024424e-02 5.24314666e-02 6.35889531e-02 4.77005460e-02 8.68773487e-02 2.91767592e-02 -2.71455753e-02 7.93573209e-02 3.33621826e-02 8.26807012e-03 4.88941876e-02 6.68041909e-02 3.73601299e-02 8.47984693e-02 7.73390862e-02 9.60441878e-03 1.34419750e-02 3.34665141e-02 7.39038973e-02 2.29384980e-02 4.52721643e-02 2.83024772e-02 1.66597378e-02 1.86095111e-02 1.29397184e-02 1.10835639e-02 9.30154696e-03 0.00000000e+00 1.20051733e-02 3.26677167e-03 1.47299422e-02 4.92788125e-03 1.76972804e-02 0.00000000e+00 0.00000000e+00 0.00000000e+00 9.27915731e-03 0.00000000e+00 
      </Histogram>
    </PDF>
  </MVAPdfs>
  <Weights NTrees="1000" AnalysisType="1">
    <BinaryTree type="DecisionTree" boostWeight="1.0000000000000000e+00" itree="0">
      <Node pos="s" depth="0" NCoef="0" IVar="1" Cut="1.8166608810424805e+00" cType="1" res="-6.3719980457159747e-16" rms="5.0000000000000000e-01" purity="5.0000000000000000e-01" nType="0">
        <Node pos="l" depth="1" NCoef="0" IVar="9" Cut="1.2855259180068970e+00" cType="1" res="-2.7087959647178650e-01" rms="4.2026689648628235e-01" purity="2.2912041842937469e-01" nType="0">
          <Node pos="l" depth="2" NCoef="0" IVar="-1" Cut="0.0000000000000000e+00" cType="1" res="-1.3570521958172321e-02" rms="4.8658967018127441e-01" purity="3.8497608900070190e-01" nType="-99"/>
          <Node pos="r" depth="2" NCoef="0" IVar="4" Cut="2.4292836189270020e+00" cType="1" res="-3.2721334695816040e-01" rms="3.7806272506713867e-01" purity="1.7278665304183960e-01" nType="0">
            <Node pos="l" depth="3" NCoef="0" IVar="-1" Cut="0.0000000000000000e+00" cType="1" res="-2.5578096508979797e-02" rms="4.5055258274078369e-01" purity="2.8319972753524780e-01" nType="-99"/>
            <Node pos="r" depth="3" NCoef="0" IVar="9" Cut="2.1813578605651855e+00" cType="1" res="-3.8600805401802063e-01" rms="3.1780147552490234e-01" purity="1.1399194598197937e-01" nType="0">
              <Node pos="l" depth="4" NCoef="0" IVar="-1" Cut="0.0000000000000000e+00" cType="1" res="-4.0765397250652313e-02" rms="3.6140057444572449e-01" purity="1.5447196364402771e-01" nType="-99"/>
              <Node pos="r" depth="4" NCoef="0" IVar="-1" Cut="0.0000000000000000e+00" cType="1" res="-5.0519134849309921e-02" rms="2.5815510749816895e-01" purity="7.1799181401729584e-02" nType="-99"/>
            </Node>
          </Node>
        </Node>
        <Node pos="r" depth="1" NCoef="0" IVar="9" Cut="8.1676715612411499e-01" cType="1" res="7.7637702226638794e-02" rms="4.9393561482429504e-01" purity="5.7763767242431641e-01" nType="0">
          <Node pos="l" depth="2" NCoef="0" IVar="11" Cut="9.2829626798629761e-01" cType="1" res="2.5251504778862000e-01" rms="4.3155086040496826e-01" purity="7.5251507759094238e-01" nType="0">
            <Node pos="l" depth="3" NCoef="0" IVar="-1" Cut="0.0000000000000000e+00" cType="1" res="1.5485711395740509e-02" rms="4.8246407508850098e-01" purity="6.3125705718994141e-01" nType="-99"/>
            <Node pos="r" depth="3" NCoef="0" IVar="-1" Cut="0.0000000000000000e+00" cType="1" res="3.9238013327121735e-02" rms="3.7334874272346497e-01" purity="8.3258187770843506e-01" nType="-99"/>
          </Node>
          <Node pos="r" depth="2" NCoef="0" IVar="4" Cut="1.1487879753112793e+00" cType="1" res="2.0698470994830132e-02" rms="4.9957138299942017e-01" purity="5.2069848775863647e-01" nType="0">
            <Node pos="l" depth="3" NCoef="0" IVar="4" Cut="7.9085940122604370e-01" cType="1" res="2.3577372729778290e-01" rms="4.4092035293579102e-01" purity="7.3577368259429932e-01" nType="0">
              <Node pos="l" depth="4" NCoef="0" IVar="-1" Cut="0.0000000000000000e+00" cType="1" res="3.5252604633569717e-02" rms="4.0089607238769531e-01" purity="7.9880148172378540e-01" nType="-99"/>
              <Node pos="r" depth="4" NCoef="0" IVar="-1" Cut="0.0000000000000000e+00" cType="1" res="2.0176574587821960e-02" rms="4.6984383463859558e-01" purity="6.7101693153381348e-01" nType="-99"/>
            </Node>
            <Node pos="r" depth="3" NCoef="0" IVar="7" Cut="1.9667742252349854e+00" cType="1" res="-4.8577986657619476e-02" rms="4.9763458967208862e-01" purity="4.5142200589179993e-01" nType="0">
              <Node pos="l" depth="4" NCoef="0" IVar="-1" Cut="0.0000000000000000e+00" cType="1" res="-1.9359037978574634e-03" rms="4.9973067641258240e-01" purity="4.8359122872352600e-01" nType="-99"/>
              <Node pos="r" depth="4" NCoef="0" IVar="-1" Cut="0.0000000000000000e+00" cType="1" res="-2.8665538877248764e-02" rms="4.3699637055397034e-01" purity="2.5703051686286926e-01" nType="-99"/>
            </Node>
          </Node>
        </Node>
      </Node>
    </BinaryTree>
    <BinaryTree type="DecisionTree" boostWeight="1.0000000000000000e+00" itree="1">
      <Node pos="s" depth="0" NCoef="0" IVar="1" Cut="1.8166608810424805e+00" cType="1" res="-3.3271749089180958e-07" rms="4.9471727013587952e-01" purity="5.0000000000000000e-01" nType="0">
        <Node pos="l" depth="1" NCoef="0" IVar="9" Cut="1.2855259180068970e+00" cType="1" res="-2.5490900874137878e-01" rms="4.1830733418464661e-01" purity="2.2912041842937469e-01" nType="0">
          <Node pos="l" depth="2" NCoef="0" IVar="-1" Cut="0.0000000000000000e+00" cType="1" res="-1.2772396206855774e-02" rms="4.8658967018127441e-01" purity="3.8497608900070190e-01" nType="-99"/>
          <Node pos="r" depth="2" NCoef="0" IVar="4" Cut="2.4292836189270020e+00" cType="1" res="-3.0792263150215149e-01" rms="3.7691080570220947e-01" purity="1.7278665304183960e-01" nType="0">
            <Node pos="l" depth="3" NCoef="0" IVar="-1" Cut="0.0000000000000000e+00" cType="1" res="-2.4085322394967079e-02" rms="4.5055258274078369e-01" purity="2.8319972753524780e-01" nType="-99"/>
            <Node pos="r" depth="3" NCoef="0" IVar="9" Cut="2.1813578605651855e+00" cType="1" res="-3.6325371265411377e-01" rms="3.1749427318572998e-01" purity="1.1399194598197937e-01" nType="0">
              <Node pos="l" depth="4" NCoef="0" IVar="-1" Cut="0.0000000000000000e+00" cType="1" res="-3.8425762206315994e-02" rms="3.6140060424804688e-01" purity="1.5447196364402771e-01" nType="-99"/>
              <Node pos="r" depth="4" NCoef="0" IVar="-1" Cut="0.0000000000000000e+00" cType="1" res="-4.7662980854511261e-02" rms="2.5815510749816895e-01" purity="7.1799181401729584e-02" nType="-99"/>
            </Node>
          </Node>
        </Node>
        <Node pos="r" depth="1" NCoef="0" IVar="7" Cut="1.9361670017242432e+00" cType="1" res="7.3059894144535065e-02" rms="4.9069237709045410e-01" purity="5.7763767242431641e-01" nType="0">
          <Node pos="l" depth="2" NCoef="0" IVar="9" Cut="8.1676715612411499e-01" cType="1" res="1.0819073021411896e-01" rms="4.8421046137809753e-01" purity="6.1420971155166626e-01" nType="0">
            <Node pos="l" depth="3" NCoef="0" IVar="12" Cut="2.4485873413085938e+02" cType="1" res="2.6195535063743591e-01" rms="4.1504138708114624e-01" purity="7.7694684267044067e-01" nType="0">
              <Node pos="l" depth="4" NCoef="0" IVar="-1" Cut="0.0000000000000000e+00" cType="1" res="3.9680417627096176e-02" rms="3.5388797521591187e-01" purity="8.5262924432754517e-01" nType="-99"/>
              <Node pos="r" depth="4" NCoef="0" IVar="-1" Cut="0.0000000000000000e+00" cType="1" res="1.6958514228463173e-02" rms="4.7405514121055603e-01" purity="6.5588086843490601e-01" nType="-99"/>
            </Node>
            <Node pos="r" depth="3" NCoef="0" IVar="4" Cut="1.3992851972579956e+00" cType="1" res="5.5500168353319168e-02" rms="4.9486944079399109e-01" purity="5.5844449996948242e-01" nType="0">
              <Node pos="l" depth="4" NCoef="0" IVar="-1" Cut="0.0000000000000000e+00" cType="1" res="2.6409585028886795e-02" rms="4.4048106670379639e-01" purity="7.3442405462265015e-01" nType="-99"/>
              <Node pos="r" depth="4" NCoef="0" IVar="-1" Cut="0.0000000000000000e+00" cType="1" res="-3.4327688626945019e-03" rms="4.9909535050392151e-01" purity="4.6993595361709595e-01" nType="-99"/>
            </Node>
          </Node>
          <Node pos="r" depth="2" NCoef="0" IVar="-1" Cut="0.0000000000000000e+00" cType="1" res="-2.2053146734833717e-02" rms="4.5921114087104797e-01" purity="3.0714312195777893e-01" nType="-99"/>
        </Node>
      </Node>
    </BinaryTree>
    <BinaryTree type="DecisionTree" boostWeight="1.0000000000000000e+00" itree="2">
      <Node pos="s" depth="0" NCoef="0" IVar="1" Cut="1.8166608810424805e+00" cType="1" res="-1.4450087064687978e-06" rms="4.8973804712295532e-01" purity="5.0000000000000000e-01" nType="0">
        <Node pos="l" depth="1" NCoef="0" IVar="6" Cut="9.2539352416992188e+01" cType="1" res="-2.3990201950073242e-01" rms="4.1656932234764099e-01" purity="2.2912041842937469e-01" nType="0">
          <Node pos="l" depth="2" NCoef="0" IVar="-1" Cut="0.0000000000000000e+00" cType="1" res="-1.3449785299599171e-02" rms="4.7612884640693665e-01" purity="3.5975211858749390e-01" nType="-99"/>
          <Node pos="r" depth="2" NCoef="0" IVar="9" Cut="1.5068476200103760e+00" cType="1" res="-2.9690331220626831e-01" rms="3.7293905019760132e-01" purity="1.7015664279460907e-01" nType="0">
            <Node pos="l" depth="3" NCoef="0" IVar="-1" Cut="0.0000000000000000e+00" cType="1" res="-2.3781437426805496e-02" rms="4.4813808798789978e-01" purity="2.7991193532943726e-01" nType="-99"/>
            <Node pos="r" depth="3" NCoef="0" IVar="-1" Cut="0.0000000000000000e+00" cType="1" res="-4.1574798524379730e-02" rms="3.1142044067382812e-01" purity="1.0934065282344818e-01" nType="-99"/>
          </Node>
        </Node>
        <Node pos="r" depth="1" NCoef="0" IVar="7" Cut="1.9361670017242432e+00" cType="1" res="6.8757258355617523e-02" rms="4.8746964335441589e-01" purity="5.7763767242431641e-01" nType="0">
          <Node pos="l" depth="2" NCoef="0" IVar="9" Cut="8.1676715612411499e-01" cType="1" res="1.0181733965873718e-01" rms="4.8173302412033081e-01" purity="6.1420971155166626e-01" nType="0">
            <Node pos="l" depth="3" NCoef="0" IVar="12" Cut="2.4485873413085938e+02" cType="1" res="2.4652679264545441e-01" rms="4.1383737325668335e-01" purity="7.7694684267044067e-01" nType="0">
              <Node pos="l" depth="4" NCoef="0" IVar="-1" Cut="0.0000000000000000e+00" cType="1" res="3.7501987069845200e-02" rms="3.5389003157615662e-01" purity="8.5262924432754517e-01" nType="-99"/>
              <Node pos="r" depth="4" NCoef="0" IVar="-1" Cut="0.0000000000000000e+00" cType="1" res="1.5976486727595329e-02" rms="4.7405633330345154e-01" purity="6.5588086843490601e-01" nType="-99"/>
            </Node>
            <Node pos="r" depth="3" NCoef="0" IVar="4" Cut="1.3992851972579956e+00" cType="1" res="5.2229717373847961e-02" rms="4.9322223663330078e-01" purity="5.5844449996948242e-01" nType="0">
              <Node pos="l" depth="4" NCoef="0" IVar="-1" Cut="0.0000000000000000e+00" cType="1" res="2.4898419156670570e-02" rms="4.4048288464546204e-01" purity="7.3442405462265015e-01" nType="-99"/>
              <Node pos="r" depth="4" NCoef="0" IVar="-1" Cut="0.0000000000000000e+00" cType="1" res="-3.2303542830049992e-03" rms="4.9909532070159912e-01" purity="4.6993595361709595e-01" nType="-99"/>
            </Node>
          </Node>
          <Node pos="r" depth="2" NCoef="0" IVar="-1" Cut="0.0000000000000000e+00" cType="1" res="-2.0774006843566895e-02" rms="4.5921173691749573e-01" purity="3.0714312195777893e-01" nType="-99"/>
        </Node>
      </Node>
    </BinaryTree>
    <BinaryTree type="DecisionTree" boostWeight="1.0000000000000000e+00" itree="3">
      <Node pos="s" depth="0" NCoef="0" IVar="1" Cut="1.8166608810424805e+00" cType="1" res="-1.5360329825853114e-06" rms="4.8530599474906921e-01" purity="5.0000000000000000e-01" nType="0">
        <Node pos="l" depth="1" NCoef="0" IVar="9" Cut="1.2855259180068970e+00" cType="1" res="-2.2579108178615570e-01" rms="4.1510945558547974e-01" purity="2.2912041842937469e-01" nType="0">
          <Node pos="l" depth="2" NCoef="0" IVar="-1" Cut="0.0000000000000000e+00" cType="1" res="-1.0822433046996593e-02" rms="4.8597598075866699e-01" purity="3.8497608900070190e-01" nType="-99"/>
          <Node pos="r" depth="2" NCoef="0" IVar="4" Cut="2.4292836189270020e+00" cType="1" res="-2.7432081103324890e-01" rms="3.7465178966522217e-01" purity="1.7278665304183960e-01" nType="0">
            <Node pos="l" depth="3" NCoef="0" IVar="-1" Cut="0.0000000000000000e+00" cType="1" res="-2.1371807903051376e-02" rms="4.4899126887321472e-01" purity="2.8319972753524780e-01" nType="-99"/>
            <Node pos="r" depth="3" NCoef="0" IVar="9" Cut="2.1813578605651855e+00" cType="1" res="-3.2447049021720886e-01" rms="3.1705135107040405e-01" purity="1.1399194598197937e-01" nType="0">
              <Node pos="l" depth="4" NCoef="0" IVar="-1" Cut="0.0000000000000000e+00" cType="1" res="-3.4586548805236816e-02" rms="3.6126026511192322e-01" purity="1.5447196364402771e-01" nType="-99"/>
              <Node pos="r" depth="4" NCoef="0" IVar="-1" Cut="0.0000000000000000e+00" cType="1" res="-4.3378245085477829e-02" rms="2.5816974043846130e-01" purity="7.1799181401729584e-02" nType="-99"/>
            </Node>
          </Node>
        </Node>
        <Node pos="r" depth="1" NCoef="0" IVar="7" Cut="1.7346199750900269e+00" cType="1" res="6.4712755382061005e-02" rms="4.8460072278976440e-01" purity="5.7763767242431641e-01" nType="0">
          <Node pos="l" depth="2" NCoef="0" IVar="8" Cut="6.3263683319091797e+01" cType="1" res="1.0540071129798889e-01" rms="4.7709327936172485e-01" purity="6.2414628267288208e-01" nType="0">
            <Node pos="l" depth="3" NCoef="0" IVar="9" Cut="8.1902116537094116e-01" cType="1" res="2.2489201277494431e-02" rms="4.9068716168403625e-01" purity="5.3938663005828857e-01" nType="0">
              <Node pos="l" depth="4" NCoef="0" IVar="-1" Cut="0.0000000000000000e+00" cType="1" res="2.5087505578994751e-02" rms="4.2687135934829712e-01" purity="7.5496929883956909e-01" nType="-99"/>
              <Node pos="r" depth="4" NCoef="0" IVar="-1" Cut="0.0000000000000000e+00" cType="1" res="-5.7690902613103390e-03" rms="4.9440059065818787e-01" purity="4.5774948596954346e-01" nType="-99"/>
            </Node>
            <Node pos="r" depth="3" NCoef="0" IVar="12" Cut="2.3882028198242188e+02" cType="1" res="2.0441618561744690e-01" rms="4.4033309817314148e-01" purity="7.2536897659301758e-01" nType="0">
              <Node pos="l" depth="4" NCoef="0" IVar="-1" Cut="0.0000000000000000e+00" cType="1" res="3.2148655503988266e-02" rms="3.9640733599662781e-01" purity="7.9662746191024780e-01" nType="-99"/>
              <Node pos="r" depth="4" NCoef="0" IVar="-1" Cut="0.0000000000000000e+00" cType="1" res="1.1080832220613956e-02" rms="4.8503732681274414e-01" purity="6.0708785057067871e-01" nType="-99"/>
            </Node>
          </Node>
          <Node pos="r" depth="2" NCoef="0" IVar="7" Cut="2.0033581256866455e+00" cType="1" res="-1.1394616961479187e-01" rms="4.7681400179862976e-01" purity="3.7342056632041931e-01" nType="0">
            <Node pos="l" depth="3" NCoef="0" IVar="-1" Cut="0.0000000000000000e+00" cType="1" res="-2.5996332988142967e-03" rms="4.9391537904739380e-01" purity="4.8447677493095398e-01" nType="-99"/>
            <Node pos="r" depth="3" NCoef="0" IVar="-1" Cut="0.0000000000000000e+00" cType="1" res="-2.2248405963182449e-02" rms="4.4916272163391113e-01" purity="2.8416711091995239e-01" nType="-99"/>
          </Node>
        </Node>
      </Node>
    </BinaryTree>
    <BinaryTree type="DecisionTree" boostWeight="1.0000000000000000e+00" itree="4">
      <Node pos="s" depth="0" NCoef="0" IVar="1" Cut="1.8166608810424805e+00" cType="1" res="-6.2382141550187953e-06" rms="4.8111033439636230e-01" purity="5.0000000000000000e-01" nType="0">
        <Node pos="l" depth="1" NCoef="0" IVar="0" Cut="6.0824523437500000e+04" cType="1" res="-2.1252694725990295e-01" rms="4.1365876793861389e-01" purity="2.2912041842937469e-01" nType="0">
          <Node pos="l" depth="2" NCoef="0" IVar="4" Cut="2.4214913845062256e+00" cType="1" res="-2.7293401956558228e-01" rms="3.6872321367263794e-01" purity="1.6851826012134552e-01" nType="0">
            <Node pos="l" depth="3" NCoef="0" IVar="-1" Cut="0.0000000000000000e+00" cType="1" res="-2.2813819348812103e-02" rms="4.4136366248130798e-01" purity="2.6792132854461670e-01" nType="-99"/>
            <Node pos="r" depth="3" NCoef="0" IVar="-1" Cut="0.0000000000000000e+00" cType="1" res="-3.8672354072332382e-02" rms="3.0816844105720520e-01" purity="1.0969112813472748e-01" nType="-99"/>
          </Node>
          <Node pos="r" depth="2" NCoef="0" IVar="-1" Cut="0.0000000000000000e+00" cType="1" res="-1.2853080406785011e-02" rms="4.6362206339836121e-01" purity="3.3474898338317871e-01" nType="-99"/>
        </Node>
        <Node pos="r" depth="1" NCoef="0" IVar="9" Cut="1.0314749479293823e+00" cType="1" res="6.0905031859874725e-02" rms="4.8177814483642578e-01" purity="5.7763767242431641e-01" nType="0">
          <Node pos="l" depth="2" NCoef="0" IVar="11" Cut="9.2829626798629761e-01" cType="1" res="1.7422226071357727e-01" rms="4.4498705863952637e-01" purity="7.0980453491210938e-01" nType="0">
            <Node pos="l" depth="3" NCoef="0" IVar="-1" Cut="0.0000000000000000e+00" cType="1" res="8.5308309644460678e-03" rms="4.8278653621673584e-01" purity="5.9795612096786499e-01" nType="-99"/>
            <Node pos="r" depth="3" NCoef="0" IVar="9" Cut="7.2466403245925903e-01" cType="1" res="2.3720546066761017e-01" rms="4.0745559334754944e-01" purity="7.7863079309463501e-01" nType="0">
              <Node pos="l" depth="4" NCoef="0" IVar="-1" Cut="0.0000000000000000e+00" cType="1" res="3.6171838641166687e-02" rms="3.4190008044242859e-01" purity="8.6052942276000977e-01" nType="-99"/>
              <Node pos="r" depth="4" NCoef="0" IVar="-1" Cut="0.0000000000000000e+00" cType="1" res="1.9183453172445297e-02" rms="4.6155303716659546e-01" purity="6.8257409334182739e-01" nType="-99"/>
            </Node>
          </Node>
          <Node pos="r" depth="2" NCoef="0" IVar="4" Cut="1.1487879753112793e+00" cType="1" res="1.1748715769499540e-03" rms="4.8963928222656250e-01" purity="5.0797182321548462e-01" nType="0">
            <Node pos="l" depth="3" NCoef="0" IVar="4" Cut="7.9085940122604370e-01" cType="1" res="1.9747005403041840e-01" rms="4.3294817209243774e-01" purity="7.3931759595870972e-01" nType="0">
              <Node pos="l" depth="4" NCoef="0" IVar="-1" Cut="0.0000000000000000e+00" cType="1" res="3.0135195702314377e-02" rms="3.9526209235191345e-01" purity="7.9962223768234253e-01" nType="-99"/>
              <Node pos="r" depth="4" NCoef="0" IVar="-1" Cut="0.0000000000000000e+00" cType="1" res="1.6698762774467468e-02" rms="4.6159628033638000e-01" purity="6.7744642496109009e-01" nType="-99"/>
            </Node>
            <Node pos="r" depth="3" NCoef="0" IVar="7" Cut="1.7675815820693970e+00" cType="1" res="-6.9410294294357300e-02" rms="4.8960810899734497e-01" purity="4.2478290200233459e-01" nType="0">
              <Node pos="l" depth="4" NCoef="0" IVar="-1" Cut="0.0000000000000000e+00" cType="1" res="-4.1957870125770569e-03" rms="4.9605467915534973e-01" purity="4.6656554937362671e-01" nType="-99"/>
              <Node pos="r" depth="4" NCoef="0" IVar="-1" Cut="0.0000000000000000e+00" cType="1" res="-2.1744901314377785e-02" rms="4.4894376397132874e-01" purity="2.8436842560768127e-01" nType="-99"/>
            </Node>
          </Node>
        </Node>
      </Node>
    </BinaryTree>
    <BinaryTree type="DecisionTree" boostWeight="1.0000000000000000e+00" itree="5">
      <Node pos="s" depth="0" NCoef="0" IVar="1" Cut="2.0710909366607666e+00" cType="1" res="-6.8978552008047700e-06" rms="4.7735413908958435e-01" purity="5.0000000000000000e-01" nType="0">
        <Node pos="l" depth="1" NCoef="0" IVar="9" Cut="1.0642042160034180e+00" cType="1" res="-1.6559492051601410e-01" rms="4.3494188785552979e-01" purity="2.8236687183380127e-01" nType="0">
          <Node pos="l" depth="2" NCoef="0" IVar="-1" Cut="0.0000000000000000e+00" cType="1" res="7.7870092354714870e-03" rms="4.8614731431007385e-01" purity="5.5051940679550171e-01" nType="-99"/>
          <Node pos="r" depth="2" NCoef="0" IVar="4" Cut="2.1751918792724609e+00" cType="1" res="-2.2409673035144806e-01" rms="4.0036588907241821e-01" purity="2.1447849273681641e-01" nType="0">
            <Node pos="l" depth="3" NCoef="0" IVar="-1" Cut="0.0000000000000000e+00" cType="1" res="-1.5394131653010845e-02" rms="4.6622645854949951e-01" purity="3.3789050579071045e-01" nType="-99"/>
            <Node pos="r" depth="3" NCoef="0" IVar="0" Cut="5.5220707031250000e+04" cType="1" res="-2.6522922515869141e-01" rms="3.6049214005470276e-01" purity="1.6097460687160492e-01" nType="0">
              <Node pos="l" depth="4" NCoef="0" IVar="-1" Cut="0.0000000000000000e+00" cType="1" res="-3.7043560296297073e-02" rms="3.1653878092765808e-01" purity="1.1743804067373276e-01" nType="-99"/>
              <Node pos="r" depth="4" NCoef="0" IVar="-1" Cut="0.0000000000000000e+00" cType="1" res="-2.5250293314456940e-02" rms="4.0805304050445557e-01" purity="2.2232839465141296e-01" nType="-99"/>
            </Node>
          </Node>
        </Node>
        <Node pos="r" depth="1" NCoef="0" IVar="7" Cut="1.9361670017242432e+00" cType="1" res="7.0013768970966339e-02" rms="4.7721174359321594e-01" purity="5.9202855825424194e-01" nType="0">
          <Node pos="l" depth="2" NCoef="0" IVar="12" Cut="3.2028628540039062e+02" cType="1" res="9.6816733479499817e-02" rms="4.7237432003021240e-01" purity="6.2654513120651245e-01" nType="0">
            <Node pos="l" depth="3" NCoef="0" IVar="8" Cut="6.3263683319091797e+01" cType="1" res="1.3848273456096649e-01" rms="4.5776626467704773e-01" purity="6.7206329107284546e-01" nType="0">
              <Node pos="l" depth="4" NCoef="0" IVar="-1" Cut="0.0000000000000000e+00" cType="1" res="7.4319536797702312e-03" rms="4.7979918122291565e-01" purity="5.8908367156982422e-01" nType="-99"/>
              <Node pos="r" depth="4" NCoef="0" IVar="-1" Cut="0.0000000000000000e+00" cType="1" res="2.6295812800526619e-02" rms="4.1755363345146179e-01" purity="7.6148813962936401e-01" nType="-99"/>
            </Node>
            <Node pos="r" depth="3" NCoef="0" IVar="8" Cut="6.8730758666992188e+01" cType="1" res="-5.0410602241754532e-02" rms="4.9329409003257751e-01" purity="4.6570584177970886e-01" nType="0">
              <Node pos="l" depth="4" NCoef="0" IVar="-1" Cut="0.0000000000000000e+00" cType="1" res="-1.1120682582259178e-02" rms="4.8874181509017944e-01" purity="4.2098703980445862e-01" nType="-99"/>
              <Node pos="r" depth="4" NCoef="0" IVar="-1" Cut="0.0000000000000000e+00" cType="1" res="2.1643722429871559e-03" rms="4.9263885617256165e-01" purity="5.3631746768951416e-01" nType="-99"/>
            </Node>
          </Node>
          <Node pos="r" depth="2" NCoef="0" IVar="-1" Cut="0.0000000000000000e+00" cType="1" res="-1.7509099096059799e-02" rms="4.6040746569633484e-01" purity="3.1239745020866394e-01" nType="-99"/>
        </Node>
      </Node>
    </BinaryTree>
    <BinaryTree type="DecisionTree" boostWeight="1.0000000000000000e+00" itree="6">
      <Node pos="s" depth="0" NCoef="0" IVar="1" Cut="1.8166608810424805e+00" cType="1" res="-1.4144259694148786e-05" rms="4.7397643327713013e-01" purity="5.0000000000000000e-01" nType="0">
        <Node pos="l" depth="1" NCoef="0" IVar="6" Cut="9.2539352416992188e+01" cType="1" res="-1.8957626819610596e-01" rms="4.1038411855697632e-01" purity="2.2912041842937469e-01" nType="0">
          <Node pos="l" depth="2" NCoef="0" IVar="-1" Cut="0.0000000000000000e+00" cType="1" res="-9.0664671733975410e-03" rms="4.7057095170021057e-01" purity="3.5975211858749390e-01" nType="-99"/>
          <Node pos="r" depth="2" NCoef="0" IVar="9" Cut="1.5068476200103760e+00" cType="1" res="-2.4113065004348755e-01" rms="3.6869525909423828e-01" purity="1.7015664279460907e-01" nType="0">
            <Node pos="l" depth="3" NCoef="0" IVar="-1" Cut="0.0000000000000000e+00" cType="1" res="-1.9537473097443581e-02" rms="4.4505178928375244e-01" purity="2.7991193532943726e-01" nType="-99"/>
            <Node pos="r" depth="3" NCoef="0" IVar="-1" Cut="0.0000000000000000e+00" cType="1" res="-3.5185653716325760e-02" rms="3.1026318669319153e-01" purity="1.0934065282344818e-01" nType="-99"/>
          </Node>
        </Node>
        <Node pos="r" depth="1" NCoef="0" IVar="9" Cut="1.0314749479293823e+00" cType="1" res="5.4316889494657516e-02" rms="4.7699204087257385e-01" purity="5.7763767242431641e-01" nType="0">
          <Node pos="l" depth="2" NCoef="0" IVar="11" Cut="9.2829626798629761e-01" cType="1" res="1.5984608232975006e-01" rms="4.4217750430107117e-01" purity="7.0980453491210938e-01" nType="0">
            <Node pos="l" depth="3" NCoef="0" IVar="-1" Cut="0.0000000000000000e+00" cType="1" res="7.8545659780502319e-03" rms="4.8134377598762512e-01" purity="5.9795612096786499e-01" nType="-99"/>
            <Node pos="r" depth="3" NCoef="0" IVar="9" Cut="7.2466403245925903e-01" cType="1" res="2.1757754683494568e-01" rms="4.0560311079025269e-01" purity="7.7863079309463501e-01" nType="0">
              <Node pos="l" depth="4" NCoef="0" IVar="-1" Cut="0.0000000000000000e+00" cType="1" res="3.3854600042104721e-02" rms="3.4058922529220581e-01" purity="8.6052942276000977e-01" nType="-99"/>
              <Node pos="r" depth="4" NCoef="0" IVar="-1" Cut="0.0000000000000000e+00" cType="1" res="1.7446620389819145e-02" rms="4.6042799949645996e-01" purity="6.8257409334182739e-01" nType="-99"/>
            </Node>
          </Node>
          <Node pos="r" depth="2" NCoef="0" IVar="4" Cut="1.1487879753112793e+00" cType="1" res="-1.3081522192806005e-03" rms="4.8520594835281372e-01" purity="5.0797182321548462e-01" nType="0">
            <Node pos="l" depth="3" NCoef="0" IVar="4" Cut="7.9085940122604370e-01" cType="1" res="1.8003657460212708e-01" rms="4.3017309904098511e-01" purity="7.3931759595870972e-01" nType="0">
              <Node pos="l" depth="4" NCoef="0" IVar="-1" Cut="0.0000000000000000e+00" cType="1" res="2.7919827029109001e-02" rms="3.9292404055595398e-01" purity="7.9962223768234253e-01" nType="-99"/>
              <Node pos="r" depth="4" NCoef="0" IVar="-1" Cut="0.0000000000000000e+00" cType="1" res="1.5162435360252857e-02" rms="4.5926326513290405e-01" purity="6.7744642496109009e-01" nType="-99"/>
            </Node>
            <Node pos="r" depth="3" NCoef="0" IVar="7" Cut="1.7675815820693970e+00" cType="1" res="-6.6517330706119537e-02" rms="4.8730045557022095e-01" purity="4.2478290200233459e-01" nType="0">
              <Node pos="l" depth="4" NCoef="0" IVar="-1" Cut="0.0000000000000000e+00" cType="1" res="-4.3075168505311012e-03" rms="4.9447381496429443e-01" purity="4.6656554937362671e-01" nType="-99"/>
              <Node pos="r" depth="4" NCoef="0" IVar="-1" Cut="0.0000000000000000e+00" cType="1" res="-2.0009510219097137e-02" rms="4.4783437252044678e-01" purity="2.8436842560768127e-01" nType="-99"/>
            </Node>
          </Node>
        </Node>
      </Node>
    </BinaryTree>
    <BinaryTree type="DecisionTree" boostWeight="1.0000000000000000e+00" itree="7">
      <Node pos="s" depth="0" NCoef="0" IVar="1" Cut="2.0710909366607666e+00" cType="1" res="-1.5269544746843167e-05" rms="4.7080543637275696e-01" purity="5.0000000000000000e-01" nType="0">
        <Node pos="l" depth="1" NCoef="0" IVar="9" Cut="1.0642042160034180e+00" cType="1" res="-1.4769259095191956e-01" rms="4.3050602078437805e-01" purity="2.8236687183380127e-01" nType="0">
          <Node pos="l" depth="2" NCoef="0" IVar="-1" Cut="0.0000000000000000e+00" cType="1" res="7.6375999487936497e-03" rms="4.8424547910690308e-01" purity="5.5051940679550171e-01" nType="-99"/>
          <Node pos="r" depth="2" NCoef="0" IVar="4" Cut="2.1751918792724609e+00" cType="1" res="-2.0130228996276855e-01" rms="3.9832645654678345e-01" purity="2.1447849273681641e-01" nType="0">
            <Node pos="l" depth="3" NCoef="0" IVar="-1" Cut="0.0000000000000000e+00" cType="1" res="-1.3970390893518925e-02" rms="4.6500885486602783e-01" purity="3.3789050579071045e-01" nType="-99"/>
            <Node pos="r" depth="3" NCoef="0" IVar="0" Cut="5.5220707031250000e+04" cType="1" res="-2.3803633451461792e-01" rms="3.5950461030006409e-01" purity="1.6097460687160492e-01" nType="0">
              <Node pos="l" depth="4" NCoef="0" IVar="-1" Cut="0.0000000000000000e+00" cType="1" res="-3.4301344305276871e-02" rms="3.1624367833137512e-01" purity="1.1743804067373276e-01" nType="-99"/>
              <Node pos="r" depth="4" NCoef="0" IVar="-1" Cut="0.0000000000000000e+00" cType="1" res="-2.2694908082485199e-02" rms="4.0690618753433228e-01" purity="2.2232839465141296e-01" nType="-99"/>
            </Node>
          </Node>
        </Node>
        <Node pos="r" depth="1" NCoef="0" IVar="7" Cut="1.7346199750900269e+00" cType="1" res="6.2431663274765015e-02" rms="4.7317588329315186e-01" purity="5.9202855825424194e-01" nType="0">
          <Node pos="l" depth="2" NCoef="0" IVar="8" Cut="6.3263683319091797e+01" cType="1" res="9.4372637569904327e-02" rms="4.6692857146263123e-01" purity="6.3579446077346802e-01" nType="0">
            <Node pos="l" depth="3" NCoef="0" IVar="9" Cut="8.1902116537094116e-01" cType="1" res="2.5343202054500580e-02" rms="4.8358422517776489e-01" purity="5.5548453330993652e-01" nType="0">
              <Node pos="l" depth="4" NCoef="0" IVar="-1" Cut="0.0000000000000000e+00" cType="1" res="2.1081129088997841e-02" rms="4.2535403370857239e-01" purity="7.5288361310958862e-01" nType="-99"/>
              <Node pos="r" depth="4" NCoef="0" IVar="-1" Cut="0.0000000000000000e+00" cType="1" res="-4.1437717154622078e-03" rms="4.9272954463958740e-01" purity="4.7522339224815369e-01" nType="-99"/>
            </Node>
            <Node pos="r" depth="3" NCoef="0" IVar="12" Cut="2.3882028198242188e+02" cType="1" res="1.7509390413761139e-01" rms="4.3292188644409180e-01" purity="7.2970682382583618e-01" nType="0">
              <Node pos="l" depth="4" NCoef="0" IVar="-1" Cut="0.0000000000000000e+00" cType="1" res="2.8044231235980988e-02" rms="3.9178270101547241e-01" purity="7.9956835508346558e-01" nType="-99"/>
              <Node pos="r" depth="4" NCoef="0" IVar="-1" Cut="0.0000000000000000e+00" cType="1" res="9.4219995662570000e-03" rms="4.7947713732719421e-01" purity="6.1203950643539429e-01" nType="-99"/>
            </Node>
          </Node>
          <Node pos="r" depth="2" NCoef="0" IVar="-1" Cut="0.0000000000000000e+00" cType="1" res="-1.0742527432739735e-02" rms="4.7311016917228699e-01" purity="3.8328725099563599e-01" nType="-99"/>
        </Node>
      </Node>
    </BinaryTree>
    <BinaryTree type="DecisionTree" boostWeight="1.0000000000000000e+00" itree="8">
      <Node pos="s" depth="0" NCoef="0" IVar="1" Cut="1.8166608810424805e+00" cType="1" res="-1.7921785911312327e-05" rms="4.6783679723739624e-01" purity="5.0000000000000000e-01" nType="0">
        <Node pos="l" depth="1" NCoef="0" IVar="0" Cut="6.0824523437500000e+04" cType="1" res="-1.6915532946586609e-01" rms="4.0751585364341736e-01" purity="2.2912041842937469e-01" nType="0">
          <Node pos="l" depth="2" NCoef="0" IVar="4" Cut="2.4214913845062256e+00" cType="1" res="-2.2379684448242188e-01" rms="3.6420071125030518e-01" purity="1.6851826012134552e-01" nType="0">
            <Node pos="l" depth="3" NCoef="0" IVar="-1" Cut="0.0000000000000000e+00" cType="1" res="-1.9346080720424652e-02" rms="4.3961647152900696e-01" purity="2.6792132854461670e-01" nType="-99"/>
            <Node pos="r" depth="3" NCoef="0" IVar="-1" Cut="0.0000000000000000e+00" cType="1" res="-3.3205207437276840e-02" rms="3.0488616228103638e-01" purity="1.0969112813472748e-01" nType="-99"/>
          </Node>
          <Node pos="r" depth="2" NCoef="0" IVar="-1" Cut="0.0000000000000000e+00" cType="1" res="-9.0707335621118546e-03" rms="4.5832017064094543e-01" purity="3.3474898338317871e-01" nType="-99"/>
        </Node>
        <Node pos="r" depth="1" NCoef="0" IVar="9" Cut="1.2461826801300049e+00" cType="1" res="4.8459116369485855e-02" rms="4.7271105647087097e-01" purity="5.7763767242431641e-01" nType="0">
          <Node pos="l" depth="2" NCoef="0" IVar="12" Cut="2.3812559509277344e+02" cType="1" res="1.3116328418254852e-01" rms="4.4908824563026428e-01" purity="6.8469649553298950e-01" nType="0">
            <Node pos="l" depth="3" NCoef="0" IVar="3" Cut="1.2233275175094604e+00" cType="1" res="1.9317044317722321e-01" rms="4.1417792439460754e-01" purity="7.5926131010055542e-01" nType="0">
              <Node pos="l" depth="4" NCoef="0" IVar="-1" Cut="0.0000000000000000e+00" cType="1" res="3.0724270269274712e-02" rms="3.6475774645805359e-01" purity="8.2487881183624268e-01" nType="-99"/>
              <Node pos="r" depth="4" NCoef="0" IVar="-1" Cut="0.0000000000000000e+00" cType="1" res="1.4707484282553196e-02" rms="4.5738163590431213e-01" purity="6.7913049459457397e-01" nType="-99"/>
            </Node>
            <Node pos="r" depth="3" NCoef="0" IVar="0" Cut="6.8998468750000000e+04" cType="1" res="3.6281976848840714e-02" rms="4.8260641098022461e-01" purity="5.7059991359710693e-01" nType="0">
              <Node pos="l" depth="4" NCoef="0" IVar="-1" Cut="0.0000000000000000e+00" cType="1" res="-3.4357311669737101e-03" rms="4.8945641517639160e-01" purity="4.9681219458580017e-01" nType="-99"/>
              <Node pos="r" depth="4" NCoef="0" IVar="-1" Cut="0.0000000000000000e+00" cType="1" res="1.5059089288115501e-02" rms="4.5815715193748474e-01" purity="6.7209661006927490e-01" nType="-99"/>
            </Node>
          </Node>
          <Node pos="r" depth="2" NCoef="0" IVar="4" Cut="1.3665732145309448e+00" cType="1" res="-1.1901593767106533e-02" rms="4.8032578825950623e-01" purity="4.9950203299522400e-01" nType="0">
            <Node pos="l" depth="3" NCoef="0" IVar="4" Cut="8.5878318548202515e-01" cType="1" res="1.4368999004364014e-01" rms="4.4246080517768860e-01" purity="7.0867699384689331e-01" nType="0">
              <Node pos="l" depth="4" NCoef="0" IVar="-1" Cut="0.0000000000000000e+00" cType="1" res="2.5962172076106071e-02" rms="3.9341142773628235e-01" purity="7.9624134302139282e-01" nType="-99"/>
              <Node pos="r" depth="4" NCoef="0" IVar="-1" Cut="0.0000000000000000e+00" cType="1" res="9.5490105450153351e-03" rms="4.7431251406669617e-01" purity="6.2807905673980713e-01" nType="-99"/>
            </Node>
            <Node pos="r" depth="3" NCoef="0" IVar="7" Cut="1.5683889389038086e+00" cType="1" res="-9.5410212874412537e-02" rms="4.7906106710433960e-01" purity="3.8723435997962952e-01" nType="0">
              <Node pos="l" depth="4" NCoef="0" IVar="-1" Cut="0.0000000000000000e+00" cType="1" res="-7.5783068314194679e-03" rms="4.9011927843093872e-01" purity="4.3286651372909546e-01" nType="-99"/>
              <Node pos="r" depth="4" NCoef="0" IVar="-1" Cut="0.0000000000000000e+00" cType="1" res="-1.9033594056963921e-02" rms="4.4919252395629883e-01" purity="2.9476958513259888e-01" nType="-99"/>
            </Node>
          </Node>
        </Node>
      </Node>
    </BinaryTree>
    <BinaryTree type="DecisionTree" boostWeight="1.0000000000000000e+00" itree="9">
      <Node pos="s" depth="0" NCoef="0" IVar="1" Cut="2.0710909366607666e+00" cType="1" res="-1.8733453543973155e-05" rms="4.6490260958671570e-01" purity="5.0000000000000000e-01" nType="0">
        <Node pos="l" depth="1" NCoef="0" IVar="9" Cut="1.0642042160034180e+00" cType="1" res="-1.3170979917049408e-01" rms="4.2673218250274658e-01" purity="2.8236687183380127e-01" nType="0">
          <Node pos="l" depth="2" NCoef="0" IVar="-1" Cut="0.0000000000000000e+00" cType="1" res="7.5813750736415386e-03" rms="4.8242211341857910e-01" purity="5.5051940679550171e-01" nType="-99"/>
          <Node pos="r" depth="2" NCoef="0" IVar="6" Cut="9.2619270324707031e+01" cType="1" res="-1.8109904229640961e-01" rms="3.9649444818496704e-01" purity="2.1447849273681641e-01" nType="0">
            <Node pos="l" depth="3" NCoef="0" IVar="-1" Cut="0.0000000000000000e+00" cType="1" res="-1.3003945350646973e-02" rms="4.5215773582458496e-01" purity="3.1977045536041260e-01" nType="-99"/>
            <Node pos="r" depth="3" NCoef="0" IVar="1" Cut="1.5863575935363770e+00" cType="1" res="-2.1844604611396790e-01" rms="3.5966679453849792e-01" purity="1.6172166168689728e-01" nType="0">
              <Node pos="l" depth="4" NCoef="0" IVar="-1" Cut="0.0000000000000000e+00" cType="1" res="-3.1962178647518158e-02" rms="3.1157821416854858e-01" purity="1.1167445033788681e-01" nType="-99"/>
              <Node pos="r" depth="4" NCoef="0" IVar="-1" Cut="0.0000000000000000e+00" cType="1" res="-2.1167064085602760e-02" rms="4.1842612624168396e-01" purity="2.3819620907306671e-01" nType="-99"/>
            </Node>
          </Node>
        </Node>
        <Node pos="r" depth="1" NCoef="0" IVar="7" Cut="1.9361670017242432e+00" cType="1" res="5.5668238550424576e-02" rms="4.6913921833038330e-01" purity="5.9202855825424194e-01" nType="0">
          <Node pos="l" depth="2" NCoef="0" IVar="12" Cut="3.2028628540039062e+02" cType="1" res="7.8287720680236816e-02" rms="4.6550145745277405e-01" purity="6.2654513120651245e-01" nType="0">
            <Node pos="l" depth="3" NCoef="0" IVar="8" Cut="6.3263683319091797e+01" cType="1" res="1.1528619378805161e-01" rms="4.5141756534576416e-01" purity="6.7206329107284546e-01" nType="0">
              <Node pos="l" depth="4" NCoef="0" IVar="-1" Cut="0.0000000000000000e+00" cType="1" res="5.7813362218439579e-03" rms="4.7425794601440430e-01" purity="5.8908367156982422e-01" nType="-99"/>
              <Node pos="r" depth="4" NCoef="0" IVar="-1" Cut="0.0000000000000000e+00" cType="1" res="2.2852791473269463e-02" rms="4.1339132189750671e-01" purity="7.6148813962936401e-01" nType="-99"/>
            </Node>
            <Node pos="r" depth="3" NCoef="0" IVar="8" Cut="6.8730758666992188e+01" cType="1" res="-5.2446849644184113e-02" rms="4.9030005931854248e-01" purity="4.6570584177970886e-01" nType="0">
              <Node pos="l" depth="4" NCoef="0" IVar="-1" Cut="0.0000000000000000e+00" cType="1" res="-1.1013351380825043e-02" rms="4.8692589998245239e-01" purity="4.2098703980445862e-01" nType="-99"/>
              <Node pos="r" depth="4" NCoef="0" IVar="-1" Cut="0.0000000000000000e+00" cType="1" res="1.3253829674795270e-03" rms="4.8887327313423157e-01" purity="5.3631746768951416e-01" nType="-99"/>
            </Node>
          </Node>
          <Node pos="r" depth="2" NCoef="0" IVar="-1" Cut="0.0000000000000000e+00" cType="1" res="-1.5364468097686768e-02" rms="4.5816060900688171e-01" purity="3.1239745020866394e-01" nType="-99"/>
        </Node>
      </Node>
    </BinaryTree>
    <BinaryTree type="DecisionTree" boostWeight="1.0000000000000000e+00" itree="10">
      <Node pos="s" depth="0" NCoef="0" IVar="1" Cut="1.8166608810424805e+00" cType="1" res="-2.5474113499512896e-05" rms="4.6250218152999878e-01" purity="5.0000000000000000e-01" nType="0">
        <Node pos="l" depth="1" NCoef="0" IVar="0" Cut="6.0824523437500000e+04" cType="1" res="-1.5067331492900848e-01" rms="4.0512025356292725e-01" purity="2.2912041842937469e-01" nType="0">
          <Node pos="l" depth="2" NCoef="0" IVar="4" Cut="2.4214913845062256e+00" cType="1" res="-2.0229254662990570e-01" rms="3.6284181475639343e-01" purity="1.6851826012134552e-01" nType="0">
            <Node pos="l" depth="3" NCoef="0" IVar="-1" Cut="0.0000000000000000e+00" cType="1" res="-1.7720902338624001e-02" rms="4.3916824460029602e-01" purity="2.6792132854461670e-01" nType="-99"/>
            <Node pos="r" depth="3" NCoef="0" IVar="-1" Cut="0.0000000000000000e+00" cType="1" res="-3.0987542122602463e-02" rms="3.0388584733009338e-01" purity="1.0969112813472748e-01" nType="-99"/>
          </Node>
          <Node pos="r" depth="2" NCoef="0" IVar="-1" Cut="0.0000000000000000e+00" cType="1" res="-7.5444276444613934e-03" rms="4.5604264736175537e-01" purity="3.3474898338317871e-01" nType="-99"/>
        </Node>
        <Node pos="r" depth="1" NCoef="0" IVar="9" Cut="1.2461826801300049e+00" cType="1" res="4.3152205646038055e-02" rms="4.6883752942085266e-01" purity="5.7763767242431641e-01" nType="0">
          <Node pos="l" depth="2" NCoef="0" IVar="12" Cut="2.3812559509277344e+02" cType="1" res="1.2043745815753937e-01" rms="4.4638511538505554e-01" purity="6.8469649553298950e-01" nType="0">
            <Node pos="l" depth="3" NCoef="0" IVar="3" Cut="1.2233275175094604e+00" cType="1" res="1.7699150741100311e-01" rms="4.1303303837776184e-01" purity="7.5926131010055542e-01" nType="0">
              <Node pos="l" depth="4" NCoef="0" IVar="-1" Cut="0.0000000000000000e+00" cType="1" res="2.8705000877380371e-02" rms="3.6475226283073425e-01" purity="8.2487881183624268e-01" nType="-99"/>
              <Node pos="r" depth="4" NCoef="0" IVar="-1" Cut="0.0000000000000000e+00" cType="1" res="1.3410480692982674e-02" rms="4.5636263489723206e-01" purity="6.7913049459457397e-01" nType="-99"/>
            </Node>
            <Node pos="r" depth="3" NCoef="0" IVar="0" Cut="6.8998468750000000e+04" cType="1" res="3.3900320529937744e-02" rms="4.8035061359405518e-01" purity="5.7059991359710693e-01" nType="0">
              <Node pos="l" depth="4" NCoef="0" IVar="-1" Cut="0.0000000000000000e+00" cType="1" res="-3.1462062615901232e-03" rms="4.8820945620536804e-01" purity="4.9681219458580017e-01" nType="-99"/>
              <Node pos="r" depth="4" NCoef="0" IVar="-1" Cut="0.0000000000000000e+00" cType="1" res="1.4044020324945450e-02" rms="4.5651203393936157e-01" purity="6.7209661006927490e-01" nType="-99"/>
            </Node>
          </Node>
          <Node pos="r" depth="2" NCoef="0" IVar="4" Cut="1.3665732145309448e+00" cType="1" res="-1.3253569602966309e-02" rms="4.7672328352928162e-01" purity="4.9950203299522400e-01" nType="0">
            <Node pos="l" depth="3" NCoef="0" IVar="4" Cut="8.5878318548202515e-01" cType="1" res="1.3048887252807617e-01" rms="4.4047814607620239e-01" purity="7.0867699384689331e-01" nType="0">
              <Node pos="l" depth="4" NCoef="0" IVar="-1" Cut="0.0000000000000000e+00" cType="1" res="2.4174038320779800e-02" rms="3.9183190464973450e-01" purity="7.9624134302139282e-01" nType="-99"/>
              <Node pos="r" depth="4" NCoef="0" IVar="-1" Cut="0.0000000000000000e+00" cType="1" res="8.5029425099492073e-03" rms="4.7307887673377991e-01" purity="6.2807905673980713e-01" nType="-99"/>
            </Node>
            <Node pos="r" depth="3" NCoef="0" IVar="11" Cut="1.7592977285385132e+00" cType="1" res="-9.0402558445930481e-02" rms="4.7756278514862061e-01" purity="3.8723435997962952e-01" nType="0">
              <Node pos="l" depth="4" NCoef="0" IVar="-1" Cut="0.0000000000000000e+00" cType="1" res="-1.3606149703264236e-02" rms="4.7166898846626282e-01" purity="3.5873642563819885e-01" nType="-99"/>
              <Node pos="r" depth="4" NCoef="0" IVar="-1" Cut="0.0000000000000000e+00" cType="1" res="-1.9212285988032818e-03" rms="4.8813018202781677e-01" purity="4.7628974914550781e-01" nType="-99"/>
            </Node>
          </Node>
        </Node>
      </Node>
    </BinaryTree>
    <BinaryTree type="DecisionTree" boostWeight="1.0000000000000000e+00" itree="11">
      <Node pos="s" depth="0" NCoef="0" IVar="1" Cut="2.0710909366607666e+00" cType="1" res="-2.4483233573846519e-05" rms="4.6002623438835144e-01" purity="5.0000000000000000e-01" nType="0">
        <Node pos="l" depth="1" NCoef="0" IVar="9" Cut="1.0642042160034180e+00" cType="1" res="-1.1741188168525696e-01" rms="4.2357423901557922e-01" purity="2.8236687183380127e-01" nType="0">
          <Node pos="l" depth="2" NCoef="0" IVar="-1" Cut="0.0000000000000000e+00" cType="1" res="7.4914610013365746e-03" rms="4.8089507222175598e-01" purity="5.5051940679550171e-01" nType="-99"/>
          <Node pos="r" depth="2" NCoef="0" IVar="6" Cut="9.2619270324707031e+01" cType="1" res="-1.6293112933635712e-01" rms="3.9501050114631653e-01" purity="2.1447849273681641e-01" nType="0">
            <Node pos="l" depth="3" NCoef="0" IVar="-1" Cut="0.0000000000000000e+00" cType="1" res="-1.1618973687291145e-02" rms="4.5077848434448242e-01" purity="3.1977045536041260e-01" nType="-99"/>
            <Node pos="r" depth="3" NCoef="0" IVar="1" Cut="1.5863575935363770e+00" cType="1" res="-1.9737075269222260e-01" rms="3.5895180702209473e-01" purity="1.6172166168689728e-01" nType="0">
              <Node pos="l" depth="4" NCoef="0" IVar="-1" Cut="0.0000000000000000e+00" cType="1" res="-2.9871223494410515e-02" rms="3.1113293766975403e-01" purity="1.1167445033788681e-01" nType="-99"/>
              <Node pos="r" depth="4" NCoef="0" IVar="-1" Cut="0.0000000000000000e+00" cType="1" res="-1.9356338307261467e-02" rms="4.1808977723121643e-01" purity="2.3819620907306671e-01" nType="-99"/>
            </Node>
          </Node>
        </Node>
        <Node pos="r" depth="1" NCoef="0" IVar="7" Cut="1.7346199750900269e+00" cType="1" res="4.9614034593105316e-02" rms="4.6578228473663330e-01" purity="5.9202855825424194e-01" nType="0">
          <Node pos="l" depth="2" NCoef="0" IVar="8" Cut="6.3263683319091797e+01" cType="1" res="7.7069059014320374e-02" rms="4.6047848463058472e-01" purity="6.3579446077346802e-01" nType="0">
            <Node pos="l" depth="3" NCoef="0" IVar="9" Cut="8.1902116537094116e-01" cType="1" res="1.6081718727946281e-02" rms="4.7803446650505066e-01" purity="5.5548453330993652e-01" nType="0">
              <Node pos="l" depth="4" NCoef="0" IVar="-1" Cut="0.0000000000000000e+00" cType="1" res="1.8278650939464569e-02" rms="4.2148327827453613e-01" purity="7.5288361310958862e-01" nType="-99"/>
              <Node pos="r" depth="4" NCoef="0" IVar="-1" Cut="0.0000000000000000e+00" cType="1" res="-4.4238995760679245e-03" rms="4.8925885558128357e-01" purity="4.7522339224815369e-01" nType="-99"/>
            </Node>
            <Node pos="r" depth="3" NCoef="0" IVar="8" Cut="7.8576515197753906e+01" cType="1" res="1.4838609099388123e-01" rms="4.2817947268486023e-01" purity="7.2970682382583618e-01" nType="0">
              <Node pos="l" depth="4" NCoef="0" IVar="-1" Cut="0.0000000000000000e+00" cType="1" res="1.0290857404470444e-02" rms="4.5688799023628235e-01" purity="6.6377836465835571e-01" nType="-99"/>
              <Node pos="r" depth="4" NCoef="0" IVar="-1" Cut="0.0000000000000000e+00" cType="1" res="2.5629628449678421e-02" rms="3.8992378115653992e-01" purity="7.9140728712081909e-01" nType="-99"/>
            </Node>
          </Node>
          <Node pos="r" depth="2" NCoef="0" IVar="-1" Cut="0.0000000000000000e+00" cType="1" res="-9.8130665719509125e-03" rms="4.6865981817245483e-01" purity="3.8328725099563599e-01" nType="-99"/>
        </Node>
      </Node>
    </BinaryTree>
    <BinaryTree type="DecisionTree" boostWeight="1.0000000000000000e+00" itree="12">
      <Node pos="s" depth="0" NCoef="0" IVar="9" Cut="1.0531579256057739e+00" cType="1" res="-2.7702219085767865e-05" rms="4.5791089534759521e-01" purity="5.0000000000000000e-01" nType="0">
        <Node pos="l" depth="1" NCoef="0" IVar="11" Cut="5.6970429420471191e-01" cType="1" res="1.0855162143707275e-01" rms="4.4456973671913147e-01" purity="6.7964583635330200e-01" nType="0">
          <Node pos="l" depth="2" NCoef="0" IVar="-1" Cut="0.0000000000000000e+00" cType="1" res="-1.1876885779201984e-02" rms="4.8313447833061218e-01" purity="4.1946986317634583e-01" nType="-99"/>
          <Node pos="r" depth="2" NCoef="0" IVar="9" Cut="6.0919529199600220e-01" cType="1" res="1.5424196422100067e-01" rms="4.2213165760040283e-01" purity="7.3690164089202881e-01" nType="0">
            <Node pos="l" depth="3" NCoef="0" IVar="-1" Cut="0.0000000000000000e+00" cType="1" res="3.2032229006290436e-02" rms="3.3365377783775330e-01" purity="8.6570680141448975e-01" nType="-99"/>
            <Node pos="r" depth="3" NCoef="0" IVar="0" Cut="6.9005648437500000e+04" cType="1" res="1.0717170685529709e-01" rms="4.5042598247528076e-01" purity="6.7604625225067139e-01" nType="0">
              <Node pos="l" depth="4" NCoef="0" IVar="-1" Cut="0.0000000000000000e+00" cType="1" res="6.8573066964745522e-03" rms="4.6752446889877319e-01" purity="6.1497509479522705e-01" nType="-99"/>
              <Node pos="r" depth="4" NCoef="0" IVar="-1" Cut="0.0000000000000000e+00" cType="1" res="2.2234564647078514e-02" rms="4.1394177079200745e-01" purity="7.6348918676376343e-01" nType="-99"/>
            </Node>
          </Node>
        </Node>
        <Node pos="r" depth="1" NCoef="0" IVar="4" Cut="1.4123798608779907e+00" cType="1" res="-4.8940572887659073e-02" rms="4.5541501045227051e-01" purity="4.1907304525375366e-01" nType="0">
          <Node pos="l" depth="2" NCoef="0" IVar="7" Cut="1.3426712751388550e+00" cType="1" res="1.0505714267492294e-01" rms="4.4753509759902954e-01" purity="6.7264819145202637e-01" nType="0">
            <Node pos="l" depth="3" NCoef="0" IVar="4" Cut="9.2886036634445190e-01" cType="1" res="1.5303559601306915e-01" rms="4.2899686098098755e-01" purity="7.3860049247741699e-01" nType="0">
              <Node pos="l" depth="4" NCoef="0" IVar="-1" Cut="0.0000000000000000e+00" cType="1" res="2.2827094420790672e-02" rms="3.9928451180458069e-01" purity="7.9253017902374268e-01" nType="-99"/>
              <Node pos="r" depth="4" NCoef="0" IVar="-1" Cut="0.0000000000000000e+00" cType="1" res="1.3802765868604183e-02" rms="4.6221724152565002e-01" purity="6.6790211200714111e-01" nType="-99"/>
            </Node>
            <Node pos="r" depth="3" NCoef="0" IVar="-1" Cut="0.0000000000000000e+00" cType="1" res="3.2858741469681263e-03" rms="4.6573337912559509e-01" purity="5.6512969732284546e-01" nType="-99"/>
          </Node>
          <Node pos="r" depth="2" NCoef="0" IVar="1" Cut="1.7244142293930054e+00" cType="1" res="-1.0885542631149292e-01" rms="4.4424605369567871e-01" purity="3.2041627168655396e-01" nType="0">
            <Node pos="l" depth="3" NCoef="0" IVar="0" Cut="5.5220707031250000e+04" cType="1" res="-1.9585351645946503e-01" rms="3.4229725599288940e-01" purity="1.4276656508445740e-01" nType="0">
              <Node pos="l" depth="4" NCoef="0" IVar="-1" Cut="0.0000000000000000e+00" cType="1" res="-3.0356761068105698e-02" rms="2.9827952384948730e-01" purity="1.0261421650648117e-01" nType="-99"/>
              <Node pos="r" depth="4" NCoef="0" IVar="-1" Cut="0.0000000000000000e+00" cType="1" res="-1.9563280045986176e-02" rms="3.9581906795501709e-01" purity="2.0373015105724335e-01" nType="-99"/>
            </Node>
            <Node pos="r" depth="3" NCoef="0" IVar="9" Cut="1.6022315025329590e+00" cType="1" res="-6.9622889161109924e-02" rms="4.7808292508125305e-01" purity="4.0052893757820129e-01" nType="0">
              <Node pos="l" depth="4" NCoef="0" IVar="-1" Cut="0.0000000000000000e+00" cType="1" res="9.6029584528878331e-04" rms="4.8960718512535095e-01" purity="4.8886471986770630e-01" nType="-99"/>
              <Node pos="r" depth="4" NCoef="0" IVar="-1" Cut="0.0000000000000000e+00" cType="1" res="-1.2893413193523884e-02" rms="4.6772283315658569e-01" purity="3.5750988125801086e-01" nType="-99"/>
            </Node>
          </Node>
        </Node>
      </Node>
    </BinaryTree>
    <BinaryTree type="DecisionTree" boostWeight="1.0000000000000000e+00" itree="13">
      <Node pos="s" depth="0" NCoef="0" IVar="7" Cut="2.0995116233825684e+00" cType="1" res="-2.7104671971756034e-05" rms="4.5541432499885559e-01" purity="5.0000000000000000e-01" nType="0">
        <Node pos="l" depth="1" NCoef="0" IVar="6" Cut="9.0011779785156250e+01" cType="1" res="2.5120653212070465e-02" rms="4.5749342441558838e-01" purity="5.3916031122207642e-01" nType="0">
          <Node pos="l" depth="2" NCoef="0" IVar="8" Cut="6.4144470214843750e+01" cType="1" res="1.1144328862428665e-01" rms="4.4577124714851379e-01" purity="6.6413092613220215e-01" nType="0">
            <Node pos="l" depth="3" NCoef="0" IVar="5" Cut="1.5494259643554688e+02" cType="1" res="4.4000860303640366e-02" rms="4.7224625945091248e-01" purity="5.7397323846817017e-01" nType="0">
              <Node pos="l" depth="4" NCoef="0" IVar="-1" Cut="0.0000000000000000e+00" cType="1" res="9.1423112899065018e-03" rms="4.6464285254478455e-01" purity="5.9571456909179688e-01" nType="-99"/>
              <Node pos="r" depth="4" NCoef="0" IVar="-1" Cut="0.0000000000000000e+00" cType="1" res="-2.0757517777383327e-03" rms="4.8117247223854065e-01" purity="5.3084474802017212e-01" nType="-99"/>
            </Node>
            <Node pos="r" depth="3" NCoef="0" IVar="0" Cut="7.2231093750000000e+04" cType="1" res="1.7932015657424927e-01" rms="4.0628299117088318e-01" purity="7.5486934185028076e-01" nType="0">
              <Node pos="l" depth="4" NCoef="0" IVar="-1" Cut="0.0000000000000000e+00" cType="1" res="1.5135314315557480e-02" rms="4.3472400307655334e-01" purity="6.8436396121978760e-01" nType="-99"/>
              <Node pos="r" depth="4" NCoef="0" IVar="-1" Cut="0.0000000000000000e+00" cType="1" res="3.3290438354015350e-02" rms="3.4228876233100891e-01" purity="8.5988205671310425e-01" nType="-99"/>
            </Node>
          </Node>
          <Node pos="r" depth="2" NCoef="0" IVar="9" Cut="1.2750933170318604e+00" cType="1" res="-2.9604706913232803e-02" rms="4.5639222860336304e-01" purity="4.5993348956108093e-01" nType="0">
            <Node pos="l" depth="3" NCoef="0" IVar="12" Cut="2.9642968750000000e+02" cType="1" res="7.6648190617561340e-02" rms="4.5137602090835571e-01" purity="6.3858461380004883e-01" nType="0">
              <Node pos="l" depth="4" NCoef="0" IVar="-1" Cut="0.0000000000000000e+00" cType="1" res="1.7579503357410431e-02" rms="4.2036437988281250e-01" purity="7.2633111476898193e-01" nType="-99"/>
              <Node pos="r" depth="4" NCoef="0" IVar="-1" Cut="0.0000000000000000e+00" cType="1" res="-4.0208175778388977e-03" rms="4.8088556528091431e-01" purity="4.8716205358505249e-01" nType="-99"/>
            </Node>
            <Node pos="r" depth="3" NCoef="0" IVar="8" Cut="7.1885314941406250e+01" cType="1" res="-1.1979665607213974e-01" rms="4.4095504283905029e-01" purity="3.0828693509101868e-01" nType="0">
              <Node pos="l" depth="4" NCoef="0" IVar="-1" Cut="0.0000000000000000e+00" cType="1" res="-2.0769894123077393e-02" rms="4.1728860139846802e-01" purity="2.4952208995819092e-01" nType="-99"/>
              <Node pos="r" depth="4" NCoef="0" IVar="-1" Cut="0.0000000000000000e+00" cType="1" res="-3.9933021180331707e-03" rms="4.7021654248237610e-01" purity="4.1930937767028809e-01" nType="-99"/>
            </Node>
          </Node>
        </Node>
        <Node pos="r" depth="1" NCoef="0" IVar="-1" Cut="0.0000000000000000e+00" cType="1" res="-2.3530926555395126e-02" rms="3.9171755313873291e-01" purity="2.0823106169700623e-01" nType="-99"/>
      </Node>
    </BinaryTree>
    <BinaryTree type="DecisionTree" boostWeight="1.0000000000000000e+00" itree="14">
      <Node pos="s" depth="0" NCoef="0" IVar="9" Cut="8.3122247457504272e-01" cType="1" res="-2.5880464818328619e-05" rms="4.5297485589981079e-01" purity="5.0000000000000000e-01" nType="0">
        <Node pos="l" depth="1" NCoef="0" IVar="3" Cut="1.3555098772048950e+00" cType="1" res="1.2551526725292206e-01" rms="4.2220708727836609e-01" purity="7.2605079412460327e-01" nType="0">
          <Node pos="l" depth="2" NCoef="0" IVar="-1" Cut="0.0000000000000000e+00" cType="1" res="2.5465840473771095e-02" rms="3.6530068516731262e-01" purity="8.2364076375961304e-01" nType="-99"/>
          <Node pos="r" depth="2" NCoef="0" IVar="-1" Cut="0.0000000000000000e+00" cType="1" res="5.1674945279955864e-03" rms="4.6545222401618958e-01" purity="6.1392414569854736e-01" nType="-99"/>
        </Node>
        <Node pos="r" depth="1" NCoef="0" IVar="4" Cut="1.1586091518402100e+00" cType="1" res="-3.5212319344282150e-02" rms="4.5505815744400024e-01" purity="4.3664291501045227e-01" nType="0">
          <Node pos="l" depth="2" NCoef="0" IVar="2" Cut="-1.6451674699783325e+00" cType="1" res="1.2242965400218964e-01" rms="4.2806044220924377e-01" purity="7.2040241956710815e-01" nType="0">
            <Node pos="l" depth="3" NCoef="0" IVar="-1" Cut="0.0000000000000000e+00" cType="1" res="2.4186868220567703e-02" rms="3.8993659615516663e-01" purity="7.9900687932968140e-01" nType="-99"/>
            <Node pos="r" depth="3" NCoef="0" IVar="-1" Cut="0.0000000000000000e+00" cType="1" res="8.5480893030762672e-03" rms="4.4772809743881226e-01" purity="6.6007739305496216e-01" nType="-99"/>
          </Node>
          <Node pos="r" depth="2" NCoef="0" IVar="1" Cut="1.7244142293930054e+00" cType="1" res="-7.3860831558704376e-02" rms="4.5314115285873413e-01" purity="3.6707460880279541e-01" nType="0">
            <Node pos="l" depth="3" NCoef="0" IVar="0" Cut="5.5220707031250000e+04" cType="1" res="-1.6855444014072418e-01" rms="3.5881215333938599e-01" purity="1.6521109640598297e-01" nType="0">
              <Node pos="l" depth="4" NCoef="0" IVar="-1" Cut="0.0000000000000000e+00" cType="1" res="-2.7871277183294296e-02" rms="3.1393340229988098e-01" purity="1.1734578758478165e-01" nType="-99"/>
              <Node pos="r" depth="4" NCoef="0" IVar="-1" Cut="0.0000000000000000e+00" cType="1" res="-1.5214909799396992e-02" rms="4.1151732206344604e-01" purity="2.3669263720512390e-01" nType="-99"/>
            </Node>
            <Node pos="r" depth="3" NCoef="0" IVar="9" Cut="1.6057410240173340e+00" cType="1" res="-3.8020629435777664e-02" rms="4.7921505570411682e-01" purity="4.4347712397575378e-01" nType="0">
              <Node pos="l" depth="4" NCoef="0" IVar="-1" Cut="0.0000000000000000e+00" cType="1" res="2.4987522047013044e-03" rms="4.8486527800559998e-01" purity="5.2656495571136475e-01" nType="-99"/>
              <Node pos="r" depth="4" NCoef="0" IVar="-1" Cut="0.0000000000000000e+00" cType="1" res="-9.8674418404698372e-03" rms="4.7021123766899109e-01" purity="3.8165479898452759e-01" nType="-99"/>
            </Node>
          </Node>
        </Node>
      </Node>
    </BinaryTree>
    <BinaryTree type="DecisionTree" boostWeight="1.0000000000000000e+00" itree="15">
      <Node pos="s" depth="0" NCoef="0" IVar="7" Cut="2.0995116233825684e+00" cType="1" res="-2.6264127882313915e-05" rms="4.5115792751312256e-01" purity="5.0000000000000000e-01" nType="0">
        <Node pos="l" depth="1" NCoef="0" IVar="12" Cut="3.2028628540039062e+02" cType="1" res="2.3185856640338898e-02" rms="4.5367139577865601e-01" purity="5.3916031122207642e-01" nType="0">
          <Node pos="l" depth="2" NCoef="0" IVar="3" Cut="1.1350448131561279e+00" cType="1" res="6.0000739991664886e-02" rms="4.4731670618057251e-01" purity="5.9467047452926636e-01" nType="0">
            <Node pos="l" depth="3" NCoef="0" IVar="-1" Cut="0.0000000000000000e+00" cType="1" res="2.5781806558370590e-02" rms="3.6390015482902527e-01" purity="8.3103007078170776e-01" nType="-99"/>
            <Node pos="r" depth="3" NCoef="0" IVar="4" Cut="1.2559742927551270e+00" cType="1" res="2.7686486020684242e-02" rms="4.5847326517105103e-01" purity="5.3996682167053223e-01" nType="0">
              <Node pos="l" depth="4" NCoef="0" IVar="-1" Cut="0.0000000000000000e+00" cType="1" res="1.9730938598513603e-02" rms="4.0803465247154236e-01" purity="7.7085328102111816e-01" nType="-99"/>
              <Node pos="r" depth="4" NCoef="0" IVar="-1" Cut="0.0000000000000000e+00" cType="1" res="-2.8888869564980268e-03" rms="4.6737155318260193e-01" purity="4.4805759191513062e-01" nType="-99"/>
            </Node>
          </Node>
          <Node pos="r" depth="2" NCoef="0" IVar="1" Cut="2.2478177547454834e+00" cType="1" res="-8.6946137249469757e-02" rms="4.5471090078353882e-01" purity="3.7310111522674561e-01" nType="0">
            <Node pos="l" depth="3" NCoef="0" IVar="-1" Cut="0.0000000000000000e+00" cType="1" res="-1.8877435475587845e-02" rms="3.9942342042922974e-01" purity="2.3841027915477753e-01" nType="-99"/>
            <Node pos="r" depth="3" NCoef="0" IVar="3" Cut="2.7675070762634277e+00" cType="1" res="-4.4014398008584976e-02" rms="4.8675534129142761e-01" purity="4.7159546613693237e-01" nType="0">
              <Node pos="l" depth="4" NCoef="0" IVar="-1" Cut="0.0000000000000000e+00" cType="1" res="-9.1768670827150345e-03" rms="4.8317703604698181e-01" purity="4.3871563673019409e-01" nType="-99"/>
              <Node pos="r" depth="4" NCoef="0" IVar="-1" Cut="0.0000000000000000e+00" cType="1" res="6.5036129672080278e-04" rms="4.8802334070205688e-01" purity="5.2165794372558594e-01" nType="-99"/>
            </Node>
          </Node>
        </Node>
        <Node pos="r" depth="1" NCoef="0" IVar="-1" Cut="0.0000000000000000e+00" cType="1" res="-2.2081734612584114e-02" rms="3.9073577523231506e-01" purity="2.0823106169700623e-01" nType="-99"/>
      </Node>
    </BinaryTree>
    <BinaryTree type="DecisionTree" boostWeight="1.0000000000000000e+00" itree="16">
      <Node pos="s" depth="0" NCoef="0" IVar="9" Cut="8.3122247457504272e-01" cType="1" res="-1.8071490558213554e-05" rms="4.4931754469871521e-01" purity="5.0000000000000000e-01" nType="0">
        <Node pos="l" depth="1" NCoef="0" IVar="3" Cut="1.5958474874496460e+00" cType="1" res="1.1529872566461563e-01" rms="4.1950365900993347e-01" purity="7.2605079412460327e-01" nType="0">
          <Node pos="l" depth="2" NCoef="0" IVar="-1" Cut="0.0000000000000000e+00" cType="1" res="2.2946637123823166e-02" rms="3.6869609355926514e-01" purity="8.1490230560302734e-01" nType="-99"/>
          <Node pos="r" depth="2" NCoef="0" IVar="-1" Cut="0.0000000000000000e+00" cType="1" res="4.3056258000433445e-03" rms="4.6758645772933960e-01" purity="6.0634201765060425e-01" nType="-99"/>
        </Node>
        <Node pos="r" depth="1" NCoef="0" IVar="6" Cut="9.0011779785156250e+01" cType="1" res="-3.2338846474885941e-02" rms="4.5207798480987549e-01" purity="4.3664291501045227e-01" nType="0">
          <Node pos="l" depth="2" NCoef="0" IVar="7" Cut="1.7179811000823975e+00" cType="1" res="5.0650659948587418e-02" rms="4.5378738641738892e-01" purity="5.7935672998428345e-01" nType="0">
            <Node pos="l" depth="3" NCoef="0" IVar="8" Cut="6.3262119293212891e+01" cType="1" res="1.0572415590286255e-01" rms="4.4299709796905518e-01" purity="6.7201787233352661e-01" nType="0">
              <Node pos="l" depth="4" NCoef="0" IVar="-1" Cut="0.0000000000000000e+00" cType="1" res="2.8479059692472219e-03" rms="4.7943457961082458e-01" purity="5.4660606384277344e-01" nType="-99"/>
              <Node pos="r" depth="4" NCoef="0" IVar="-1" Cut="0.0000000000000000e+00" cType="1" res="2.4721667170524597e-02" rms="3.8162118196487427e-01" purity="8.0541419982910156e-01" nType="-99"/>
            </Node>
            <Node pos="r" depth="3" NCoef="0" IVar="-1" Cut="0.0000000000000000e+00" cType="1" res="-1.1966522783041000e-02" rms="4.4949623942375183e-01" purity="3.3203285932540894e-01" nType="-99"/>
          </Node>
          <Node pos="r" depth="2" NCoef="0" IVar="1" Cut="2.4481697082519531e+00" cType="1" res="-9.3872934579849243e-02" rms="4.4083243608474731e-01" purity="3.3082517981529236e-01" nType="0">
            <Node pos="l" depth="3" NCoef="0" IVar="9" Cut="1.8357957601547241e+00" cType="1" res="-1.4381419122219086e-01" rms="3.9706248044967651e-01" purity="2.2836630046367645e-01" nType="0">
              <Node pos="l" depth="4" NCoef="0" IVar="-1" Cut="0.0000000000000000e+00" cType="1" res="-1.1804538778960705e-02" rms="4.3991079926490784e-01" purity="3.1063085794448853e-01" nType="-99"/>
              <Node pos="r" depth="4" NCoef="0" IVar="-1" Cut="0.0000000000000000e+00" cType="1" res="-2.4829450994729996e-02" rms="3.5341587662696838e-01" purity="1.6192094981670380e-01" nType="-99"/>
            </Node>
            <Node pos="r" depth="3" NCoef="0" IVar="1" Cut="3.0800271034240723e+00" cType="1" res="-3.0409831553697586e-02" rms="4.8346737027168274e-01" purity="4.6102523803710938e-01" nType="0">
              <Node pos="l" depth="4" NCoef="0" IVar="-1" Cut="0.0000000000000000e+00" cType="1" res="8.5637433221563697e-04" rms="4.8697808384895325e-01" purity="5.0459122657775879e-01" nType="-99"/>
              <Node pos="r" depth="4" NCoef="0" IVar="-1" Cut="0.0000000000000000e+00" cType="1" res="-1.1563312262296677e-02" rms="4.7014760971069336e-01" purity="3.8499206304550171e-01" nType="-99"/>
            </Node>
          </Node>
        </Node>
      </Node>
    </BinaryTree>
    <BinaryTree type="DecisionTree" boostWeight="1.0000000000000000e+00" itree="17">
      <Node pos="s" depth="0" NCoef="0" IVar="7" Cut="2.0995116233825684e+00" cType="1" res="-1.4782879588892683e-05" rms="4.4736492633819580e-01" purity="5.0000000000000000e-01" nType="0">
        <Node pos="l" depth="1" NCoef="0" IVar="12" Cut="3.2028628540039062e+02" cType="1" res="2.1289115771651268e-02" rms="4.5025768876075745e-01" purity="5.3916031122207642e-01" nType="0">
          <Node pos="l" depth="2" NCoef="0" IVar="8" Cut="6.3263683319091797e+01" cType="1" res="5.4987389594316483e-02" rms="4.4426766037940979e-01" purity="5.9467047452926636e-01" nType="0">
            <Node pos="l" depth="3" NCoef="0" IVar="9" Cut="1.0629074573516846e+00" cType="1" res="-5.4743289947509766e-03" rms="4.5440536737442017e-01" purity="5.0763189792633057e-01" nType="0">
              <Node pos="l" depth="4" NCoef="0" IVar="-1" Cut="0.0000000000000000e+00" cType="1" res="1.5652293339371681e-02" rms="4.2355081439018250e-01" purity="7.4160015583038330e-01" nType="-99"/>
              <Node pos="r" depth="4" NCoef="0" IVar="-1" Cut="0.0000000000000000e+00" cType="1" res="-8.9787272736430168e-03" rms="4.5566734671592712e-01" purity="3.8535657525062561e-01" nType="-99"/>
            </Node>
            <Node pos="r" depth="3" NCoef="0" IVar="7" Cut="1.2956420183181763e+00" cType="1" res="1.2014139443635941e-01" rms="4.2352315783500671e-01" purity="6.8846404552459717e-01" nType="0">
              <Node pos="l" depth="4" NCoef="0" IVar="-1" Cut="0.0000000000000000e+00" cType="1" res="2.5401856750249863e-02" rms="3.6604386568069458e-01" purity="8.0392360687255859e-01" nType="-99"/>
              <Node pos="r" depth="4" NCoef="0" IVar="-1" Cut="0.0000000000000000e+00" cType="1" res="9.2182541266083717e-03" rms="4.4958615303039551e-01" purity="6.1585688591003418e-01" nType="-99"/>
            </Node>
          </Node>
          <Node pos="r" depth="2" NCoef="0" IVar="5" Cut="4.3816943359375000e+02" cType="1" res="-7.9519517719745636e-02" rms="4.5299196243286133e-01" purity="3.7310111522674561e-01" nType="0">
            <Node pos="l" depth="3" NCoef="0" IVar="9" Cut="1.8177480697631836e+00" cType="1" res="-5.1478516310453415e-02" rms="4.6451267600059509e-01" purity="4.1458040475845337e-01" nType="0">
              <Node pos="l" depth="4" NCoef="0" IVar="-1" Cut="0.0000000000000000e+00" cType="1" res="-2.3110122419893742e-03" rms="4.8171114921569824e-01" purity="4.7834318876266479e-01" nType="-99"/>
              <Node pos="r" depth="4" NCoef="0" IVar="-1" Cut="0.0000000000000000e+00" cType="1" res="-1.2527173385024071e-02" rms="4.3434318900108337e-01" purity="3.2284611463546753e-01" nType="-99"/>
            </Node>
            <Node pos="r" depth="3" NCoef="0" IVar="-1" Cut="0.0000000000000000e+00" cType="1" res="-2.0521149039268494e-02" rms="4.0696960687637329e-01" purity="2.5273168087005615e-01" nType="-99"/>
          </Node>
        </Node>
        <Node pos="r" depth="1" NCoef="0" IVar="-1" Cut="0.0000000000000000e+00" cType="1" res="-2.0619263872504234e-02" rms="3.9014485478401184e-01" purity="2.0823106169700623e-01" nType="-99"/>
      </Node>
    </BinaryTree>
    <BinaryTree type="DecisionTree" boostWeight="1.0000000000000000e+00" itree="18">
      <Node pos="s" depth="0" NCoef="0" IVar="1" Cut="1.5622309446334839e+00" cType="1" res="-1.1514599464135244e-05" rms="4.4564154744148254e-01" purity="5.0000000000000000e-01" nType="0">
        <Node pos="l" depth="1" NCoef="0" IVar="6" Cut="1.6890419006347656e+02" cType="1" res="-1.3076062500476837e-01" rms="3.6921152472496033e-01" purity="1.9032417237758636e-01" nType="0">
          <Node pos="l" depth="2" NCoef="0" IVar="-1" Cut="0.0000000000000000e+00" cType="1" res="-1.2819444760680199e-02" rms="4.0121549367904663e-01" purity="2.4033910036087036e-01" nType="-99"/>
          <Node pos="r" depth="2" NCoef="0" IVar="-1" Cut="0.0000000000000000e+00" cType="1" res="-2.8185784816741943e-02" rms="2.9255160689353943e-01" purity="1.0060111433267593e-01" nType="-99"/>
        </Node>
        <Node pos="r" depth="1" NCoef="0" IVar="7" Cut="1.7254462242126465e+00" cType="1" res="2.4137740954756737e-02" rms="4.5426711440086365e-01" purity="5.5719685554504395e-01" nType="0">
          <Node pos="l" depth="2" NCoef="0" IVar="8" Cut="6.3263683319091797e+01" cType="1" res="4.9717020243406296e-02" rms="4.5148074626922607e-01" purity="6.0765540599822998e-01" nType="0">
            <Node pos="l" depth="3" NCoef="0" IVar="9" Cut="8.1902116537094116e-01" cType="1" res="-5.0146086141467094e-03" rms="4.6582698822021484e-01" purity="5.2306997776031494e-01" nType="0">
              <Node pos="l" depth="4" NCoef="0" IVar="-1" Cut="0.0000000000000000e+00" cType="1" res="1.3570879586040974e-02" rms="4.1828370094299316e-01" purity="7.4698054790496826e-01" nType="-99"/>
              <Node pos="r" depth="4" NCoef="0" IVar="-1" Cut="0.0000000000000000e+00" cType="1" res="-5.3991512395441532e-03" rms="4.7582292556762695e-01" purity="4.4172459840774536e-01" nType="-99"/>
            </Node>
            <Node pos="r" depth="3" NCoef="0" IVar="8" Cut="7.8573738098144531e+01" cType="1" res="1.1541046202182770e-01" rms="4.2441502213478088e-01" purity="7.0918196439743042e-01" nType="0">
              <Node pos="l" depth="4" NCoef="0" IVar="-1" Cut="0.0000000000000000e+00" cType="1" res="7.5931022875010967e-03" rms="4.4939053058624268e-01" purity="6.4681226015090942e-01" nType="-99"/>
              <Node pos="r" depth="4" NCoef="0" IVar="-1" Cut="0.0000000000000000e+00" cType="1" res="2.1641733124852180e-02" rms="3.9175227284431458e-01" purity="7.6881903409957886e-01" nType="-99"/>
            </Node>
          </Node>
          <Node pos="r" depth="2" NCoef="0" IVar="12" Cut="1.7917866516113281e+02" cType="1" res="-7.7486097812652588e-02" rms="4.5106357336044312e-01" purity="3.5673025250434875e-01" nType="0">
            <Node pos="l" depth="3" NCoef="0" IVar="-1" Cut="0.0000000000000000e+00" cType="1" res="-1.5944297192618251e-03" rms="4.6064820885658264e-01" purity="4.3703046441078186e-01" nType="-99"/>
            <Node pos="r" depth="3" NCoef="0" IVar="-1" Cut="0.0000000000000000e+00" cType="1" res="-1.6736315563321114e-02" rms="4.3471154570579529e-01" purity="2.8657126426696777e-01" nType="-99"/>
          </Node>
        </Node>
      </Node>
    </BinaryTree>
    <BinaryTree type="DecisionTree" boostWeight="1.0000000000000000e+00" itree="19">
      <Node pos="s" depth="0" NCoef="0" IVar="9" Cut="1.0531579256057739e+00" cType="1" res="-1.2831414096581284e-05" rms="4.4424715638160706e-01" purity="5.0000000000000000e-01" nType="0">
        <Node pos="l" depth="1" NCoef="0" IVar="11" Cut="5.6970429420471191e-01" cType="1" res="8.0561481416225433e-02" rms="4.3506553769111633e-01" purity="6.7964583635330200e-01" nType="0">
          <Node pos="l" depth="2" NCoef="0" IVar="-1" Cut="0.0000000000000000e+00" cType="1" res="-1.1602550745010376e-02" rms="4.7740685939788818e-01" purity="4.1946986317634583e-01" nType="-99"/>
          <Node pos="r" depth="2" NCoef="0" IVar="9" Cut="6.0919529199600220e-01" cType="1" res="1.1934191733598709e-01" rms="4.1526114940643311e-01" purity="7.3690164089202881e-01" nType="0">
            <Node pos="l" depth="3" NCoef="0" IVar="-1" Cut="0.0000000000000000e+00" cType="1" res="2.7696957811713219e-02" rms="3.3020412921905518e-01" purity="8.6570680141448975e-01" nType="-99"/>
            <Node pos="r" depth="3" NCoef="0" IVar="0" Cut="6.9005648437500000e+04" cType="1" res="7.8875117003917694e-02" rms="4.4417962431907654e-01" purity="6.7604625225067139e-01" nType="0">
              <Node pos="l" depth="4" NCoef="0" IVar="-1" Cut="0.0000000000000000e+00" cType="1" res="4.3919067829847336e-03" rms="4.6119573712348938e-01" purity="6.1497509479522705e-01" nType="-99"/>
              <Node pos="r" depth="4" NCoef="0" IVar="-1" Cut="0.0000000000000000e+00" cType="1" res="1.8310522660613060e-02" rms="4.1051340103149414e-01" purity="7.6348918676376343e-01" nType="-99"/>
            </Node>
          </Node>
        </Node>
        <Node pos="r" depth="1" NCoef="0" IVar="4" Cut="1.4123798608779907e+00" cType="1" res="-3.6309991031885147e-02" rms="4.4356554746627808e-01" purity="4.1907304525375366e-01" nType="0">
          <Node pos="l" depth="2" NCoef="0" IVar="7" Cut="1.3426712751388550e+00" cType="1" res="7.9033002257347107e-02" rms="4.3799117207527161e-01" purity="6.7264819145202637e-01" nType="0">
            <Node pos="l" depth="3" NCoef="0" IVar="4" Cut="9.2886036634445190e-01" cType="1" res="1.1903937906026840e-01" rms="4.2212632298469543e-01" purity="7.3860049247741699e-01" nType="0">
              <Node pos="l" depth="4" NCoef="0" IVar="-1" Cut="0.0000000000000000e+00" cType="1" res="1.8596703186631203e-02" rms="3.9461645483970642e-01" purity="7.9253017902374268e-01" nType="-99"/>
              <Node pos="r" depth="4" NCoef="0" IVar="-1" Cut="0.0000000000000000e+00" cType="1" res="1.1192623525857925e-02" rms="4.5409697294235229e-01" purity="6.6790211200714111e-01" nType="-99"/>
            </Node>
            <Node pos="r" depth="3" NCoef="0" IVar="-1" Cut="0.0000000000000000e+00" cType="1" res="1.7374128801748157e-03" rms="4.5521321892738342e-01" purity="5.6512969732284546e-01" nType="-99"/>
          </Node>
          <Node pos="r" depth="2" NCoef="0" IVar="1" Cut="1.7244142293930054e+00" cType="1" res="-8.1185713410377502e-02" rms="4.3757554888725281e-01" purity="3.2041627168655396e-01" nType="0">
            <Node pos="l" depth="3" NCoef="0" IVar="0" Cut="5.5220707031250000e+04" cType="1" res="-1.4829063415527344e-01" rms="3.3844548463821411e-01" purity="1.4276656508445740e-01" nType="0">
              <Node pos="l" depth="4" NCoef="0" IVar="-1" Cut="0.0000000000000000e+00" cType="1" res="-2.5848235934972763e-02" rms="2.9640391469001770e-01" purity="1.0261421650648117e-01" nType="-99"/>
