<?xml version="1.0"?>
<MethodSetup Method="BDT::BDTG_fold6">
  <GeneralInfo>
    <Info name="TMVA Release" value="4.2.1 [262657]"/>
    <Info name="ROOT Release" value="6.20/00 [398336]"/>
    <Info name="Creator" value="zhangyulei"/>
    <Info name="Date" value="Sat Jul 30 21:02:48 2022"/>
    <Info name="Host" value="Linux lcgapp-centos7-x86-64-31.cern.ch-docker 3.10.0-1062.9.1.el7.x86_64 #1 SMP Fri Dec 6 15:49:49 UTC 2019 x86_64 x86_64 x86_64 GNU/Linux"/>
    <Info name="Dir" value="/lustre/collider/zhangyulei/ATLAS/hhml/workspace/Multi_Variate_Analysis"/>
    <Info name="Training events" value="848737"/>
    <Info name="TrainingTime" value="5.78468236e+02"/>
    <Info name="AnalysisType" value="Classification"/>
  </GeneralInfo>
  <Options>
    <Option name="V" modified="Yes">False</Option>
    <Option name="VerbosityLevel" modified="No">Default</Option>
    <Option name="VarTransform" modified="No">None</Option>
    <Option name="H" modified="Yes">False</Option>
    <Option name="CreateMVAPdfs" modified="No">False</Option>
    <Option name="IgnoreNegWeightsInTraining" modified="No">False</Option>
    <Option name="NTrees" modified="Yes">1000</Option>
    <Option name="MaxDepth" modified="Yes">3</Option>
    <Option name="MinNodeSize" modified="Yes">2.5%</Option>
    <Option name="nCuts" modified="Yes">20</Option>
    <Option name="BoostType" modified="Yes">Grad</Option>
    <Option name="AdaBoostR2Loss" modified="No">quadratic</Option>
    <Option name="UseBaggedBoost" modified="Yes">True</Option>
    <Option name="Shrinkage" modified="Yes">1.000000e-01</Option>
    <Option name="AdaBoostBeta" modified="No">5.000000e-01</Option>
    <Option name="UseRandomisedTrees" modified="No">False</Option>
    <Option name="UseNvars" modified="No">4</Option>
    <Option name="UsePoissonNvars" modified="No">True</Option>
    <Option name="BaggedSampleFraction" modified="Yes">5.000000e-01</Option>
    <Option name="UseYesNoLeaf" modified="No">True</Option>
    <Option name="NegWeightTreatment" modified="Yes">ignorenegweightsintraining</Option>
    <Option name="Css" modified="No">1.000000e+00</Option>
    <Option name="Cts_sb" modified="No">1.000000e+00</Option>
    <Option name="Ctb_ss" modified="No">1.000000e+00</Option>
    <Option name="Cbb" modified="No">1.000000e+00</Option>
    <Option name="NodePurityLimit" modified="No">5.000000e-01</Option>
    <Option name="SeparationType" modified="No">giniindex</Option>
    <Option name="RegressionLossFunctionBDTG" modified="No">huber</Option>
    <Option name="HuberQuantile" modified="No">7.000000e-01</Option>
    <Option name="DoBoostMonitor" modified="No">False</Option>
    <Option name="UseFisherCuts" modified="No">False</Option>
    <Option name="MinLinCorrForFisher" modified="No">8.000000e-01</Option>
    <Option name="UseExclusiveVars" modified="No">False</Option>
    <Option name="DoPreselection" modified="No">False</Option>
    <Option name="SigToBkgFraction" modified="No">1.000000e+00</Option>
    <Option name="PruneMethod" modified="No">nopruning</Option>
    <Option name="PruneStrength" modified="No">0.000000e+00</Option>
    <Option name="PruningValFraction" modified="No">5.000000e-01</Option>
    <Option name="SkipNormalization" modified="No">False</Option>
    <Option name="nEventsMin" modified="No">0</Option>
    <Option name="UseBaggedGrad" modified="No">False</Option>
    <Option name="GradBaggingFraction" modified="No">5.000000e-01</Option>
    <Option name="UseNTrainEvents" modified="No">0</Option>
    <Option name="NNodesMax" modified="No">0</Option>
  </Options>
  <Variables NVar="13">
    <Variable VarIndex="0" Expression="FlavorCategory" Label="FlavorCategory" Title="FlavorCategory" Unit="" Internal="FlavorCategory" Type="F" Min="1.00000000e+00" Max="8.00000000e+00"/>
    <Variable VarIndex="1" Expression="nJets" Label="nJets" Title="nJets" Unit="" Internal="nJets" Type="F" Min="1.00000000e+00" Max="1.20000000e+01"/>
    <Variable VarIndex="2" Expression="dR_l1l2" Label="dR_l1l2" Title="dR_l1l2" Unit="" Internal="dR_l1l2" Type="F" Min="2.07845215e-02" Max="5.03746939e+00"/>
    <Variable VarIndex="3" Expression="dR_l2l3" Label="dR_l2l3" Title="dR_l2l3" Unit="" Internal="dR_l2l3" Type="F" Min="4.41394484e-04" Max="5.86758041e+00"/>
    <Variable VarIndex="4" Expression="dR_l3j" Label="dR_l3j" Title="dR_l3j" Unit="" Internal="dR_l3j" Type="F" Min="9.54862591e-03" Max="5.30726480e+00"/>
    <Variable VarIndex="5" Expression="m_l1l2" Label="m_l1l2" Title="m_l1l2" Unit="" Internal="m_l1l2" Type="F" Min="3.97181296e+00" Max="3.63314478e+03"/>
    <Variable VarIndex="6" Expression="m_l2l3" Label="m_l2l3" Title="m_l2l3" Unit="" Internal="m_l2l3" Type="F" Min="-7.30426982e-02" Max="9.59795605e+03"/>
    <Variable VarIndex="7" Expression="m_l1l3" Label="m_l1l3" Title="m_l1l3" Unit="" Internal="m_l1l3" Type="F" Min="6.70721245e+00" Max="5.36872607e+03"/>
    <Variable VarIndex="8" Expression="m_llljj" Label="m_llljj" Title="m_llljj" Unit="" Internal="m_llljj" Type="F" Min="2.05772896e+01" Max="6.34409912e+03"/>
    <Variable VarIndex="9" Expression="m_lll" Label="m_lll" Title="m_lll" Unit="" Internal="m_lll" Type="F" Min="1.59437094e+01" Max="9.61938965e+03"/>
    <Variable VarIndex="10" Expression="MET_ET" Label="MET_ET" Title="MET_ET" Unit="" Internal="MET_ET" Type="F" Min="3.29764448e-02" Max="4.67737617e+04"/>
    <Variable VarIndex="11" Expression="HT" Label="HT" Title="HT" Unit="" Internal="HT" Type="F" Min="6.97460251e+01" Max="4.79910000e+04"/>
    <Variable VarIndex="12" Expression="best_Z_Mll" Label="best_Z_Mll" Title="best_Z_Mll" Unit="" Internal="best_Z_Mll" Type="F" Min="0.00000000e+00" Max="5.36872559e+03"/>
  </Variables>
  <Spectators NSpec="1">
    <Spectator SpecIndex="0" Expression="EvtNum" Label="EvtNum" Title="EvtNum" Unit="" Internal="EvtNum" Type="F" Min="2.00000000e+00" Max="9.89724560e+07"/>
  </Spectators>
  <Classes NClass="2">
    <Class Name="Signal" Index="0"/>
    <Class Name="Background" Index="1"/>
  </Classes>
  <Transformations NTransformations="0"/>
  <MVAPdfs/>
  <Weights NTrees="1000" AnalysisType="1">
    <BinaryTree type="DecisionTree" boostWeight="1.0000000000000000e+00" itree="0">
      <Node pos="s" depth="0" NCoef="0" IVar="5" Cut="1.0136574554443359e+02" cType="1" res="-1.6931754071265459e-03" rms="4.9999713897705078e-01" purity="4.9830681085586548e-01" nType="0">
        <Node pos="l" depth="1" NCoef="0" IVar="4" Cut="1.2832077741622925e+00" cType="1" res="7.1262784302234650e-02" rms="4.9489554762840271e-01" purity="5.7126283645629883e-01" nType="0">
          <Node pos="l" depth="2" NCoef="0" IVar="1" Cut="1.4285714626312256e+00" cType="1" res="2.4137955904006958e-01" rms="4.3787658214569092e-01" purity="7.4137949943542480e-01" nType="0">
            <Node pos="l" depth="3" NCoef="0" IVar="-1" Cut="0.0000000000000000e+00" cType="1" res="1.8598012626171112e-02" rms="4.9127674102783203e-01" purity="5.9299004077911377e-01" nType="-99"/>
            <Node pos="r" depth="3" NCoef="0" IVar="-1" Cut="0.0000000000000000e+00" cType="1" res="7.1005068719387054e-02" rms="3.5207527875900269e-01" purity="8.5502541065216064e-01" nType="-99"/>
          </Node>
          <Node pos="r" depth="2" NCoef="0" IVar="12" Cut="6.3583286285400391e+01" cType="1" res="-9.2607632279396057e-02" rms="4.9134898185729980e-01" purity="4.0739235281944275e-01" nType="0">
            <Node pos="l" depth="3" NCoef="0" IVar="-1" Cut="0.0000000000000000e+00" cType="1" res="4.8154043033719063e-03" rms="4.9941995739936829e-01" purity="5.2407705783843994e-01" nType="-99"/>
            <Node pos="r" depth="3" NCoef="0" IVar="-1" Cut="0.0000000000000000e+00" cType="1" res="-4.6387948095798492e-02" rms="4.4294914603233337e-01" purity="2.6806026697158813e-01" nType="-99"/>
          </Node>
        </Node>
        <Node pos="r" depth="1" NCoef="0" IVar="9" Cut="2.9420416259765625e+02" cType="1" res="-4.7442218661308289e-01" rms="1.5787209570407867e-01" purity="2.5577824562788010e-02" nType="0">
          <Node pos="l" depth="2" NCoef="0" IVar="7" Cut="1.0737663269042969e+02" cType="1" res="-4.6002045273780823e-01" rms="1.9591113924980164e-01" purity="3.9979539811611176e-02" nType="0">
            <Node pos="l" depth="3" NCoef="0" IVar="-1" Cut="0.0000000000000000e+00" cType="1" res="-8.2092851400375366e-02" rms="2.8551548719406128e-01" purity="8.9535728096961975e-02" nType="-99"/>
            <Node pos="r" depth="3" NCoef="0" IVar="-1" Cut="0.0000000000000000e+00" cType="1" res="-9.8064899444580078e-02" rms="9.7887046635150909e-02" purity="9.6754897385835648e-03" nType="-99"/>
          </Node>
          <Node pos="r" depth="2" NCoef="0" IVar="2" Cut="1.9744850397109985e+00" cType="1" res="-4.9513736367225647e-01" rms="6.9562859833240509e-02" purity="4.8626363277435303e-03" nType="0">
            <Node pos="l" depth="3" NCoef="0" IVar="-1" Cut="0.0000000000000000e+00" cType="1" res="-9.8891586065292358e-02" rms="7.4238613247871399e-02" purity="5.5420859716832638e-03" nType="-99"/>
            <Node pos="r" depth="3" NCoef="0" IVar="-1" Cut="0.0000000000000000e+00" cType="1" res="-9.9166624248027802e-02" rms="6.4416840672492981e-02" purity="4.1668922640383244e-03" nType="-99"/>
          </Node>
        </Node>
      </Node>
    </BinaryTree>
    <BinaryTree type="DecisionTree" boostWeight="1.0000000000000000e+00" itree="1">
      <Node pos="s" depth="0" NCoef="0" IVar="2" Cut="1.4615303277969360e+00" cType="1" res="-2.5797742418944836e-03" rms="4.8594236373901367e-01" purity="4.9701106548309326e-01" nType="0">
        <Node pos="l" depth="1" NCoef="0" IVar="4" Cut="1.2580758333206177e+00" cType="1" res="1.0476969927549362e-01" rms="4.7721245884895325e-01" purity="6.1174982786178589e-01" nType="0">
          <Node pos="l" depth="2" NCoef="0" IVar="1" Cut="1.4285714626312256e+00" cType="1" res="2.5161367654800415e-01" rms="4.1145297884941101e-01" purity="7.7429711818695068e-01" nType="0">
            <Node pos="l" depth="3" NCoef="0" IVar="-1" Cut="0.0000000000000000e+00" cType="1" res="2.9070461168885231e-02" rms="4.7352054715156555e-01" purity="6.5243345499038696e-01" nType="-99"/>
            <Node pos="r" depth="3" NCoef="0" IVar="-1" Cut="0.0000000000000000e+00" cType="1" res="6.5266624093055725e-02" rms="3.4418928623199463e-01" purity="8.5798913240432739e-01" nType="-99"/>
          </Node>
          <Node pos="r" depth="2" NCoef="0" IVar="5" Cut="7.4175521850585938e+01" cType="1" res="-4.5699469745159149e-02" rms="4.9282461404800415e-01" purity="4.4518959522247314e-01" nType="0">
            <Node pos="l" depth="3" NCoef="0" IVar="-1" Cut="0.0000000000000000e+00" cType="1" res="2.0825045066885650e-04" rms="4.9836203455924988e-01" purity="4.9528837203979492e-01" nType="-99"/>
            <Node pos="r" depth="3" NCoef="0" IVar="-1" Cut="0.0000000000000000e+00" cType="1" res="-7.6626069843769073e-02" rms="2.7447345852851868e-01" purity="8.5705608129501343e-02" nType="-99"/>
          </Node>
        </Node>
        <Node pos="r" depth="1" NCoef="0" IVar="5" Cut="1.2050193023681641e+02" cType="1" res="-2.2071535885334015e-01" rms="4.2687916755676270e-01" purity="2.6386031508445740e-01" nType="0">
          <Node pos="l" depth="2" NCoef="0" IVar="12" Cut="4.2755870819091797e+01" cType="1" res="-1.7350898683071136e-01" rms="4.5421704649925232e-01" purity="3.1821745634078979e-01" nType="0">
            <Node pos="l" depth="3" NCoef="0" IVar="-1" Cut="0.0000000000000000e+00" cType="1" res="3.3976025879383087e-02" rms="4.6265059709548950e-01" purity="6.7984670400619507e-01" nType="-99"/>
            <Node pos="r" depth="3" NCoef="0" IVar="-1" Cut="0.0000000000000000e+00" cType="1" res="-4.8548679798841476e-02" rms="4.2023587226867676e-01" purity="2.4608704447746277e-01" nType="-99"/>
          </Node>
          <Node pos="r" depth="2" NCoef="0" IVar="2" Cut="2.3130464553833008e+00" cType="1" res="-4.3329128623008728e-01" rms="1.3614112138748169e-01" purity="1.9083583727478981e-02" nType="0">
            <Node pos="l" depth="3" NCoef="0" IVar="-1" Cut="0.0000000000000000e+00" cType="1" res="-8.9456923305988312e-02" rms="9.4750136137008667e-02" purity="9.1657303273677826e-03" nType="-99"/>
            <Node pos="r" depth="3" NCoef="0" IVar="-1" Cut="0.0000000000000000e+00" cType="1" res="-8.5727423429489136e-02" rms="1.6317696869373322e-01" purity="2.7645777910947800e-02" nType="-99"/>
          </Node>
        </Node>
      </Node>
    </BinaryTree>
    <BinaryTree type="DecisionTree" boostWeight="1.0000000000000000e+00" itree="2">
      <Node pos="s" depth="0" NCoef="0" IVar="4" Cut="1.2744383811950684e+00" cType="1" res="-1.4930439647287130e-03" rms="4.7506505250930786e-01" purity="4.9829614162445068e-01" nType="0">
        <Node pos="l" depth="1" NCoef="0" IVar="5" Cut="7.0044700622558594e+01" cType="1" res="1.5005412697792053e-01" rms="4.4468098878860474e-01" purity="6.8101859092712402e-01" nType="0">
          <Node pos="l" depth="2" NCoef="0" IVar="1" Cut="1.4285714626312256e+00" cType="1" res="2.4820232391357422e-01" rms="3.9852625131607056e-01" purity="7.9172581434249878e-01" nType="0">
            <Node pos="l" depth="3" NCoef="0" IVar="-1" Cut="0.0000000000000000e+00" cType="1" res="2.7484107762575150e-02" rms="4.7276261448860168e-01" purity="6.5528881549835205e-01" nType="-99"/>
            <Node pos="r" depth="3" NCoef="0" IVar="-1" Cut="0.0000000000000000e+00" cType="1" res="6.6646382212638855e-02" rms="3.1191748380661011e-01" purity="8.8950467109680176e-01" nType="-99"/>
          </Node>
          <Node pos="r" depth="2" NCoef="0" IVar="12" Cut="9.8017333984375000e+01" cType="1" res="-2.4783317744731903e-01" rms="3.9767631888389587e-01" purity="2.3221796751022339e-01" nType="0">
            <Node pos="l" depth="3" NCoef="0" IVar="-1" Cut="0.0000000000000000e+00" cType="1" res="-2.7845170348882675e-02" rms="4.6980953216552734e-01" purity="3.7432488799095154e-01" nType="-99"/>
            <Node pos="r" depth="3" NCoef="0" IVar="-1" Cut="0.0000000000000000e+00" cType="1" res="-7.2923116385936737e-02" rms="2.6690220832824707e-01" purity="8.9734047651290894e-02" nType="-99"/>
          </Node>
        </Node>
        <Node pos="r" depth="1" NCoef="0" IVar="2" Cut="1.7067558765411377e+00" cType="1" res="-1.3108316063880920e-01" rms="4.6168264746665955e-01" purity="3.4204754233360291e-01" nType="0">
          <Node pos="l" depth="2" NCoef="0" IVar="12" Cut="6.7149673461914062e+01" cType="1" res="-6.2472786754369736e-02" rms="4.8543134331703186e-01" purity="4.2086604237556458e-01" nType="0">
            <Node pos="l" depth="3" NCoef="0" IVar="-1" Cut="0.0000000000000000e+00" cType="1" res="5.0074257887899876e-03" rms="4.9855101108551025e-01" purity="5.2555733919143677e-01" nType="-99"/>
            <Node pos="r" depth="3" NCoef="0" IVar="-1" Cut="0.0000000000000000e+00" cType="1" res="-3.7590473890304565e-02" rms="4.3729460239410400e-01" purity="2.7275863289833069e-01" nType="-99"/>
          </Node>
          <Node pos="r" depth="2" NCoef="0" IVar="1" Cut="1.5238095521926880e+00" cType="1" res="-2.9231461882591248e-01" rms="3.5105013847351074e-01" purity="1.5682749450206757e-01" nType="0">
            <Node pos="l" depth="3" NCoef="0" IVar="-1" Cut="0.0000000000000000e+00" cType="1" res="-6.9365985691547394e-02" rms="2.9764595627784729e-01" purity="1.0616412013769150e-01" nType="-99"/>
            <Node pos="r" depth="3" NCoef="0" IVar="-1" Cut="0.0000000000000000e+00" cType="1" res="-4.3445467948913574e-02" rms="4.0987029671669006e-01" purity="2.3686316609382629e-01" nType="-99"/>
          </Node>
        </Node>
      </Node>
    </BinaryTree>
    <BinaryTree type="DecisionTree" boostWeight="1.0000000000000000e+00" itree="3">
      <Node pos="s" depth="0" NCoef="0" IVar="2" Cut="1.6798342466354370e+00" cType="1" res="-1.7632127855904400e-04" rms="4.6469700336456299e-01" purity="4.9939703941345215e-01" nType="0">
        <Node pos="l" depth="1" NCoef="0" IVar="4" Cut="1.5224045515060425e+00" cType="1" res="7.2620630264282227e-02" rms="4.6538469195365906e-01" purity="5.9279423952102661e-01" nType="0">
          <Node pos="l" depth="2" NCoef="0" IVar="5" Cut="7.6479995727539062e+01" cType="1" res="1.7478288710117340e-01" rms="4.2631208896636963e-01" purity="7.2352010011672974e-01" nType="0">
            <Node pos="l" depth="3" NCoef="0" IVar="-1" Cut="0.0000000000000000e+00" cType="1" res="4.4104944914579391e-02" rms="4.0749469399452209e-01" purity="7.7312231063842773e-01" nType="-99"/>
            <Node pos="r" depth="3" NCoef="0" IVar="-1" Cut="0.0000000000000000e+00" cType="1" res="-5.3633730858564377e-02" rms="3.7278527021408081e-01" purity="1.9576595723628998e-01" nType="-99"/>
          </Node>
          <Node pos="r" depth="2" NCoef="0" IVar="5" Cut="8.0323936462402344e+01" cType="1" res="-8.2234084606170654e-02" rms="4.7915917634963989e-01" purity="3.9464366436004639e-01" nType="0">
            <Node pos="l" depth="3" NCoef="0" IVar="-1" Cut="0.0000000000000000e+00" cType="1" res="-1.0557792149484158e-02" rms="4.9039390683174133e-01" purity="4.3147701025009155e-01" nType="-99"/>
            <Node pos="r" depth="3" NCoef="0" IVar="-1" Cut="0.0000000000000000e+00" cType="1" res="-7.6766870915889740e-02" rms="1.8041795492172241e-01" purity="3.7259459495544434e-02" nType="-99"/>
          </Node>
        </Node>
        <Node pos="r" depth="1" NCoef="0" IVar="12" Cut="9.7583053588867188e+01" cType="1" res="-2.2094386816024780e-01" rms="3.8625645637512207e-01" purity="2.1615618467330933e-01" nType="0">
          <Node pos="l" depth="2" NCoef="0" IVar="12" Cut="6.9589340209960938e+01" cType="1" res="-1.3818399608135223e-01" rms="4.4901990890502930e-01" purity="3.2536116242408752e-01" nType="0">
            <Node pos="l" depth="3" NCoef="0" IVar="-1" Cut="0.0000000000000000e+00" cType="1" res="-3.2930788584053516e-03" rms="4.8276090621948242e-01" purity="4.6614095568656921e-01" nType="-99"/>
            <Node pos="r" depth="3" NCoef="0" IVar="-1" Cut="0.0000000000000000e+00" cType="1" res="-6.0209359973669052e-02" rms="3.4258228540420532e-01" purity="1.4407698810100555e-01" nType="-99"/>
          </Node>
          <Node pos="r" depth="2" NCoef="0" IVar="9" Cut="2.3189791870117188e+02" cType="1" res="-3.3390665054321289e-01" rms="2.3564298450946808e-01" purity="6.7097246646881104e-02" nType="0">
            <Node pos="l" depth="3" NCoef="0" IVar="-1" Cut="0.0000000000000000e+00" cType="1" res="-6.1791960150003433e-02" rms="3.0523678660392761e-01" purity="1.1805903166532516e-01" nType="-99"/>
            <Node pos="r" depth="3" NCoef="0" IVar="-1" Cut="0.0000000000000000e+00" cType="1" res="-7.7324204146862030e-02" rms="1.3769182562828064e-01" purity="2.0582079887390137e-02" nType="-99"/>
          </Node>
        </Node>
      </Node>
    </BinaryTree>
    <BinaryTree type="DecisionTree" boostWeight="1.0000000000000000e+00" itree="4">
      <Node pos="s" depth="0" NCoef="0" IVar="4" Cut="1.0210273265838623e+00" cType="1" res="4.1041132062673569e-03" rms="4.5522841811180115e-01" purity="5.0386565923690796e-01" nType="0">
        <Node pos="l" depth="1" NCoef="0" IVar="2" Cut="1.7920042276382446e+00" cType="1" res="1.6722829639911652e-01" rms="4.0484058856964111e-01" purity="7.2896343469619751e-01" nType="0">
          <Node pos="l" depth="2" NCoef="0" IVar="1" Cut="1.4285714626312256e+00" cType="1" res="2.1329241991043091e-01" rms="3.8219067454338074e-01" purity="7.9320710897445679e-01" nType="0">
            <Node pos="l" depth="3" NCoef="0" IVar="-1" Cut="0.0000000000000000e+00" cType="1" res="2.5782713666558266e-02" rms="4.5568484067916870e-01" purity="6.6836267709732056e-01" nType="-99"/>
            <Node pos="r" depth="3" NCoef="0" IVar="-1" Cut="0.0000000000000000e+00" cType="1" res="5.6778788566589355e-02" rms="3.1358069181442261e-01" purity="8.7393784523010254e-01" nType="-99"/>
          </Node>
          <Node pos="r" depth="2" NCoef="0" IVar="-1" Cut="0.0000000000000000e+00" cType="1" res="-2.8001936152577400e-02" rms="4.1913679242134094e-01" purity="3.0791050195693970e-01" nType="-99"/>
        </Node>
        <Node pos="r" depth="1" NCoef="0" IVar="5" Cut="1.0662206268310547e+02" cType="1" res="-8.2451261579990387e-02" rms="4.5674595236778259e-01" purity="3.8442653417587280e-01" nType="0">
          <Node pos="l" depth="2" NCoef="0" IVar="5" Cut="6.7848747253417969e+01" cType="1" res="-4.6114616096019745e-02" rms="4.7415095567703247e-01" purity="4.3589371442794800e-01" nType="0">
            <Node pos="l" depth="3" NCoef="0" IVar="-1" Cut="0.0000000000000000e+00" cType="1" res="3.1116248574107885e-03" rms="4.8738917708396912e-01" purity="5.1645570993423462e-01" nType="-99"/>
            <Node pos="r" depth="3" NCoef="0" IVar="-1" Cut="0.0000000000000000e+00" cType="1" res="-5.2958767861127853e-02" rms="3.5349515080451965e-01" purity="1.6200311481952667e-01" nType="-99"/>
          </Node>
          <Node pos="r" depth="2" NCoef="0" IVar="2" Cut="2.0099616050720215e+00" cType="1" res="-3.4089711308479309e-01" rms="1.3112002611160278e-01" purity="1.8364213407039642e-02" nType="0">
            <Node pos="l" depth="3" NCoef="0" IVar="-1" Cut="0.0000000000000000e+00" cType="1" res="-7.7056363224983215e-02" rms="8.8914819061756134e-02" purity="8.0490363761782646e-03" nType="-99"/>
            <Node pos="r" depth="3" NCoef="0" IVar="-1" Cut="0.0000000000000000e+00" cType="1" res="-7.2054937481880188e-02" rms="1.5343488752841949e-01" purity="2.5746745988726616e-02" nType="-99"/>
          </Node>
        </Node>
      </Node>
    </BinaryTree>
    <BinaryTree type="DecisionTree" boostWeight="1.0000000000000000e+00" itree="5">
      <Node pos="s" depth="0" NCoef="0" IVar="4" Cut="1.4973282814025879e+00" cType="1" res="1.2159971520304680e-03" rms="4.4863554835319519e-01" purity="5.0084835290908813e-01" nType="0">
        <Node pos="l" depth="1" NCoef="0" IVar="5" Cut="9.9953536987304688e+01" cType="1" res="9.8789259791374207e-02" rms="4.2983326315879822e-01" purity="6.4848893880844116e-01" nType="0">
          <Node pos="l" depth="2" NCoef="0" IVar="5" Cut="6.8377075195312500e+01" cType="1" res="1.4694452285766602e-01" rms="4.2395752668380737e-01" purity="7.1939390897750854e-01" nType="0">
            <Node pos="l" depth="3" NCoef="0" IVar="-1" Cut="0.0000000000000000e+00" cType="1" res="3.8248535245656967e-02" rms="4.0543389320373535e-01" purity="7.7023434638977051e-01" nType="-99"/>
            <Node pos="r" depth="3" NCoef="0" IVar="-1" Cut="0.0000000000000000e+00" cType="1" res="-1.6864133998751640e-02" rms="4.6550175547599792e-01" purity="3.9570719003677368e-01" nType="-99"/>
          </Node>
          <Node pos="r" depth="2" NCoef="0" IVar="2" Cut="1.9456021785736084e+00" cType="1" res="-3.1514391303062439e-01" rms="1.9132465124130249e-01" purity="3.9004333317279816e-02" nType="0">
            <Node pos="l" depth="3" NCoef="0" IVar="-1" Cut="0.0000000000000000e+00" cType="1" res="-7.3133304715156555e-02" rms="1.8329259753227234e-01" purity="3.5179100930690765e-02" nType="-99"/>
            <Node pos="r" depth="3" NCoef="0" IVar="-1" Cut="0.0000000000000000e+00" cType="1" res="-6.5982438623905182e-02" rms="1.9559697806835175e-01" purity="4.2364552617073059e-02" nType="-99"/>
          </Node>
        </Node>
        <Node pos="r" depth="1" NCoef="0" IVar="3" Cut="1.7288482189178467e+00" cType="1" res="-1.1923682689666748e-01" rms="4.4204327464103699e-01" purity="3.1858807802200317e-01" nType="0">
          <Node pos="l" depth="2" NCoef="0" IVar="1" Cut="1.4761904478073120e+00" cType="1" res="-2.5501000881195068e-01" rms="3.6309418082237244e-01" purity="1.7597579956054688e-01" nType="0">
            <Node pos="l" depth="3" NCoef="0" IVar="-1" Cut="0.0000000000000000e+00" cType="1" res="-6.5948188304901123e-02" rms="2.9724010825157166e-01" purity="1.0626408457756042e-01" nType="-99"/>
            <Node pos="r" depth="3" NCoef="0" IVar="-1" Cut="0.0000000000000000e+00" cType="1" res="-4.1709154844284058e-02" rms="4.0562707185745239e-01" purity="2.3804068565368652e-01" nType="-99"/>
          </Node>
          <Node pos="r" depth="2" NCoef="0" IVar="5" Cut="6.6421905517578125e+01" cType="1" res="-7.2062268853187561e-02" rms="4.5700928568840027e-01" purity="3.6813890933990479e-01" nType="0">
            <Node pos="l" depth="3" NCoef="0" IVar="-1" Cut="0.0000000000000000e+00" cType="1" res="3.3471970818936825e-03" rms="4.9451583623886108e-01" purity="4.9578553438186646e-01" nType="-99"/>
            <Node pos="r" depth="3" NCoef="0" IVar="-1" Cut="0.0000000000000000e+00" cType="1" res="-5.3958866745233536e-02" rms="3.0302524566650391e-01" purity="1.1550075560808182e-01" nType="-99"/>
          </Node>
        </Node>
      </Node>
    </BinaryTree>
    <BinaryTree type="DecisionTree" boostWeight="1.0000000000000000e+00" itree="6">
      <Node pos="s" depth="0" NCoef="0" IVar="2" Cut="1.4541230201721191e+00" cType="1" res="-2.4270310532301664e-03" rms="4.4173145294189453e-01" purity="4.9728038907051086e-01" nType="0">
        <Node pos="l" depth="1" NCoef="0" IVar="3" Cut="1.9184600114822388e+00" cType="1" res="6.7239768803119659e-02" rms="4.4719555974006653e-01" purity="6.1312574148178101e-01" nType="0">
          <Node pos="l" depth="2" NCoef="0" IVar="0" Cut="6.3333334922790527e+00" cType="1" res="-1.5005333721637726e-01" rms="4.5069116353988647e-01" purity="3.4790569543838501e-01" nType="0">
            <Node pos="l" depth="3" NCoef="0" IVar="-1" Cut="0.0000000000000000e+00" cType="1" res="-1.5767697244882584e-02" rms="4.6639972925186157e-01" purity="4.2822974920272827e-01" nType="-99"/>
            <Node pos="r" depth="3" NCoef="0" IVar="-1" Cut="0.0000000000000000e+00" cType="1" res="-5.1247499883174896e-02" rms="4.0860325098037720e-01" purity="2.4068698287010193e-01" nType="-99"/>
          </Node>
          <Node pos="r" depth="2" NCoef="0" IVar="0" Cut="6.3333334922790527e+00" cType="1" res="1.1365775763988495e-01" rms="4.3251875042915344e-01" purity="6.6978186368942261e-01" nType="0">
            <Node pos="l" depth="3" NCoef="0" IVar="-1" Cut="0.0000000000000000e+00" cType="1" res="3.7701308727264404e-02" rms="4.0321150422096252e-01" purity="7.4346208572387695e-01" nType="-99"/>
            <Node pos="r" depth="3" NCoef="0" IVar="-1" Cut="0.0000000000000000e+00" cType="1" res="5.0101091619580984e-04" rms="4.5688319206237793e-01" purity="5.4530942440032959e-01" nType="-99"/>
          </Node>
        </Node>
        <Node pos="r" depth="1" NCoef="0" IVar="1" Cut="1.5238095521926880e+00" cType="1" res="-1.3964986801147461e-01" rms="3.9644598960876465e-01" purity="2.6909953355789185e-01" nType="0">
          <Node pos="l" depth="2" NCoef="0" IVar="8" Cut="1.4365237426757812e+02" cType="1" res="-2.0899087190628052e-01" rms="3.5456576943397522e-01" purity="1.8415966629981995e-01" nType="0">
            <Node pos="l" depth="3" NCoef="0" IVar="-1" Cut="0.0000000000000000e+00" cType="1" res="-1.8497077748179436e-02" rms="4.6223354339599609e-01" purity="3.7386512756347656e-01" nType="-99"/>
            <Node pos="r" depth="3" NCoef="0" IVar="-1" Cut="0.0000000000000000e+00" cType="1" res="-6.0321278870105743e-02" rms="2.6287034153938293e-01" purity="8.5978806018829346e-02" nType="-99"/>
          </Node>
          <Node pos="r" depth="2" NCoef="0" IVar="12" Cut="9.4967178344726562e+01" cType="1" res="-3.9794761687517166e-02" rms="4.3077582120895386e-01" purity="3.9141792058944702e-01" nType="0">
            <Node pos="l" depth="3" NCoef="0" IVar="-1" Cut="0.0000000000000000e+00" cType="1" res="1.1568712070584297e-02" rms="4.6043479442596436e-01" purity="5.3079110383987427e-01" nType="-99"/>
            <Node pos="r" depth="3" NCoef="0" IVar="-1" Cut="0.0000000000000000e+00" cType="1" res="-4.8822343349456787e-02" rms="2.9841077327728271e-01" purity="1.3446113467216492e-01" nType="-99"/>
          </Node>
        </Node>
      </Node>
    </BinaryTree>
    <BinaryTree type="DecisionTree" boostWeight="1.0000000000000000e+00" itree="7">
      <Node pos="s" depth="0" NCoef="0" IVar="4" Cut="9.9772113561630249e-01" cType="1" res="2.6798018370755017e-04" rms="4.3517929315567017e-01" purity="5.0044029951095581e-01" nType="0">
        <Node pos="l" depth="1" NCoef="0" IVar="1" Cut="1.4285714626312256e+00" cType="1" res="1.3416260480880737e-01" rms="3.8995951414108276e-01" purity="7.2907978296279907e-01" nType="0">
          <Node pos="l" depth="2" NCoef="0" IVar="8" Cut="1.4038902282714844e+02" cType="1" res="3.1558748334646225e-02" rms="4.4861301779747009e-01" purity="5.6985270977020264e-01" nType="0">
            <Node pos="l" depth="3" NCoef="0" IVar="-1" Cut="0.0000000000000000e+00" cType="1" res="3.0079808086156845e-02" rms="4.3055015802383423e-01" purity="7.1980136632919312e-01" nType="-99"/>
            <Node pos="r" depth="3" NCoef="0" IVar="-1" Cut="0.0000000000000000e+00" cType="1" res="-5.3168199956417084e-02" rms="3.6259534955024719e-01" purity="2.0339399576187134e-01" nType="-99"/>
          </Node>
          <Node pos="r" depth="2" NCoef="0" IVar="8" Cut="3.0962622070312500e+02" cType="1" res="2.1007895469665527e-01" rms="3.1956815719604492e-01" purity="8.4689146280288696e-01" nType="0">
            <Node pos="l" depth="3" NCoef="0" IVar="-1" Cut="0.0000000000000000e+00" cType="1" res="5.5079750716686249e-02" rms="2.8315919637680054e-01" purity="8.9416581392288208e-01" nType="-99"/>
            <Node pos="r" depth="3" NCoef="0" IVar="-1" Cut="0.0000000000000000e+00" cType="1" res="2.4669202044606209e-02" rms="3.8582137227058411e-01" purity="7.1733206510543823e-01" nType="-99"/>
          </Node>
        </Node>
        <Node pos="r" depth="1" NCoef="0" IVar="5" Cut="1.0236804199218750e+02" cType="1" res="-6.6723838448524475e-02" rms="4.4112578034400940e-01" purity="3.8604456186294556e-01" nType="0">
          <Node pos="l" depth="2" NCoef="0" IVar="12" Cut="7.0430702209472656e+01" cType="1" res="-3.1259741634130478e-02" rms="4.6608662605285645e-01" purity="4.5072761178016663e-01" nType="0">
            <Node pos="l" depth="3" NCoef="0" IVar="-1" Cut="0.0000000000000000e+00" cType="1" res="7.3636048473417759e-03" rms="4.7903329133987427e-01" purity="5.5033916234970093e-01" nType="-99"/>
            <Node pos="r" depth="3" NCoef="0" IVar="-1" Cut="0.0000000000000000e+00" cType="1" res="-2.9549695551395416e-02" rms="4.2229330539703369e-01" purity="2.8999581933021545e-01" nType="-99"/>
          </Node>
          <Node pos="r" depth="2" NCoef="0" IVar="2" Cut="1.7295645475387573e+00" cType="1" res="-2.6698067784309387e-01" rms="1.3970594108104706e-01" purity="2.0795760676264763e-02" nType="0">
            <Node pos="l" depth="3" NCoef="0" IVar="-1" Cut="0.0000000000000000e+00" cType="1" res="-6.8499676883220673e-02" rms="1.2336277961730957e-01" purity="1.5370177105069160e-02" nType="-99"/>
            <Node pos="r" depth="3" NCoef="0" IVar="-1" Cut="0.0000000000000000e+00" cType="1" res="-6.3878990709781647e-02" rms="1.4522700011730194e-01" purity="2.3181982338428497e-02" nType="-99"/>
          </Node>
        </Node>
      </Node>
    </BinaryTree>
    <BinaryTree type="DecisionTree" boostWeight="1.0000000000000000e+00" itree="8">
      <Node pos="s" depth="0" NCoef="0" IVar="3" Cut="2.1450846195220947e+00" cType="1" res="1.2409319169819355e-03" rms="4.3005564808845520e-01" purity="5.0141912698745728e-01" nType="0">
        <Node pos="l" depth="1" NCoef="0" IVar="10" Cut="7.8626548767089844e+01" cType="1" res="-1.3699930906295776e-01" rms="4.0817552804946899e-01" purity="2.9948261380195618e-01" nType="0">
          <Node pos="l" depth="2" NCoef="0" IVar="10" Cut="5.2427532196044922e+01" cType="1" res="-1.8193320930004120e-01" rms="3.8829267024993896e-01" purity="2.4399873614311218e-01" nType="0">
            <Node pos="l" depth="3" NCoef="0" IVar="-1" Cut="0.0000000000000000e+00" cType="1" res="-4.9583889544010162e-02" rms="3.6067566275596619e-01" purity="1.9105774164199829e-01" nType="-99"/>
            <Node pos="r" depth="3" NCoef="0" IVar="-1" Cut="0.0000000000000000e+00" cType="1" res="-1.7286168411374092e-02" rms="4.2679235339164734e-01" purity="3.6284166574478149e-01" nType="-99"/>
          </Node>
          <Node pos="r" depth="2" NCoef="0" IVar="8" Cut="2.9651422119140625e+02" cType="1" res="-2.0898401737213135e-02" rms="4.3454390764236450e-01" purity="4.4284272193908691e-01" nType="0">
            <Node pos="l" depth="3" NCoef="0" IVar="-1" Cut="0.0000000000000000e+00" cType="1" res="1.1247567832469940e-02" rms="4.4119757413864136e-01" purity="5.4425036907196045e-01" nType="-99"/>
            <Node pos="r" depth="3" NCoef="0" IVar="-1" Cut="0.0000000000000000e+00" cType="1" res="-2.7861490845680237e-02" rms="4.0169191360473633e-01" purity="2.9685047268867493e-01" nType="-99"/>
          </Node>
        </Node>
        <Node pos="r" depth="1" NCoef="0" IVar="5" Cut="1.0136574554443359e+02" cType="1" res="6.0145549476146698e-02" rms="4.2561733722686768e-01" purity="5.8746486902236938e-01" nType="0">
          <Node pos="l" depth="2" NCoef="0" IVar="1" Cut="1.4761904478073120e+00" cType="1" res="9.6455633640289307e-02" rms="4.3179652094841003e-01" purity="6.5286785364151001e-01" nType="0">
            <Node pos="l" depth="3" NCoef="0" IVar="-1" Cut="0.0000000000000000e+00" cType="1" res="1.6754093812778592e-03" rms="4.6507367491722107e-01" purity="5.2316486835479736e-01" nType="-99"/>
            <Node pos="r" depth="3" NCoef="0" IVar="-1" Cut="0.0000000000000000e+00" cType="1" res="3.7951961159706116e-02" rms="3.8378310203552246e-01" purity="7.6694840192794800e-01" nType="-99"/>
          </Node>
          <Node pos="r" depth="2" NCoef="0" IVar="2" Cut="1.8024010658264160e+00" cType="1" res="-2.4914811551570892e-01" rms="1.7066633701324463e-01" purity="3.0354753136634827e-02" nType="0">
            <Node pos="l" depth="3" NCoef="0" IVar="-1" Cut="0.0000000000000000e+00" cType="1" res="-6.9376654922962189e-02" rms="1.2187138199806213e-01" purity="1.3490410521626472e-02" nType="-99"/>
            <Node pos="r" depth="3" NCoef="0" IVar="-1" Cut="0.0000000000000000e+00" cType="1" res="-5.6827697902917862e-02" rms="1.9488094747066498e-01" purity="4.3287433683872223e-02" nType="-99"/>
          </Node>
        </Node>
      </Node>
    </BinaryTree>
    <BinaryTree type="DecisionTree" boostWeight="1.0000000000000000e+00" itree="9">
      <Node pos="s" depth="0" NCoef="0" IVar="5" Cut="1.0136574554443359e+02" cType="1" res="1.0412567062303424e-03" rms="4.2507091164588928e-01" purity="5.0110924243927002e-01" nType="0">
        <Node pos="l" depth="1" NCoef="0" IVar="4" Cut="1.0081276893615723e+00" cType="1" res="3.6861363798379898e-02" rms="4.4206386804580688e-01" purity="5.7465171813964844e-01" nType="0">
          <Node pos="l" depth="2" NCoef="0" IVar="11" Cut="2.1465383911132812e+02" cType="1" res="1.5236492455005646e-01" rms="3.7314340472221375e-01" purity="7.9188728332519531e-01" nType="0">
            <Node pos="l" depth="3" NCoef="0" IVar="-1" Cut="0.0000000000000000e+00" cType="1" res="-8.8550028158351779e-04" rms="4.6583494544029236e-01" purity="5.7497352361679077e-01" nType="-99"/>
            <Node pos="r" depth="3" NCoef="0" IVar="-1" Cut="0.0000000000000000e+00" cType="1" res="4.5180842280387878e-02" rms="3.2672911882400513e-01" purity="8.5621130466461182e-01" nType="-99"/>
          </Node>
          <Node pos="r" depth="2" NCoef="0" IVar="0" Cut="5.3333334922790527e+00" cType="1" res="-2.7990994974970818e-02" rms="4.6397215127944946e-01" purity="4.5267933607101440e-01" nType="0">
            <Node pos="l" depth="3" NCoef="0" IVar="-1" Cut="0.0000000000000000e+00" cType="1" res="1.2071301229298115e-02" rms="4.6260610222816467e-01" purity="5.5666399002075195e-01" nType="-99"/>
            <Node pos="r" depth="3" NCoef="0" IVar="-1" Cut="0.0000000000000000e+00" cType="1" res="-2.1198647096753120e-02" rms="4.5222434401512146e-01" purity="3.6355537176132202e-01" nType="-99"/>
          </Node>
        </Node>
        <Node pos="r" depth="1" NCoef="0" IVar="2" Cut="1.5737055540084839e+00" cType="1" res="-2.3151874542236328e-01" rms="1.5034450590610504e-01" purity="2.3638611659407616e-02" nType="0">
          <Node pos="l" depth="2" NCoef="0" IVar="-1" Cut="0.0000000000000000e+00" cType="1" res="-6.6819369792938232e-02" rms="1.2551797926425934e-01" purity="1.5477836132049561e-02" nType="-99"/>
          <Node pos="r" depth="2" NCoef="0" IVar="3" Cut="2.3903925418853760e+00" cType="1" res="-2.1895962953567505e-01" rms="1.5603421628475189e-01" purity="2.6449413970112801e-02" nType="0">
            <Node pos="l" depth="3" NCoef="0" IVar="-1" Cut="0.0000000000000000e+00" cType="1" res="-6.2073927372694016e-02" rms="1.2825161218643188e-01" purity="1.7545174807310104e-02" nType="-99"/>
            <Node pos="r" depth="3" NCoef="0" IVar="-1" Cut="0.0000000000000000e+00" cType="1" res="-5.5564351379871368e-02" rms="1.8660107254981995e-01" purity="3.8776170462369919e-02" nType="-99"/>
          </Node>
        </Node>
      </Node>
    </BinaryTree>
    <BinaryTree type="DecisionTree" boostWeight="1.0000000000000000e+00" itree="10">
      <Node pos="s" depth="0" NCoef="0" IVar="5" Cut="8.4192901611328125e+01" cType="1" res="3.0253099976107478e-04" rms="4.2040714621543884e-01" purity="5.0082713365554810e-01" nType="0">
        <Node pos="l" depth="1" NCoef="0" IVar="4" Cut="1.5132435560226440e+00" cType="1" res="3.6015797406435013e-02" rms="4.3931454420089722e-01" purity="5.8095550537109375e-01" nType="0">
          <Node pos="l" depth="2" NCoef="0" IVar="1" Cut="1.4285714626312256e+00" cType="1" res="1.0309606790542603e-01" rms="4.0894111990928650e-01" purity="7.1990609169006348e-01" nType="0">
            <Node pos="l" depth="3" NCoef="0" IVar="-1" Cut="0.0000000000000000e+00" cType="1" res="3.4411316737532616e-03" rms="4.6259766817092896e-01" purity="5.7298541069030762e-01" nType="-99"/>
            <Node pos="r" depth="3" NCoef="0" IVar="-1" Cut="0.0000000000000000e+00" cType="1" res="3.9512451738119125e-02" rms="3.4715208411216736e-01" purity="8.3414262533187866e-01" nType="-99"/>
          </Node>
          <Node pos="r" depth="2" NCoef="0" IVar="10" Cut="8.7152091979980469e+01" cType="1" res="-5.6526478379964828e-02" rms="4.6235200762748718e-01" purity="3.8926258683204651e-01" nType="0">
            <Node pos="l" depth="3" NCoef="0" IVar="-1" Cut="0.0000000000000000e+00" cType="1" res="-1.9969278946518898e-02" rms="4.5184656977653503e-01" purity="3.4388589859008789e-01" nType="-99"/>
            <Node pos="r" depth="3" NCoef="0" IVar="-1" Cut="0.0000000000000000e+00" cType="1" res="1.5201712027192116e-02" rms="4.7238641977310181e-01" purity="5.3887140750885010e-01" nType="-99"/>
          </Node>
        </Node>
        <Node pos="r" depth="1" NCoef="0" IVar="0" Cut="5.3333334922790527e+00" cType="1" res="-2.0116057991981506e-01" rms="1.9303590059280396e-01" purity="4.8813052475452423e-02" nType="0">
          <Node pos="l" depth="2" NCoef="0" IVar="11" Cut="3.2868518066406250e+02" cType="1" res="-1.7845025658607483e-01" rms="2.4247625470161438e-01" purity="8.2614466547966003e-02" nType="0">
            <Node pos="l" depth="3" NCoef="0" IVar="-1" Cut="0.0000000000000000e+00" cType="1" res="-4.0760070085525513e-02" rms="2.7667501568794250e-01" purity="1.0892477631568909e-01" nType="-99"/>
            <Node pos="r" depth="3" NCoef="0" IVar="-1" Cut="0.0000000000000000e+00" cType="1" res="-5.4300185292959213e-02" rms="2.0284783840179443e-01" purity="5.8326408267021179e-02" nType="-99"/>
          </Node>
          <Node pos="r" depth="2" NCoef="0" IVar="2" Cut="1.7770167589187622e+00" cType="1" res="-2.1777644753456116e-01" rms="1.4441516995429993e-01" purity="2.4082431569695473e-02" nType="0">
            <Node pos="l" depth="3" NCoef="0" IVar="-1" Cut="0.0000000000000000e+00" cType="1" res="-6.1284907162189484e-02" rms="1.5753161907196045e-01" purity="3.1708832830190659e-02" nType="-99"/>
            <Node pos="r" depth="3" NCoef="0" IVar="-1" Cut="0.0000000000000000e+00" cType="1" res="-5.9891212731599808e-02" rms="1.3608990609645844e-01" purity="1.9888911396265030e-02" nType="-99"/>
          </Node>
        </Node>
      </Node>
    </BinaryTree>
    <BinaryTree type="DecisionTree" boostWeight="1.0000000000000000e+00" itree="11">
      <Node pos="s" depth="0" NCoef="0" IVar="3" Cut="1.9204760789871216e+00" cType="1" res="-4.4200866250321269e-04" rms="4.1627156734466553e-01" purity="5.0074648857116699e-01" nType="0">
        <Node pos="l" depth="1" NCoef="0" IVar="1" Cut="1.4761904478073120e+00" cType="1" res="-1.4141769707202911e-01" rms="3.8799941539764404e-01" purity="2.5987863540649414e-01" nType="0">
          <Node pos="l" depth="2" NCoef="0" IVar="10" Cut="4.2308109283447266e+01" cType="1" res="-2.0647382736206055e-01" rms="3.4093797206878662e-01" purity="1.6402047872543335e-01" nType="0">
            <Node pos="l" depth="3" NCoef="0" IVar="-1" Cut="0.0000000000000000e+00" cType="1" res="-6.1315342783927917e-02" rms="2.7920901775360107e-01" purity="8.7921105325222015e-02" nType="-99"/>
            <Node pos="r" depth="3" NCoef="0" IVar="-1" Cut="0.0000000000000000e+00" cType="1" res="-3.5704966634511948e-02" rms="3.8054037094116211e-01" purity="2.3078149557113647e-01" nType="-99"/>
          </Node>
          <Node pos="r" depth="2" NCoef="0" IVar="8" Cut="3.3498620605468750e+02" cType="1" res="-7.6187618076801300e-02" rms="4.2004942893981934e-01" purity="3.5599312186241150e-01" nType="0">
            <Node pos="l" depth="3" NCoef="0" IVar="-1" Cut="0.0000000000000000e+00" cType="1" res="-8.6855265544727445e-04" rms="4.4885328412055969e-01" purity="4.6979784965515137e-01" nType="-99"/>
            <Node pos="r" depth="3" NCoef="0" IVar="-1" Cut="0.0000000000000000e+00" cType="1" res="-3.8304418325424194e-02" rms="3.6229771375656128e-01" purity="2.1571677923202515e-01" nType="-99"/>
          </Node>
        </Node>
        <Node pos="r" depth="1" NCoef="0" IVar="2" Cut="1.1374028921127319e+00" cType="1" res="4.1603844612836838e-02" rms="4.1517278552055359e-01" purity="5.7258504629135132e-01" nType="0">
          <Node pos="l" depth="2" NCoef="0" IVar="0" Cut="6.3333334922790527e+00" cType="1" res="1.1233208328485489e-01" rms="4.0633654594421387e-01" purity="7.1265065670013428e-01" nType="0">
            <Node pos="l" depth="3" NCoef="0" IVar="-1" Cut="0.0000000000000000e+00" cType="1" res="3.7507042288780212e-02" rms="3.7378370761871338e-01" purity="7.8606742620468140e-01" nType="-99"/>
            <Node pos="r" depth="3" NCoef="0" IVar="-1" Cut="0.0000000000000000e+00" cType="1" res="3.7546693347394466e-03" rms="4.4139054417610168e-01" purity="5.8546864986419678e-01" nType="-99"/>
          </Node>
          <Node pos="r" depth="2" NCoef="0" IVar="1" Cut="1.5238095521926880e+00" cType="1" res="-5.0432719290256500e-02" rms="4.0845334529876709e-01" purity="3.9032191038131714e-01" nType="0">
            <Node pos="l" depth="3" NCoef="0" IVar="-1" Cut="0.0000000000000000e+00" cType="1" res="-2.6903331279754639e-02" rms="3.9606112241744995e-01" purity="2.7931529283523560e-01" nType="-99"/>
            <Node pos="r" depth="3" NCoef="0" IVar="-1" Cut="0.0000000000000000e+00" cType="1" res="7.9680075868964195e-03" rms="4.0795466303825378e-01" purity="5.3050887584686279e-01" nType="-99"/>
          </Node>
        </Node>
      </Node>
    </BinaryTree>
    <BinaryTree type="DecisionTree" boostWeight="1.0000000000000000e+00" itree="12">
      <Node pos="s" depth="0" NCoef="0" IVar="5" Cut="8.6945411682128906e+01" cType="1" res="-4.8829073784872890e-04" rms="4.1337144374847412e-01" purity="5.0015985965728760e-01" nType="0">
        <Node pos="l" depth="1" NCoef="0" IVar="10" Cut="7.4742027282714844e+01" cType="1" res="3.0052097514271736e-02" rms="4.3382915854454041e-01" purity="5.7945817708969116e-01" nType="0">
          <Node pos="l" depth="2" NCoef="0" IVar="4" Cut="1.5209681987762451e+00" cType="1" res="-2.3487623780965805e-02" rms="4.3909645080566406e-01" purity="5.0775557756423950e-01" nType="0">
            <Node pos="l" depth="3" NCoef="0" IVar="-1" Cut="0.0000000000000000e+00" cType="1" res="9.9742673337459564e-03" rms="4.2619404196739197e-01" purity="6.5912330150604248e-01" nType="-99"/>
            <Node pos="r" depth="3" NCoef="0" IVar="-1" Cut="0.0000000000000000e+00" cType="1" res="-2.3140260949730873e-02" rms="4.4004184007644653e-01" purity="3.1549492478370667e-01" nType="-99"/>
          </Node>
          <Node pos="r" depth="2" NCoef="0" IVar="5" Cut="6.3532192230224609e+01" cType="1" res="1.2953475117683411e-01" rms="4.0551352500915527e-01" purity="7.1268957853317261e-01" nType="0">
            <Node pos="l" depth="3" NCoef="0" IVar="-1" Cut="0.0000000000000000e+00" cType="1" res="3.8270667195320129e-02" rms="3.8381135463714600e-01" purity="7.7887469530105591e-01" nType="-99"/>
            <Node pos="r" depth="3" NCoef="0" IVar="-1" Cut="0.0000000000000000e+00" cType="1" res="-2.0001156255602837e-02" rms="4.3947631120681763e-01" purity="3.7414830923080444e-01" nType="-99"/>
          </Node>
        </Node>
        <Node pos="r" depth="1" NCoef="0" IVar="9" Cut="2.8868728637695312e+02" cType="1" res="-1.7608784139156342e-01" rms="1.8714807927608490e-01" purity="4.4214025139808655e-02" nType="0">
          <Node pos="l" depth="2" NCoef="0" IVar="7" Cut="9.0610389709472656e+01" cType="1" res="-1.6393221914768219e-01" rms="2.2223739326000214e-01" purity="6.3130296766757965e-02" nType="0">
            <Node pos="l" depth="3" NCoef="0" IVar="-1" Cut="0.0000000000000000e+00" cType="1" res="-3.2734252512454987e-02" rms="3.1860494613647461e-01" purity="1.2982851266860962e-01" nType="-99"/>
            <Node pos="r" depth="3" NCoef="0" IVar="-1" Cut="0.0000000000000000e+00" cType="1" res="-5.4794277995824814e-02" rms="1.6225521266460419e-01" purity="3.5185456275939941e-02" nType="-99"/>
          </Node>
          <Node pos="r" depth="2" NCoef="0" IVar="2" Cut="1.8990048170089722e+00" cType="1" res="-1.9426341354846954e-01" rms="1.1399082839488983e-01" purity="1.5929674729704857e-02" nType="0">
            <Node pos="l" depth="3" NCoef="0" IVar="-1" Cut="0.0000000000000000e+00" cType="1" res="-5.9055276215076447e-02" rms="1.4491645991802216e-01" purity="2.7167616412043571e-02" nType="-99"/>
            <Node pos="r" depth="3" NCoef="0" IVar="-1" Cut="0.0000000000000000e+00" cType="1" res="-6.0115549713373184e-02" rms="7.4008382856845856e-02" purity="5.6931297294795513e-03" nType="-99"/>
          </Node>
        </Node>
      </Node>
    </BinaryTree>
    <BinaryTree type="DecisionTree" boostWeight="1.0000000000000000e+00" itree="13">
      <Node pos="s" depth="0" NCoef="0" IVar="3" Cut="2.1944897174835205e+00" cType="1" res="-2.6980500479112379e-05" rms="4.0971380472183228e-01" purity="5.0057059526443481e-01" nType="0">
        <Node pos="l" depth="1" NCoef="0" IVar="1" Cut="1.4285714626312256e+00" cType="1" res="-9.4308279454708099e-02" rms="3.9772549271583557e-01" purity="3.1385093927383423e-01" nType="0">
          <Node pos="l" depth="2" NCoef="0" IVar="10" Cut="4.9264892578125000e+01" cType="1" res="-1.5284110605716705e-01" rms="3.6430084705352783e-01" purity="2.1290077269077301e-01" nType="0">
            <Node pos="l" depth="3" NCoef="0" IVar="-1" Cut="0.0000000000000000e+00" cType="1" res="-5.1581420004367828e-02" rms="3.1236171722412109e-01" purity="1.2320748716592789e-01" nType="-99"/>
            <Node pos="r" depth="3" NCoef="0" IVar="-1" Cut="0.0000000000000000e+00" cType="1" res="-1.8912518396973610e-02" rms="4.0586775541305542e-01" purity="3.1802111864089966e-01" nType="-99"/>
          </Node>
          <Node pos="r" depth="2" NCoef="0" IVar="8" Cut="3.4100463867187500e+02" cType="1" res="-3.6751348525285721e-02" rms="4.2017802596092224e-01" purity="4.1311794519424438e-01" nType="0">
            <Node pos="l" depth="3" NCoef="0" IVar="-1" Cut="0.0000000000000000e+00" cType="1" res="7.7459672465920448e-03" rms="4.3896704912185669e-01" purity="5.3329461812973022e-01" nType="-99"/>
            <Node pos="r" depth="3" NCoef="0" IVar="-1" Cut="0.0000000000000000e+00" cType="1" res="-3.4402195364236832e-02" rms="3.6542662978172302e-01" purity="2.3467244207859039e-01" nType="-99"/>
          </Node>
        </Node>
        <Node pos="r" depth="1" NCoef="0" IVar="5" Cut="6.6220062255859375e+01" cType="1" res="4.3890032917261124e-02" rms="4.0780523419380188e-01" purity="5.8754611015319824e-01" nType="0">
          <Node pos="l" depth="2" NCoef="0" IVar="10" Cut="5.7876159667968750e+01" cType="1" res="9.9774092435836792e-02" rms="4.1208705306053162e-01" purity="7.1260446310043335e-01" nType="0">
            <Node pos="l" depth="3" NCoef="0" IVar="-1" Cut="0.0000000000000000e+00" cType="1" res="5.8742151595652103e-03" rms="4.4090449810028076e-01" purity="6.1743664741516113e-01" nType="-99"/>
            <Node pos="r" depth="3" NCoef="0" IVar="-1" Cut="0.0000000000000000e+00" cType="1" res="3.8362663239240646e-02" rms="3.6977353692054749e-01" purity="8.0263042449951172e-01" nType="-99"/>
          </Node>
          <Node pos="r" depth="2" NCoef="0" IVar="0" Cut="6.3333334922790527e+00" cType="1" res="-1.2355158478021622e-01" rms="3.4408199787139893e-01" purity="2.1284227073192596e-01" nType="0">
            <Node pos="l" depth="3" NCoef="0" IVar="-1" Cut="0.0000000000000000e+00" cType="1" res="-1.7424762248992920e-02" rms="3.7288418412208557e-01" purity="2.8747108578681946e-01" nType="-99"/>
            <Node pos="r" depth="3" NCoef="0" IVar="-1" Cut="0.0000000000000000e+00" cType="1" res="-4.8132810741662979e-02" rms="2.9440537095069885e-01" purity="1.2468137592077255e-01" nType="-99"/>
          </Node>
        </Node>
      </Node>
    </BinaryTree>
    <BinaryTree type="DecisionTree" boostWeight="1.0000000000000000e+00" itree="14">
      <Node pos="s" depth="0" NCoef="0" IVar="0" Cut="6.3333334922790527e+00" cType="1" res="-2.4588219821453094e-03" rms="4.0675714612007141e-01" purity="4.9799716472625732e-01" nType="0">
        <Node pos="l" depth="1" NCoef="0" IVar="0" Cut="3.1428570747375488e+00" cType="1" res="4.8440586775541306e-02" rms="4.0141129493713379e-01" purity="5.7830440998077393e-01" nType="0">
          <Node pos="l" depth="2" NCoef="0" IVar="5" Cut="6.8540840148925781e+01" cType="1" res="-3.1113347038626671e-02" rms="4.0683567523956299e-01" purity="4.7170192003250122e-01" nType="0">
            <Node pos="l" depth="3" NCoef="0" IVar="-1" Cut="0.0000000000000000e+00" cType="1" res="4.0148124098777771e-03" rms="4.3543222546577454e-01" purity="6.0979121923446655e-01" nType="-99"/>
            <Node pos="r" depth="3" NCoef="0" IVar="-1" Cut="0.0000000000000000e+00" cType="1" res="-4.0558841079473495e-02" rms="2.9440665245056152e-01" purity="1.3530215620994568e-01" nType="-99"/>
          </Node>
          <Node pos="r" depth="2" NCoef="0" IVar="0" Cut="5.0476188659667969e+00" cType="1" res="1.5204273164272308e-01" rms="3.6938613653182983e-01" purity="7.1713167428970337e-01" nType="0">
            <Node pos="l" depth="3" NCoef="0" IVar="-1" Cut="0.0000000000000000e+00" cType="1" res="6.4892306923866272e-02" rms="2.6479199528694153e-01" purity="9.1066485643386841e-01" nType="-99"/>
            <Node pos="r" depth="3" NCoef="0" IVar="-1" Cut="0.0000000000000000e+00" cType="1" res="-8.6116400780156255e-04" rms="4.1404473781585693e-01" purity="4.8523980379104614e-01" nType="-99"/>
          </Node>
        </Node>
        <Node pos="r" depth="1" NCoef="0" IVar="1" Cut="1.5238095521926880e+00" cType="1" res="-7.8514337539672852e-02" rms="4.0280440449714661e-01" purity="3.7799954414367676e-01" nType="0">
          <Node pos="l" depth="2" NCoef="0" IVar="8" Cut="1.3273385620117188e+02" cType="1" res="-1.3758884370326996e-01" rms="3.8552966713905334e-01" purity="2.6435202360153198e-01" nType="0">
            <Node pos="l" depth="3" NCoef="0" IVar="-1" Cut="0.0000000000000000e+00" cType="1" res="-1.0987564921379089e-02" rms="4.6147173643112183e-01" purity="4.5973089337348938e-01" nType="-99"/>
            <Node pos="r" depth="3" NCoef="0" IVar="-1" Cut="0.0000000000000000e+00" cType="1" res="-4.8855286091566086e-02" rms="3.1291142106056213e-01" purity="1.3469123840332031e-01" nType="-99"/>
          </Node>
          <Node pos="r" depth="2" NCoef="0" IVar="8" Cut="3.1571118164062500e+02" cType="1" res="-1.6016863286495209e-02" rms="4.1117000579833984e-01" purity="4.9823224544525146e-01" nType="0">
            <Node pos="l" depth="3" NCoef="0" IVar="-1" Cut="0.0000000000000000e+00" cType="1" res="1.2305377051234245e-02" rms="4.1464871168136597e-01" purity="6.2837660312652588e-01" nType="-99"/>
            <Node pos="r" depth="3" NCoef="0" IVar="-1" Cut="0.0000000000000000e+00" cType="1" res="-2.7612814679741859e-02" rms="3.8528260588645935e-01" purity="3.1373703479766846e-01" nType="-99"/>
          </Node>
        </Node>
      </Node>
    </BinaryTree>
    <BinaryTree type="DecisionTree" boostWeight="1.0000000000000000e+00" itree="15">
      <Node pos="s" depth="0" NCoef="0" IVar="3" Cut="1.6778341531753540e+00" cType="1" res="-5.6024838704615831e-04" rms="4.0156877040863037e-01" purity="4.9980893731117249e-01" nType="0">
        <Node pos="l" depth="1" NCoef="0" IVar="1" Cut="2.2857143878936768e+00" cType="1" res="-1.3268052041530609e-01" rms="3.6955180764198303e-01" purity="2.3047582805156708e-01" nType="0">
          <Node pos="l" depth="2" NCoef="0" IVar="3" Cut="1.0393785238265991e+00" cType="1" res="-1.5887780487537384e-01" rms="3.5029196739196777e-01" purity="1.9053241610527039e-01" nType="0">
            <Node pos="l" depth="3" NCoef="0" IVar="-1" Cut="0.0000000000000000e+00" cType="1" res="-5.0248846411705017e-02" rms="3.1918275356292725e-01" purity="1.3540780544281006e-01" nType="-99"/>
            <Node pos="r" depth="3" NCoef="0" IVar="-1" Cut="0.0000000000000000e+00" cType="1" res="-3.1191332265734673e-02" rms="3.6524161696434021e-01" purity="2.2523979842662811e-01" nType="-99"/>
          </Node>
          <Node pos="r" depth="2" NCoef="0" IVar="-1" Cut="0.0000000000000000e+00" cType="1" res="-9.3690883368253708e-03" rms="4.1765558719635010e-01" purity="3.7100699543952942e-01" nType="-99"/>
        </Node>
        <Node pos="r" depth="1" NCoef="0" IVar="2" Cut="9.8550099134445190e-01" cType="1" res="2.6686042547225952e-02" rms="4.0250062942504883e-01" purity="5.5535173416137695e-01" nType="0">
          <Node pos="l" depth="2" NCoef="0" IVar="0" Cut="6.3333334922790527e+00" cType="1" res="9.3262910842895508e-02" rms="3.9522969722747803e-01" purity="7.1861678361892700e-01" nType="0">
            <Node pos="l" depth="3" NCoef="0" IVar="-1" Cut="0.0000000000000000e+00" cType="1" res="3.2465379685163498e-02" rms="3.6380743980407715e-01" purity="7.9231846332550049e-01" nType="-99"/>
            <Node pos="r" depth="3" NCoef="0" IVar="-1" Cut="0.0000000000000000e+00" cType="1" res="3.5398544277995825e-03" rms="4.3481990694999695e-01" purity="5.8811485767364502e-01" nType="-99"/>
          </Node>
          <Node pos="r" depth="2" NCoef="0" IVar="1" Cut="1.5238095521926880e+00" cType="1" res="-3.2853610813617706e-02" rms="3.9960601925849915e-01" purity="4.0934386849403381e-01" nType="0">
            <Node pos="l" depth="3" NCoef="0" IVar="-1" Cut="0.0000000000000000e+00" cType="1" res="-2.1530887112021446e-02" rms="3.9056536555290222e-01" purity="2.9312163591384888e-01" nType="-99"/>
            <Node pos="r" depth="3" NCoef="0" IVar="-1" Cut="0.0000000000000000e+00" cType="1" res="8.2039143890142441e-03" rms="3.9967024326324463e-01" purity="5.4622924327850342e-01" nType="-99"/>
          </Node>
        </Node>
      </Node>
    </BinaryTree>
    <BinaryTree type="DecisionTree" boostWeight="1.0000000000000000e+00" itree="16">
      <Node pos="s" depth="0" NCoef="0" IVar="5" Cut="1.0219545745849609e+02" cType="1" res="3.2614381052553654e-03" rms="3.9864161610603333e-01" purity="5.0316697359085083e-01" nType="0">
        <Node pos="l" depth="1" NCoef="0" IVar="5" Cut="6.5108703613281250e+01" cType="1" res="2.4838088080286980e-02" rms="4.1863527894020081e-01" purity="5.7372885942459106e-01" nType="0">
          <Node pos="l" depth="2" NCoef="0" IVar="10" Cut="5.8216648101806641e+01" cType="1" res="5.5217128247022629e-02" rms="4.1957750916481018e-01" purity="6.4600753784179688e-01" nType="0">
            <Node pos="l" depth="3" NCoef="0" IVar="-1" Cut="0.0000000000000000e+00" cType="1" res="-3.4272982738912106e-03" rms="4.3687966465950012e-01" purity="5.3947776556015015e-01" nType="-99"/>
            <Node pos="r" depth="3" NCoef="0" IVar="-1" Cut="0.0000000000000000e+00" cType="1" res="2.9163910076022148e-02" rms="3.8851118087768555e-01" purity="7.5359958410263062e-01" nType="-99"/>
          </Node>
          <Node pos="r" depth="2" NCoef="0" IVar="0" Cut="6.3333334922790527e+00" cType="1" res="-9.7556509077548981e-02" rms="3.9163100719451904e-01" purity="2.8252387046813965e-01" nType="0">
            <Node pos="l" depth="3" NCoef="0" IVar="-1" Cut="0.0000000000000000e+00" cType="1" res="-1.0421114042401314e-02" rms="4.1038993000984192e-01" purity="3.6112296581268311e-01" nType="-99"/>
            <Node pos="r" depth="3" NCoef="0" IVar="-1" Cut="0.0000000000000000e+00" cType="1" res="-3.8730714470148087e-02" rms="3.5621660947799683e-01" purity="1.8425057828426361e-01" nType="-99"/>
          </Node>
        </Node>
        <Node pos="r" depth="1" NCoef="0" IVar="2" Cut="1.5690255165100098e+00" cType="1" res="-1.4291948080062866e-01" rms="1.5390551090240479e-01" purity="2.5113577023148537e-02" nType="0">
          <Node pos="l" depth="2" NCoef="0" IVar="-1" Cut="0.0000000000000000e+00" cType="1" res="-6.0013622045516968e-02" rms="1.0223858803510666e-01" purity="9.0972725301980972e-03" nType="-99"/>
          <Node pos="r" depth="2" NCoef="0" IVar="7" Cut="1.5760646057128906e+02" cType="1" res="-1.2924921512603760e-01" rms="1.6525602340698242e-01" purity="3.0408101156353951e-02" nType="0">
            <Node pos="l" depth="3" NCoef="0" IVar="-1" Cut="0.0000000000000000e+00" cType="1" res="-4.0481183677911758e-02" rms="2.2142331302165985e-01" purity="5.6078478693962097e-02" nType="-99"/>
            <Node pos="r" depth="3" NCoef="0" IVar="-1" Cut="0.0000000000000000e+00" cType="1" res="-5.8363035321235657e-02" rms="5.0200834870338440e-02" purity="1.9000368192791939e-03" nType="-99"/>
          </Node>
        </Node>
      </Node>
    </BinaryTree>
    <BinaryTree type="DecisionTree" boostWeight="1.0000000000000000e+00" itree="17">
      <Node pos="s" depth="0" NCoef="0" IVar="4" Cut="1.7574865818023682e+00" cType="1" res="-6.6977919777855277e-04" rms="3.9671280980110168e-01" purity="5.0039219856262207e-01" nType="0">
        <Node pos="l" depth="1" NCoef="0" IVar="5" Cut="7.4953598022460938e+01" cType="1" res="4.1928015649318695e-02" rms="3.8808298110961914e-01" purity="6.0892742872238159e-01" nType="0">
          <Node pos="l" depth="2" NCoef="0" IVar="10" Cut="5.2577896118164062e+01" cType="1" res="7.9697579145431519e-02" rms="3.9786249399185181e-01" purity="7.1893370151519775e-01" nType="0">
            <Node pos="l" depth="3" NCoef="0" IVar="-1" Cut="0.0000000000000000e+00" cType="1" res="2.3688999935984612e-03" rms="4.3096387386322021e-01" purity="6.1117577552795410e-01" nType="-99"/>
            <Node pos="r" depth="3" NCoef="0" IVar="-1" Cut="0.0000000000000000e+00" cType="1" res="3.1742282211780548e-02" rms="3.6295038461685181e-01" purity="7.9890316724777222e-01" nType="-99"/>
          </Node>
          <Node pos="r" depth="2" NCoef="0" IVar="0" Cut="6.3333334922790527e+00" cType="1" res="-1.1873129755258560e-01" rms="2.9331645369529724e-01" purity="1.4099687337875366e-01" nType="0">
            <Node pos="l" depth="3" NCoef="0" IVar="-1" Cut="0.0000000000000000e+00" cType="1" res="-2.4727599695324898e-02" rms="3.2380259037017822e-01" purity="1.9233013689517975e-01" nType="-99"/>
            <Node pos="r" depth="3" NCoef="0" IVar="-1" Cut="0.0000000000000000e+00" cType="1" res="-4.8091549426317215e-02" rms="2.4560582637786865e-01" purity="7.7960669994354248e-02" nType="-99"/>
          </Node>
        </Node>
        <Node pos="r" depth="1" NCoef="0" IVar="1" Cut="2.0476191043853760e+00" cType="1" res="-7.9599648714065552e-02" rms="4.0042224526405334e-01" purity="2.9928621649742126e-01" nType="0">
          <Node pos="l" depth="2" NCoef="0" IVar="0" Cut="6.3333334922790527e+00" cType="1" res="-1.0628079622983932e-01" rms="3.8740605115890503e-01" purity="2.6095834374427795e-01" nType="0">
            <Node pos="l" depth="3" NCoef="0" IVar="-1" Cut="0.0000000000000000e+00" cType="1" res="-1.6529582440853119e-02" rms="4.0990000963211060e-01" purity="3.2582342624664307e-01" nType="-99"/>
            <Node pos="r" depth="3" NCoef="0" IVar="-1" Cut="0.0000000000000000e+00" cType="1" res="-3.6959651857614517e-02" rms="3.5266220569610596e-01" purity="1.8044652044773102e-01" nType="-99"/>
          </Node>
          <Node pos="r" depth="2" NCoef="0" IVar="8" Cut="3.1566467285156250e+02" cType="1" res="2.1989746019244194e-02" rms="4.3168443441390991e-01" purity="4.4522097706794739e-01" nType="0">
            <Node pos="l" depth="3" NCoef="0" IVar="-1" Cut="0.0000000000000000e+00" cType="1" res="2.3565171286463737e-02" rms="4.5450139045715332e-01" purity="5.8931660652160645e-01" nType="-99"/>
            <Node pos="r" depth="3" NCoef="0" IVar="-1" Cut="0.0000000000000000e+00" cType="1" res="-6.5010096877813339e-03" rms="4.1016328334808350e-01" purity="3.6557114124298096e-01" nType="-99"/>
          </Node>
        </Node>
      </Node>
    </BinaryTree>
    <BinaryTree type="DecisionTree" boostWeight="1.0000000000000000e+00" itree="18">
      <Node pos="s" depth="0" NCoef="0" IVar="4" Cut="1.0026098489761353e+00" cType="1" res="-6.5524620003998280e-04" rms="3.9561823010444641e-01" purity="5.0001418590545654e-01" nType="0">
        <Node pos="l" depth="1" NCoef="0" IVar="3" Cut="1.8337547779083252e+00" cType="1" res="7.2934001684188843e-02" rms="3.5394760966300964e-01" purity="7.2609037160873413e-01" nType="0">
          <Node pos="l" depth="2" NCoef="0" IVar="-1" Cut="0.0000000000000000e+00" cType="1" res="-1.7226105555891991e-02" rms="4.0207374095916748e-01" purity="4.0624272823333740e-01" nType="-99"/>
          <Node pos="r" depth="2" NCoef="0" IVar="0" Cut="7.3333334922790527e+00" cType="1" res="9.0976789593696594e-02" rms="3.4321606159210205e-01" purity="7.6614761352539062e-01" nType="0">
            <Node pos="l" depth="3" NCoef="0" IVar="-1" Cut="0.0000000000000000e+00" cType="1" res="2.9700255021452904e-02" rms="3.2533654570579529e-01" purity="8.0072814226150513e-01" nType="-99"/>
            <Node pos="r" depth="3" NCoef="0" IVar="-1" Cut="0.0000000000000000e+00" cType="1" res="2.8809128707507625e-05" rms="4.0021970868110657e-01" purity="6.1422878503799438e-01" nType="-99"/>
          </Node>
        </Node>
        <Node pos="r" depth="1" NCoef="0" IVar="0" Cut="7.3333334922790527e+00" cType="1" res="-3.7999112159013748e-02" rms="4.1014835238456726e-01" purity="3.8528874516487122e-01" nType="0">
          <Node pos="l" depth="2" NCoef="0" IVar="0" Cut="2.1428570747375488e+00" cType="1" res="-9.9153742194175720e-03" rms="4.1655516624450684e-01" purity="4.3431308865547180e-01" nType="0">
            <Node pos="l" depth="3" NCoef="0" IVar="-1" Cut="0.0000000000000000e+00" cType="1" res="-2.2730695083737373e-02" rms="4.0372273325920105e-01" purity="3.3359822630882263e-01" nType="-99"/>
            <Node pos="r" depth="3" NCoef="0" IVar="-1" Cut="0.0000000000000000e+00" cType="1" res="7.8405840322375298e-03" rms="4.1627374291419983e-01" purity="4.8582303524017334e-01" nType="-99"/>
          </Node>
          <Node pos="r" depth="2" NCoef="0" IVar="1" Cut="2.4285714626312256e+00" cType="1" res="0.0000000000000000e+00" rms="0.0000000000000000e+00" purity="2.3769466578960419e-01" nType="0">
            <Node pos="l" depth="3" NCoef="0" IVar="-1" Cut="0.0000000000000000e+00" cType="1" res="-3.4092046320438385e-02" rms="3.6637905240058899e-01" purity="2.1104151010513306e-01" nType="-99"/>
            <Node pos="r" depth="3" NCoef="0" IVar="-1" Cut="0.0000000000000000e+00" cType="1" res="-1.3054997660219669e-02" rms="4.1860345005989075e-01" purity="3.5638573765754700e-01" nType="-99"/>
          </Node>
        </Node>
      </Node>
    </BinaryTree>
    <BinaryTree type="DecisionTree" boostWeight="1.0000000000000000e+00" itree="19">
      <Node pos="s" depth="0" NCoef="0" IVar="3" Cut="1.6198126077651978e+00" cType="1" res="-5.6485243840143085e-04" rms="3.9288371801376343e-01" purity="4.9929794669151306e-01" nType="0">
        <Node pos="l" depth="1" NCoef="0" IVar="3" Cut="1.0031416416168213e+00" cType="1" res="-1.1570404469966888e-01" rms="3.6340922117233276e-01" purity="2.2106498479843140e-01" nType="0">
          <Node pos="l" depth="2" NCoef="0" IVar="2" Cut="1.6126210689544678e+00" cType="1" res="-1.6660401225090027e-01" rms="3.3758193254470825e-01" purity="1.6111615300178528e-01" nType="0">
            <Node pos="l" depth="3" NCoef="0" IVar="-1" Cut="0.0000000000000000e+00" cType="1" res="-4.5364063233137131e-02" rms="3.6749106645584106e-01" purity="1.8785028159618378e-01" nType="-99"/>
            <Node pos="r" depth="3" NCoef="0" IVar="-1" Cut="0.0000000000000000e+00" cType="1" res="-3.6729581654071808e-02" rms="2.9084867238998413e-01" purity="1.2806725502014160e-01" nType="-99"/>
          </Node>
          <Node pos="r" depth="2" NCoef="0" IVar="6" Cut="7.9244293212890625e+01" cType="1" res="-8.4156550467014313e-02" rms="3.7508192658424377e-01" purity="2.5822088122367859e-01" nType="0">
            <Node pos="l" depth="3" NCoef="0" IVar="-1" Cut="0.0000000000000000e+00" cType="1" res="-1.3950555585324764e-02" rms="3.9842531085014343e-01" purity="3.0820378661155701e-01" nType="-99"/>
            <Node pos="r" depth="3" NCoef="0" IVar="-1" Cut="0.0000000000000000e+00" cType="1" res="-4.6548146754503250e-02" rms="2.8081846237182617e-01" purity="1.1058200150728226e-01" nType="-99"/>
          </Node>
        </Node>
        <Node pos="r" depth="1" NCoef="0" IVar="1" Cut="1.5238095521926880e+00" cType="1" res="2.1570339798927307e-02" rms="3.9446732401847839e-01" purity="5.5278748273849487e-01" nType="0">
          <Node pos="l" depth="2" NCoef="0" IVar="8" Cut="1.3383444213867188e+02" cType="1" res="-2.8663896024227142e-02" rms="4.1043850779533386e-01" purity="4.2724147439002991e-01" nType="0">
            <Node pos="l" depth="3" NCoef="0" IVar="-1" Cut="0.0000000000000000e+00" cType="1" res="1.2996830977499485e-02" rms="4.3385058641433716e-01" purity="6.3339722156524658e-01" nType="-99"/>
            <Node pos="r" depth="3" NCoef="0" IVar="-1" Cut="0.0000000000000000e+00" cType="1" res="-2.7001202106475830e-02" rms="3.7208884954452515e-01" purity="2.4659958481788635e-01" nType="-99"/>
          </Node>
          <Node pos="r" depth="2" NCoef="0" IVar="5" Cut="6.7245056152343750e+01" cType="1" res="6.8523630499839783e-02" rms="3.7286126613616943e-01" purity="6.7013365030288696e-01" nType="0">
            <Node pos="l" depth="3" NCoef="0" IVar="-1" Cut="0.0000000000000000e+00" cType="1" res="2.7101995423436165e-02" rms="3.6805844306945801e-01" purity="7.8755009174346924e-01" nType="-99"/>
            <Node pos="r" depth="3" NCoef="0" IVar="-1" Cut="0.0000000000000000e+00" cType="1" res="-1.8130259588360786e-02" rms="3.5648971796035767e-01" purity="2.6490125060081482e-01" nType="-99"/>
          </Node>
        </Node>
      </Node>
    </BinaryTree>
    <BinaryTree type="DecisionTree" boostWeight="1.0000000000000000e+00" itree="20">
      <Node pos="s" depth="0" NCoef="0" IVar="0" Cut="5.3333334922790527e+00" cType="1" res="2.0428935531526804e-03" rms="3.9118278026580811e-01" purity="5.0183123350143433e-01" nType="0">
        <Node pos="l" depth="1" NCoef="0" IVar="0" Cut="3.0952382087707520e+00" cType="1" res="5.0996147096157074e-02" rms="3.8135659694671631e-01" purity="6.0369670391082764e-01" nType="0">
          <Node pos="l" depth="2" NCoef="0" IVar="4" Cut="1.0081276893615723e+00" cType="1" res="-2.6741035282611847e-02" rms="3.9722830057144165e-01" purity="4.7421097755432129e-01" nType="0">
            <Node pos="l" depth="3" NCoef="0" IVar="-1" Cut="0.0000000000000000e+00" cType="1" res="1.2358237989246845e-02" rms="3.5970818996429443e-01" purity="7.0813632011413574e-01" nType="-99"/>
            <Node pos="r" depth="3" NCoef="0" IVar="-1" Cut="0.0000000000000000e+00" cType="1" res="-1.5027501620352268e-02" rms="4.0982201695442200e-01" purity="3.5872134566307068e-01" nType="-99"/>
          </Node>
          <Node pos="r" depth="2" NCoef="0" IVar="-1" Cut="0.0000000000000000e+00" cType="1" res="6.0613486915826797e-02" rms="2.5507584214210510e-01" purity="9.1827130317687988e-01" nType="-99"/>
        </Node>
        <Node pos="r" depth="1" NCoef="0" IVar="4" Cut="7.6392960548400879e-01" cType="1" res="-4.3284244835376740e-02" rms="3.9468890428543091e-01" purity="4.0751132369041443e-01" nType="0">
          <Node pos="l" depth="2" NCoef="0" IVar="5" Cut="5.9482513427734375e+01" cType="1" res="5.4465796798467636e-02" rms="3.6537227034568787e-01" purity="6.8841487169265747e-01" nType="0">
            <Node pos="l" depth="3" NCoef="0" IVar="-1" Cut="0.0000000000000000e+00" cType="1" res="2.4536803364753723e-02" rms="3.5007789731025696e-01" purity="8.1316137313842773e-01" nType="-99"/>
            <Node pos="r" depth="3" NCoef="0" IVar="-1" Cut="0.0000000000000000e+00" cType="1" res="-1.1316328309476376e-02" rms="3.8318574428558350e-01" purity="3.8014337420463562e-01" nType="-99"/>
          </Node>
          <Node pos="r" depth="2" NCoef="0" IVar="10" Cut="7.2113410949707031e+01" cType="1" res="-6.5982110798358917e-02" rms="3.9776811003684998e-01" purity="3.4228459000587463e-01" nType="0">
            <Node pos="l" depth="3" NCoef="0" IVar="-1" Cut="0.0000000000000000e+00" cType="1" res="-2.3308498784899712e-02" rms="3.8803535699844360e-01" purity="2.9017940163612366e-01" nType="-99"/>
            <Node pos="r" depth="3" NCoef="0" IVar="-1" Cut="0.0000000000000000e+00" cType="1" res="-1.0423269122838974e-03" rms="4.1167631745338440e-01" purity="4.5669436454772949e-01" nType="-99"/>
          </Node>
        </Node>
      </Node>
    </BinaryTree>
    <BinaryTree type="DecisionTree" boostWeight="1.0000000000000000e+00" itree="21">
      <Node pos="s" depth="0" NCoef="0" IVar="3" Cut="2.1599450111389160e+00" cType="1" res="6.7521032178774476e-04" rms="3.8657966256141663e-01" purity="5.0102961063385010e-01" nType="0">
        <Node pos="l" depth="1" NCoef="0" IVar="0" Cut="5.3333334922790527e+00" cType="1" res="-7.0525914430618286e-02" rms="3.7638053297996521e-01" purity="3.0142480134963989e-01" nType="0">
          <Node pos="l" depth="2" NCoef="0" IVar="0" Cut="2.1428570747375488e+00" cType="1" res="-2.0977254956960678e-02" rms="3.9297989010810852e-01" purity="3.9567708969116211e-01" nType="0">
            <Node pos="l" depth="3" NCoef="0" IVar="-1" Cut="0.0000000000000000e+00" cType="1" res="-2.4301398545503616e-02" rms="3.7168821692466736e-01" purity="2.6814404129981995e-01" nType="-99"/>
            <Node pos="r" depth="3" NCoef="0" IVar="-1" Cut="0.0000000000000000e+00" cType="1" res="1.9054153934121132e-02" rms="3.9886894822120667e-01" purity="5.7112646102905273e-01" nType="-99"/>
          </Node>
          <Node pos="r" depth="2" NCoef="0" IVar="1" Cut="2.2857143878936768e+00" cType="1" res="-1.1033719778060913e-01" rms="3.5755226016044617e-01" purity="2.2569513320922852e-01" nType="0">
            <Node pos="l" depth="3" NCoef="0" IVar="-1" Cut="0.0000000000000000e+00" cType="1" res="-3.3565081655979156e-02" rms="3.4319385886192322e-01" purity="1.9078136980533600e-01" nType="-99"/>
            <Node pos="r" depth="3" NCoef="0" IVar="-1" Cut="0.0000000000000000e+00" cType="1" res="-1.1591718532145023e-02" rms="4.0188568830490112e-01" purity="3.5961392521858215e-01" nType="-99"/>
          </Node>
        </Node>
        <Node pos="r" depth="1" NCoef="0" IVar="5" Cut="1.0136574554443359e+02" cType="1" res="3.1773697584867477e-02" rms="3.8686069846153259e-01" purity="5.8821088075637817e-01" nType="0">
          <Node pos="l" depth="2" NCoef="0" IVar="12" Cut="7.0430702209472656e+01" cType="1" res="4.9196712672710419e-02" rms="4.0188804268836975e-01" purity="6.5467375516891479e-01" nType="0">
            <Node pos="l" depth="3" NCoef="0" IVar="-1" Cut="0.0000000000000000e+00" cType="1" res="2.1242693066596985e-02" rms="3.8920801877975464e-01" purity="7.3830223083496094e-01" nType="-99"/>
            <Node pos="r" depth="3" NCoef="0" IVar="-1" Cut="0.0000000000000000e+00" cType="1" res="-4.7008553519845009e-03" rms="4.1490623354911804e-01" purity="5.0426268577575684e-01" nType="-99"/>
          </Node>
          <Node pos="r" depth="2" NCoef="0" IVar="11" Cut="3.1795724487304688e+02" cType="1" res="-1.1517692357301712e-01" rms="1.5980146825313568e-01" purity="2.7644027024507523e-02" nType="0">
            <Node pos="l" depth="3" NCoef="0" IVar="-1" Cut="0.0000000000000000e+00" cType="1" res="-4.0476221591234207e-02" rms="1.8819177150726318e-01" purity="4.0306709706783295e-02" nType="-99"/>
            <Node pos="r" depth="3" NCoef="0" IVar="-1" Cut="0.0000000000000000e+00" cType="1" res="-5.2761696279048920e-02" rms="1.3167470693588257e-01" purity="1.8059309571981430e-02" nType="-99"/>
          </Node>
        </Node>
      </Node>
    </BinaryTree>
    <BinaryTree type="DecisionTree" boostWeight="1.0000000000000000e+00" itree="22">
      <Node pos="s" depth="0" NCoef="0" IVar="3" Cut="1.6458355188369751e+00" cType="1" res="5.1824370166286826e-04" rms="3.8522395491600037e-01" purity="5.0182229280471802e-01" nType="0">
        <Node pos="l" depth="1" NCoef="0" IVar="10" Cut="5.5099090576171875e+01" cType="1" res="-9.2846266925334930e-02" rms="3.5857969522476196e-01" purity="2.2523130476474762e-01" nType="0">
          <Node pos="l" depth="2" NCoef="0" IVar="10" Cut="2.3758655548095703e+01" cType="1" res="-1.2875355780124664e-01" rms="3.2119575142860413e-01" purity="1.4709594845771790e-01" nType="0">
            <Node pos="l" depth="3" NCoef="0" IVar="-1" Cut="0.0000000000000000e+00" cType="1" res="-5.0644513219594955e-02" rms="2.6586443185806274e-01" purity="8.6684495210647583e-02" nType="-99"/>
            <Node pos="r" depth="3" NCoef="0" IVar="-1" Cut="0.0000000000000000e+00" cType="1" res="-2.8275685384869576e-02" rms="3.4264385700225830e-01" purity="1.7735737562179565e-01" nType="-99"/>
          </Node>
          <Node pos="r" depth="2" NCoef="0" IVar="11" Cut="2.6524554443359375e+02" cType="1" res="-4.9990095198154449e-02" rms="3.9437866210937500e-01" purity="3.1848764419555664e-01" nType="0">
            <Node pos="l" depth="3" NCoef="0" IVar="-1" Cut="0.0000000000000000e+00" cType="1" res="6.3273566775023937e-03" rms="4.2781558632850647e-01" purity="4.2914983630180359e-01" nType="-99"/>
            <Node pos="r" depth="3" NCoef="0" IVar="-1" Cut="0.0000000000000000e+00" cType="1" res="-2.7981616556644440e-02" rms="3.5648331046104431e-01" purity="2.3531596362590790e-01" nType="-99"/>
          </Node>
        </Node>
        <Node pos="r" depth="1" NCoef="0" IVar="1" Cut="1.5238095521926880e+00" cType="1" res="1.8875207751989365e-02" rms="3.8761216402053833e-01" purity="5.5620455741882324e-01" nType="0">
          <Node pos="l" depth="2" NCoef="0" IVar="8" Cut="1.3373759460449219e+02" cType="1" res="-2.6227129623293877e-02" rms="4.0342044830322266e-01" purity="4.2825266718864441e-01" nType="0">
            <Node pos="l" depth="3" NCoef="0" IVar="-1" Cut="0.0000000000000000e+00" cType="1" res="1.0633005760610104e-02" rms="4.2730876803398132e-01" purity="6.3407635688781738e-01" nType="-99"/>
            <Node pos="r" depth="3" NCoef="0" IVar="-1" Cut="0.0000000000000000e+00" cType="1" res="-2.4096308276057243e-02" rms="3.6923849582672119e-01" purity="2.4717575311660767e-01" nType="-99"/>
          </Node>
          <Node pos="r" depth="2" NCoef="0" IVar="8" Cut="2.7894775390625000e+02" cType="1" res="6.0872502624988556e-02" rms="3.6734351515769958e-01" purity="6.7534768581390381e-01" nType="0">
            <Node pos="l" depth="3" NCoef="0" IVar="-1" Cut="0.0000000000000000e+00" cType="1" res="2.9530864208936691e-02" rms="3.4275823831558228e-01" purity="7.9527187347412109e-01" nType="-99"/>
            <Node pos="r" depth="3" NCoef="0" IVar="-1" Cut="0.0000000000000000e+00" cType="1" res="-9.2703197151422501e-04" rms="3.8758203387260437e-01" purity="5.1985281705856323e-01" nType="-99"/>
          </Node>
        </Node>
      </Node>
    </BinaryTree>
    <BinaryTree type="DecisionTree" boostWeight="1.0000000000000000e+00" itree="23">
      <Node pos="s" depth="0" NCoef="0" IVar="0" Cut="7.3333334922790527e+00" cType="1" res="-1.1490252800285816e-03" rms="3.8380241394042969e-01" purity="5.0018161535263062e-01" nType="0">
        <Node pos="l" depth="1" NCoef="0" IVar="0" Cut="2.1428570747375488e+00" cType="1" res="2.1902324631810188e-02" rms="3.8214170932769775e-01" purity="5.5243557691574097e-01" nType="0">
          <Node pos="l" depth="2" NCoef="0" IVar="4" Cut="7.6020729541778564e-01" cType="1" res="-4.3371371924877167e-02" rms="3.9028948545455933e-01" purity="4.4635111093521118e-01" nType="0">
            <Node pos="l" depth="3" NCoef="0" IVar="-1" Cut="0.0000000000000000e+00" cType="1" res="1.4942716807126999e-02" rms="3.4503749012947083e-01" purity="7.3155409097671509e-01" nType="-99"/>
            <Node pos="r" depth="3" NCoef="0" IVar="-1" Cut="0.0000000000000000e+00" cType="1" res="-1.7006410285830498e-02" rms="3.9714863896369934e-01" purity="3.7543314695358276e-01" nType="-99"/>
          </Node>
          <Node pos="r" depth="2" NCoef="0" IVar="0" Cut="5.0952382087707520e+00" cType="1" res="5.2203461527824402e-02" rms="3.7445250153541565e-01" purity="6.0168170928955078e-01" nType="0">
            <Node pos="l" depth="3" NCoef="0" IVar="-1" Cut="0.0000000000000000e+00" cType="1" res="3.3382482826709747e-02" rms="3.3555442094802856e-01" purity="7.6162832975387573e-01" nType="-99"/>
            <Node pos="r" depth="3" NCoef="0" IVar="-1" Cut="0.0000000000000000e+00" cType="1" res="-2.3078778758645058e-03" rms="3.9298859238624573e-01" purity="4.7086259722709656e-01" nType="-99"/>
          </Node>
        </Node>
        <Node pos="r" depth="1" NCoef="0" IVar="1" Cut="1.4761904478073120e+00" cType="1" res="0.0000000000000000e+00" rms="0.0000000000000000e+00" purity="3.2469764351844788e-01" nType="0">
          <Node pos="l" depth="2" NCoef="0" IVar="11" Cut="1.8812734985351562e+02" cType="1" res="0.0000000000000000e+00" rms="0.0000000000000000e+00" purity="2.2202260792255402e-01" nType="0">
            <Node pos="l" depth="3" NCoef="0" IVar="-1" Cut="0.0000000000000000e+00" cType="1" res="-4.1176088154315948e-02" rms="3.7077587842941284e-01" purity="1.8600571155548096e-01" nType="-99"/>
            <Node pos="r" depth="3" NCoef="0" IVar="-1" Cut="0.0000000000000000e+00" cType="1" res="-2.1610273048281670e-02" rms="3.5045546293258667e-01" purity="2.4407553672790527e-01" nType="-99"/>
          </Node>
          <Node pos="r" depth="2" NCoef="0" IVar="8" Cut="2.9042663574218750e+02" cType="1" res="0.0000000000000000e+00" rms="0.0000000000000000e+00" purity="4.3978226184844971e-01" nType="0">
            <Node pos="l" depth="3" NCoef="0" IVar="-1" Cut="0.0000000000000000e+00" cType="1" res="2.7681367937475443e-03" rms="4.1277587413787842e-01" purity="5.8423429727554321e-01" nType="-99"/>
            <Node pos="r" depth="3" NCoef="0" IVar="-1" Cut="0.0000000000000000e+00" cType="1" res="-2.6932300999760628e-02" rms="3.6531525850296021e-01" purity="2.7650448679924011e-01" nType="-99"/>
          </Node>
        </Node>
      </Node>
    </BinaryTree>
    <BinaryTree type="DecisionTree" boostWeight="1.0000000000000000e+00" itree="24">
      <Node pos="s" depth="0" NCoef="0" IVar="5" Cut="9.9579597473144531e+01" cType="1" res="-1.6670064069330692e-03" rms="3.8156664371490479e-01" purity="4.9784502387046814e-01" nType="0">
        <Node pos="l" depth="1" NCoef="0" IVar="1" Cut="1.4761904478073120e+00" cType="1" res="1.4388475567102432e-02" rms="4.0421453118324280e-01" purity="5.7269740104675293e-01" nType="0">
          <Node pos="l" depth="2" NCoef="0" IVar="10" Cut="4.1807323455810547e+01" cType="1" res="-2.9801636934280396e-02" rms="4.2042160034179688e-01" purity="4.4695571064949036e-01" nType="0">
            <Node pos="l" depth="3" NCoef="0" IVar="-1" Cut="0.0000000000000000e+00" cType="1" res="-2.7013055980205536e-02" rms="4.0399232506752014e-01" purity="3.0600345134735107e-01" nType="-99"/>
            <Node pos="r" depth="3" NCoef="0" IVar="-1" Cut="0.0000000000000000e+00" cType="1" res="6.1972942203283310e-03" rms="4.2138519883155823e-01" purity="5.3988164663314819e-01" nType="-99"/>
          </Node>
          <Node pos="r" depth="2" NCoef="0" IVar="11" Cut="6.5246234130859375e+02" cType="1" res="5.4107666015625000e-02" rms="3.8476461172103882e-01" purity="6.8571716547012329e-01" nType="0">
            <Node pos="l" depth="3" NCoef="0" IVar="-1" Cut="0.0000000000000000e+00" cType="1" res="1.7031075432896614e-02" rms="3.8003638386726379e-01" purity="7.0476531982421875e-01" nType="-99"/>
            <Node pos="r" depth="3" NCoef="0" IVar="-1" Cut="0.0000000000000000e+00" cType="1" res="-3.2509945333003998e-02" rms="4.0585750341415405e-01" purity="3.9918807148933411e-01" nType="-99"/>
          </Node>
        </Node>
        <Node pos="r" depth="1" NCoef="0" IVar="2" Cut="1.8110535144805908e+00" cType="1" res="-1.0357039421796799e-01" rms="1.4359842240810394e-01" purity="2.2760730236768723e-02" nType="0">
          <Node pos="l" depth="2" NCoef="0" IVar="-1" Cut="0.0000000000000000e+00" cType="1" res="-5.2260261029005051e-02" rms="1.2724427878856659e-01" purity="1.7246717587113380e-02" nType="-99"/>
          <Node pos="r" depth="2" NCoef="0" IVar="7" Cut="1.3477906799316406e+02" cType="1" res="-9.2504329979419708e-02" rms="1.5127611160278320e-01" purity="2.5991655886173248e-02" nType="0">
            <Node pos="l" depth="3" NCoef="0" IVar="-1" Cut="0.0000000000000000e+00" cType="1" res="-3.5841044038534164e-02" rms="2.0800116658210754e-01" purity="5.1617700606584549e-02" nType="-99"/>
            <Node pos="r" depth="3" NCoef="0" IVar="-1" Cut="0.0000000000000000e+00" cType="1" res="-5.3149264305830002e-02" rms="8.5213877260684967e-02" purity="6.5751750953495502e-03" nType="-99"/>
          </Node>
        </Node>
      </Node>
    </BinaryTree>
    <BinaryTree type="DecisionTree" boostWeight="1.0000000000000000e+00" itree="25">
      <Node pos="s" depth="0" NCoef="0" IVar="3" Cut="1.3727416992187500e+00" cType="1" res="6.2852934934198856e-04" rms="3.8138613104820251e-01" purity="5.0146359205245972e-01" nType="0">
        <Node pos="l" depth="1" NCoef="0" IVar="1" Cut="2.2857143878936768e+00" cType="1" res="-1.0304705798625946e-01" rms="3.4169188141822815e-01" purity="1.9495454430580139e-01" nType="0">
          <Node pos="l" depth="2" NCoef="0" IVar="11" Cut="2.5719552612304688e+02" cType="1" res="-1.2161250412464142e-01" rms="3.2163366675376892e-01" purity="1.5706424415111542e-01" nType="0">
            <Node pos="l" depth="3" NCoef="0" IVar="-1" Cut="0.0000000000000000e+00" cType="1" res="-2.7077257633209229e-02" rms="3.4742099046707153e-01" purity="1.9818520545959473e-01" nType="-99"/>
            <Node pos="r" depth="3" NCoef="0" IVar="-1" Cut="0.0000000000000000e+00" cType="1" res="-4.6107660979032516e-02" rms="2.7717930078506470e-01" purity="9.7025990486145020e-02" nType="-99"/>
          </Node>
          <Node pos="r" depth="2" NCoef="0" IVar="-1" Cut="0.0000000000000000e+00" cType="1" res="-9.2511512339115143e-03" rms="3.9796954393386841e-01" purity="3.2932323217391968e-01" nType="-99"/>
        </Node>
        <Node pos="r" depth="1" NCoef="0" IVar="2" Cut="7.3180586099624634e-01" cType="1" res="1.4238119125366211e-02" rms="3.8422250747680664e-01" purity="5.4169934988021851e-01" nType="0">
          <Node pos="l" depth="2" NCoef="0" IVar="5" Cut="1.9684850692749023e+01" cType="1" res="7.1742914617061615e-02" rms="3.7365087866783142e-01" purity="7.3798960447311401e-01" nType="0">
            <Node pos="l" depth="3" NCoef="0" IVar="-1" Cut="0.0000000000000000e+00" cType="1" res="-4.7431802377104759e-03" rms="4.1950047016143799e-01" purity="6.1997240781784058e-01" nType="-99"/>
            <Node pos="r" depth="3" NCoef="0" IVar="-1" Cut="0.0000000000000000e+00" cType="1" res="2.7778794988989830e-02" rms="3.4886056184768677e-01" purity="7.8221863508224487e-01" nType="-99"/>
          </Node>
          <Node pos="r" depth="2" NCoef="0" IVar="10" Cut="7.2174339294433594e+01" cType="1" res="-1.1715610511600971e-02" rms="3.8610479235649109e-01" purity="4.5310735702514648e-01" nType="0">
            <Node pos="l" depth="3" NCoef="0" IVar="-1" Cut="0.0000000000000000e+00" cType="1" res="-1.0651912540197372e-02" rms="3.8906285166740417e-01" purity="3.8424116373062134e-01" nType="-99"/>
            <Node pos="r" depth="3" NCoef="0" IVar="-1" Cut="0.0000000000000000e+00" cType="1" res="1.1955472640693188e-02" rms="3.7379723787307739e-01" purity="5.8752530813217163e-01" nType="-99"/>
          </Node>
        </Node>
      </Node>
    </BinaryTree>
    <BinaryTree type="DecisionTree" boostWeight="1.0000000000000000e+00" itree="26">
      <Node pos="s" depth="0" NCoef="0" IVar="1" Cut="1.4761904478073120e+00" cType="1" res="-1.2522251345217228e-03" rms="3.7960326671600342e-01" purity="4.9937286972999573e-01" nType="0">
        <Node pos="l" depth="1" NCoef="0" IVar="8" Cut="1.3756320190429688e+02" cType="1" res="-4.0252525359392166e-02" rms="3.8833934068679810e-01" purity="3.7190225720405579e-01" nType="0">
          <Node pos="l" depth="2" NCoef="0" IVar="11" Cut="1.7529653930664062e+02" cType="1" res="2.0290920510888100e-02" rms="4.2912971973419189e-01" purity="5.7062339782714844e-01" nType="0">
            <Node pos="l" depth="3" NCoef="0" IVar="-1" Cut="0.0000000000000000e+00" cType="1" res="-2.1804541349411011e-02" rms="4.4205734133720398e-01" purity="3.6634245514869690e-01" nType="-99"/>
            <Node pos="r" depth="3" NCoef="0" IVar="-1" Cut="0.0000000000000000e+00" cType="1" res="2.8434336185455322e-02" rms="3.9032760262489319e-01" purity="7.4470078945159912e-01" nType="-99"/>
          </Node>
          <Node pos="r" depth="2" NCoef="0" IVar="0" Cut="2.3333332538604736e+00" cType="1" res="-9.2505432665348053e-02" rms="3.4078547358512878e-01" purity="2.0039311051368713e-01" nType="0">
            <Node pos="l" depth="3" NCoef="0" IVar="-1" Cut="0.0000000000000000e+00" cType="1" res="-3.9549537003040314e-02" rms="3.2858961820602417e-01" purity="1.5727321803569794e-01" nType="-99"/>
            <Node pos="r" depth="3" NCoef="0" IVar="-1" Cut="0.0000000000000000e+00" cType="1" res="-2.1931445226073265e-02" rms="3.4366592764854431e-01" purity="2.1615481376647949e-01" nType="-99"/>
          </Node>
        </Node>
        <Node pos="r" depth="1" NCoef="0" IVar="8" Cut="3.1571118164062500e+02" cType="1" res="3.5694688558578491e-02" rms="3.6733773350715637e-01" purity="6.2013208866119385e-01" nType="0">
          <Node pos="l" depth="2" NCoef="0" IVar="8" Cut="1.8862864685058594e+02" cType="1" res="7.4114061892032623e-02" rms="3.5914468765258789e-01" purity="7.3114019632339478e-01" nType="0">
            <Node pos="l" depth="3" NCoef="0" IVar="-1" Cut="0.0000000000000000e+00" cType="1" res="3.5067159682512283e-02" rms="3.1103700399398804e-01" purity="8.5050201416015625e-01" nType="-99"/>
            <Node pos="r" depth="3" NCoef="0" IVar="-1" Cut="0.0000000000000000e+00" cType="1" res="9.2725381255149841e-03" rms="3.8903397321701050e-01" purity="6.3617080450057983e-01" nType="-99"/>
          </Node>
          <Node pos="r" depth="2" NCoef="0" IVar="4" Cut="8.4220200777053833e-01" cType="1" res="-2.7915704995393753e-02" rms="3.7188935279846191e-01" purity="4.3633744120597839e-01" nType="0">
            <Node pos="l" depth="3" NCoef="0" IVar="-1" Cut="0.0000000000000000e+00" cType="1" res="1.8324241042137146e-02" rms="3.2557651400566101e-01" purity="7.5791001319885254e-01" nType="-99"/>
            <Node pos="r" depth="3" NCoef="0" IVar="-1" Cut="0.0000000000000000e+00" cType="1" res="-1.3017256744205952e-02" rms="3.7915250658988953e-01" purity="3.5875064134597778e-01" nType="-99"/>
          </Node>
        </Node>
      </Node>
    </BinaryTree>
    <BinaryTree type="DecisionTree" boostWeight="1.0000000000000000e+00" itree="27">
      <Node pos="s" depth="0" NCoef="0" IVar="5" Cut="1.0136574554443359e+02" cType="1" res="3.1273491913452744e-04" rms="3.7785309553146362e-01" purity="5.0106346607208252e-01" nType="0">
        <Node pos="l" depth="1" NCoef="0" IVar="4" Cut="2.0071921348571777e+00" cType="1" res="1.3699180446565151e-02" rms="4.0014234185218811e-01" purity="5.7460814714431763e-01" nType="0">
          <Node pos="l" depth="2" NCoef="0" IVar="1" Cut="1.4285714626312256e+00" cType="1" res="3.5728864371776581e-02" rms="3.9116165041923523e-01" purity="6.5297073125839233e-01" nType="0">
            <Node pos="l" depth="3" NCoef="0" IVar="-1" Cut="0.0000000000000000e+00" cType="1" res="-1.5718326903879642e-03" rms="4.2319241166114807e-01" purity="5.1202809810638428e-01" nType="-99"/>
            <Node pos="r" depth="3" NCoef="0" IVar="-1" Cut="0.0000000000000000e+00" cType="1" res="2.0138757303357124e-02" rms="3.5703581571578979e-01" purity="7.7513629198074341e-01" nType="-99"/>
          </Node>
          <Node pos="r" depth="2" NCoef="0" IVar="12" Cut="5.0500801086425781e+01" cType="1" res="-5.0436720252037048e-02" rms="4.1866087913513184e-01" purity="3.4646812081336975e-01" nType="0">
            <Node pos="l" depth="3" NCoef="0" IVar="-1" Cut="0.0000000000000000e+00" cType="1" res="9.4658421585336328e-04" rms="4.4911393523216248e-01" purity="4.8614263534545898e-01" nType="-99"/>
            <Node pos="r" depth="3" NCoef="0" IVar="-1" Cut="0.0000000000000000e+00" cType="1" res="-2.2277111187577248e-02" rms="3.8958248496055603e-01" purity="2.4277198314666748e-01" nType="-99"/>
          </Node>
        </Node>
        <Node pos="r" depth="1" NCoef="0" IVar="2" Cut="2.0164234638214111e+00" cType="1" res="-8.6698740720748901e-02" rms="1.4601939916610718e-01" purity="2.3025119677186012e-02" nType="0">
          <Node pos="l" depth="2" NCoef="0" IVar="1" Cut="1.4761904478073120e+00" cType="1" res="-1.0417249053716660e-01" rms="1.1853535473346710e-01" purity="1.3795709237456322e-02" nType="0">
            <Node pos="l" depth="3" NCoef="0" IVar="-1" Cut="0.0000000000000000e+00" cType="1" res="-5.1441181451082230e-02" rms="9.1229498386383057e-02" purity="8.1857889890670776e-03" nType="-99"/>
            <Node pos="r" depth="3" NCoef="0" IVar="-1" Cut="0.0000000000000000e+00" cType="1" res="-5.0660327076911926e-02" rms="1.3931077718734741e-01" purity="1.9349288195371628e-02" nType="-99"/>
          </Node>
          <Node pos="r" depth="2" NCoef="0" IVar="9" Cut="2.4621588134765625e+02" cType="1" res="-7.1256808936595917e-02" rms="1.6504228115081787e-01" purity="3.1181350350379944e-02" nType="0">
            <Node pos="l" depth="3" NCoef="0" IVar="-1" Cut="0.0000000000000000e+00" cType="1" res="-2.6517722755670547e-02" rms="2.2560609877109528e-01" purity="6.0672149062156677e-02" nType="-99"/>
            <Node pos="r" depth="3" NCoef="0" IVar="-1" Cut="0.0000000000000000e+00" cType="1" res="-5.3078394383192062e-02" rms="7.1239948272705078e-02" purity="4.3415953405201435e-03" nType="-99"/>
          </Node>
        </Node>
      </Node>
    </BinaryTree>
    <BinaryTree type="DecisionTree" boostWeight="1.0000000000000000e+00" itree="28">
      <Node pos="s" depth="0" NCoef="0" IVar="0" Cut="6.3333334922790527e+00" cType="1" res="2.3267080541700125e-04" rms="3.7790873646736145e-01" purity="4.9960288405418396e-01" nType="0">
        <Node pos="l" depth="1" NCoef="0" IVar="0" Cut="3.1428570747375488e+00" cType="1" res="3.0217640101909637e-02" rms="3.7187290191650391e-01" purity="5.7870399951934814e-01" nType="0">
          <Node pos="l" depth="2" NCoef="0" IVar="10" Cut="6.6612533569335938e+01" cType="1" res="-2.4698220193386078e-02" rms="3.8872048258781433e-01" purity="4.6842241287231445e-01" nType="0">
            <Node pos="l" depth="3" NCoef="0" IVar="-1" Cut="0.0000000000000000e+00" cType="1" res="-1.6480637714266777e-02" rms="3.9107275009155273e-01" purity="3.8235172629356384e-01" nType="-99"/>
            <Node pos="r" depth="3" NCoef="0" IVar="-1" Cut="0.0000000000000000e+00" cType="1" res="9.0762823820114136e-03" rms="3.7772658467292786e-01" purity="6.0169225931167603e-01" nType="-99"/>
          </Node>
          <Node pos="r" depth="2" NCoef="0" IVar="0" Cut="5.0476188659667969e+00" cType="1" res="1.0131258517503738e-01" rms="3.3576977252960205e-01" purity="7.2147631645202637e-01" nType="0">
            <Node pos="l" depth="3" NCoef="0" IVar="-1" Cut="0.0000000000000000e+00" cType="1" res="5.2712962031364441e-02" rms="2.5673517584800720e-01" purity="9.1473108530044556e-01" nType="-99"/>
            <Node pos="r" depth="3" NCoef="0" IVar="-1" Cut="0.0000000000000000e+00" cType="1" res="1.1447491124272346e-03" rms="3.8764306902885437e-01" purity="4.9479576945304871e-01" nType="-99"/>
          </Node>
        </Node>
        <Node pos="r" depth="1" NCoef="0" IVar="1" Cut="2.4285714626312256e+00" cType="1" res="-4.4265583157539368e-02" rms="3.8238286972045898e-01" purity="3.8221538066864014e-01" nType="0">
          <Node pos="l" depth="2" NCoef="0" IVar="12" Cut="6.2233581542968750e+01" cType="1" res="-6.0828704386949539e-02" rms="3.7829101085662842e-01" purity="3.3861750364303589e-01" nType="0">
            <Node pos="l" depth="3" NCoef="0" IVar="-1" Cut="0.0000000000000000e+00" cType="1" res="-6.0170367360115051e-03" rms="4.3107160925865173e-01" purity="5.0824171304702759e-01" nType="-99"/>
            <Node pos="r" depth="3" NCoef="0" IVar="-1" Cut="0.0000000000000000e+00" cType="1" res="-2.7875799685716629e-02" rms="3.2639816403388977e-01" purity="2.0051455497741699e-01" nType="-99"/>
          </Node>
          <Node pos="r" depth="2" NCoef="0" IVar="8" Cut="3.3299185180664062e+02" cType="1" res="1.7590109258890152e-02" rms="3.9113944768905640e-01" purity="5.4503357410430908e-01" nType="0">
            <Node pos="l" depth="3" NCoef="0" IVar="-1" Cut="0.0000000000000000e+00" cType="1" res="1.9965089857578278e-02" rms="3.8209462165832520e-01" purity="7.0823252201080322e-01" nType="-99"/>
            <Node pos="r" depth="3" NCoef="0" IVar="-1" Cut="0.0000000000000000e+00" cType="1" res="-1.3979368843138218e-02" rms="3.8990575075149536e-01" purity="3.5578435659408569e-01" nType="-99"/>
          </Node>
        </Node>
      </Node>
    </BinaryTree>
    <BinaryTree type="DecisionTree" boostWeight="1.0000000000000000e+00" itree="29">
      <Node pos="s" depth="0" NCoef="0" IVar="3" Cut="1.6093611717224121e+00" cType="1" res="3.2055310439318419e-03" rms="3.7378543615341187e-01" purity="5.0361478328704834e-01" nType="0">
        <Node pos="l" depth="1" NCoef="0" IVar="3" Cut="1.0732533931732178e+00" cType="1" res="-7.2392232716083527e-02" rms="3.4787118434906006e-01" purity="2.2067004442214966e-01" nType="0">
          <Node pos="l" depth="2" NCoef="0" IVar="2" Cut="1.6264237165451050e+00" cType="1" res="-1.0150857269763947e-01" rms="3.3141800761222839e-01" purity="1.7820379137992859e-01" nType="0">
            <Node pos="l" depth="3" NCoef="0" IVar="-1" Cut="0.0000000000000000e+00" cType="1" res="-2.9522109776735306e-02" rms="3.6822381615638733e-01" purity="2.2106154263019562e-01" nType="-99"/>
            <Node pos="r" depth="3" NCoef="0" IVar="-1" Cut="0.0000000000000000e+00" cType="1" res="-2.8284782543778419e-02" rms="2.7558431029319763e-01" purity="1.2332981824874878e-01" nType="-99"/>
          </Node>
          <Node pos="r" depth="2" NCoef="0" IVar="6" Cut="5.8911727905273438e+01" cType="1" res="-4.9135036766529083e-02" rms="3.5878083109855652e-01" purity="2.5459069013595581e-01" nType="0">
            <Node pos="l" depth="3" NCoef="0" IVar="-1" Cut="0.0000000000000000e+00" cType="1" res="-2.8429420199245214e-03" rms="3.9950135350227356e-01" purity="3.4266278147697449e-01" nType="-99"/>
            <Node pos="r" depth="3" NCoef="0" IVar="-1" Cut="0.0000000000000000e+00" cType="1" res="-3.0124938115477562e-02" rms="2.9830989241600037e-01" purity="1.5169718861579895e-01" nType="-99"/>
          </Node>
        </Node>
        <Node pos="r" depth="1" NCoef="0" IVar="2" Cut="1.1374028921127319e+00" cType="1" res="1.7368109896779060e-02" rms="3.7675964832305908e-01" purity="5.5662196874618530e-01" nType="0">
          <Node pos="l" depth="2" NCoef="0" IVar="5" Cut="5.4677837371826172e+01" cType="1" res="4.8697710037231445e-02" rms="3.7757602334022522e-01" purity="7.0218557119369507e-01" nType="0">
            <Node pos="l" depth="3" NCoef="0" IVar="-1" Cut="0.0000000000000000e+00" cType="1" res="1.6623185947537422e-02" rms="3.7661525607109070e-01" purity="7.4458843469619751e-01" nType="-99"/>
            <Node pos="r" depth="3" NCoef="0" IVar="-1" Cut="0.0000000000000000e+00" cType="1" res="-6.9850892759859562e-03" rms="3.7360072135925293e-01" purity="4.8697477579116821e-01" nType="-99"/>
          </Node>
          <Node pos="r" depth="2" NCoef="0" IVar="9" Cut="3.0572808837890625e+02" cType="1" res="-2.1614992991089821e-02" rms="3.7207600474357605e-01" purity="3.7549865245819092e-01" nType="0">
            <Node pos="l" depth="3" NCoef="0" IVar="-1" Cut="0.0000000000000000e+00" cType="1" res="-2.3439142387360334e-03" rms="3.9097806811332703e-01" purity="4.2319643497467041e-01" nType="-99"/>
            <Node pos="r" depth="3" NCoef="0" IVar="-1" Cut="0.0000000000000000e+00" cType="1" res="-4.4718898832798004e-02" rms="1.9718183577060699e-01" purity="7.1424767374992371e-02" nType="-99"/>
          </Node>
        </Node>
      </Node>
    </BinaryTree>
    <BinaryTree type="DecisionTree" boostWeight="1.0000000000000000e+00" itree="30">
      <Node pos="s" depth="0" NCoef="0" IVar="4" Cut="7.5866490602493286e-01" cType="1" res="3.6164614721201360e-04" rms="3.7438100576400757e-01" purity="5.0026881694793701e-01" nType="0">
        <Node pos="l" depth="1" NCoef="0" IVar="5" Cut="7.1692916870117188e+01" cType="1" res="6.1156723648309708e-02" rms="3.1654086709022522e-01" purity="7.6554495096206665e-01" nType="0">
          <Node pos="l" depth="2" NCoef="0" IVar="9" Cut="1.4405163574218750e+02" cType="1" res="8.0351427197456360e-02" rms="3.0828779935836792e-01" purity="8.5029256343841553e-01" nType="0">
            <Node pos="l" depth="3" NCoef="0" IVar="-1" Cut="0.0000000000000000e+00" cType="1" res="6.7709884606301785e-03" rms="3.6555156111717224e-01" purity="7.5125253200531006e-01" nType="-99"/>
            <Node pos="r" depth="3" NCoef="0" IVar="-1" Cut="0.0000000000000000e+00" cType="1" res="3.4095983952283859e-02" rms="2.7499285340309143e-01" purity="8.9476561546325684e-01" nType="-99"/>
          </Node>
          <Node pos="r" depth="2" NCoef="0" IVar="-1" Cut="0.0000000000000000e+00" cType="1" res="-1.4553983695805073e-02" rms="3.3994504809379578e-01" purity="2.7619320154190063e-01" nType="-99"/>
        </Node>
        <Node pos="r" depth="1" NCoef="0" IVar="0" Cut="6.3333334922790527e+00" cType="1" res="-1.5725994482636452e-02" rms="3.8665142655372620e-01" purity="4.3007126450538635e-01" nType="0">
          <Node pos="l" depth="2" NCoef="0" IVar="0" Cut="3.1428570747375488e+00" cType="1" res="1.0332274250686169e-02" rms="3.8582268357276917e-01" purity="5.0736010074615479e-01" nType="0">
            <Node pos="l" depth="3" NCoef="0" IVar="-1" Cut="0.0000000000000000e+00" cType="1" res="-1.0936212725937366e-02" rms="3.9484199881553650e-01" purity="3.9802962541580200e-01" nType="-99"/>
            <Node pos="r" depth="3" NCoef="0" IVar="-1" Cut="0.0000000000000000e+00" cType="1" res="2.1776959300041199e-02" rms="3.6080619692802429e-01" purity="6.5896427631378174e-01" nType="-99"/>
          </Node>
