<?xml version="1.0"?>
<MethodSetup Method="BDT::BDTG_fold5">
  <GeneralInfo>
    <Info name="TMVA Release" value="4.2.1 [262657]"/>
    <Info name="ROOT Release" value="6.20/00 [398336]"/>
    <Info name="Creator" value="zhangyulei"/>
    <Info name="Date" value="Sun May 15 00:01:56 2022"/>
    <Info name="Host" value="Linux lcgapp-centos7-x86-64-31.cern.ch-docker 3.10.0-1062.9.1.el7.x86_64 #1 SMP Fri Dec 6 15:49:49 UTC 2019 x86_64 x86_64 x86_64 GNU/Linux"/>
    <Info name="Dir" value="/lustre/collider/zhangyulei/ATLAS/hhml/workspace/Multi_Variate_Analysis"/>
    <Info name="Training events" value="743055"/>
    <Info name="TrainingTime" value="4.90802982e+02"/>
    <Info name="AnalysisType" value="Classification"/>
  </GeneralInfo>
  <Options>
    <Option name="V" modified="Yes">False</Option>
    <Option name="VerbosityLevel" modified="No">Default</Option>
    <Option name="VarTransform" modified="No">None</Option>
    <Option name="H" modified="Yes">False</Option>
    <Option name="CreateMVAPdfs" modified="No">False</Option>
    <Option name="IgnoreNegWeightsInTraining" modified="Yes">True</Option>
    <Option name="NTrees" modified="Yes">1000</Option>
    <Option name="MaxDepth" modified="Yes">2</Option>
    <Option name="MinNodeSize" modified="Yes">2.5%</Option>
    <Option name="nCuts" modified="Yes">20</Option>
    <Option name="BoostType" modified="Yes">Grad</Option>
    <Option name="AdaBoostR2Loss" modified="No">quadratic</Option>
    <Option name="UseBaggedBoost" modified="Yes">True</Option>
    <Option name="Shrinkage" modified="Yes">1.000000e-01</Option>
    <Option name="AdaBoostBeta" modified="No">5.000000e-01</Option>
    <Option name="UseRandomisedTrees" modified="No">False</Option>
    <Option name="UseNvars" modified="No">4</Option>
    <Option name="UsePoissonNvars" modified="No">True</Option>
    <Option name="BaggedSampleFraction" modified="Yes">5.000000e-01</Option>
    <Option name="UseYesNoLeaf" modified="No">True</Option>
    <Option name="NegWeightTreatment" modified="No">pray</Option>
    <Option name="Css" modified="No">1.000000e+00</Option>
    <Option name="Cts_sb" modified="No">1.000000e+00</Option>
    <Option name="Ctb_ss" modified="No">1.000000e+00</Option>
    <Option name="Cbb" modified="No">1.000000e+00</Option>
    <Option name="NodePurityLimit" modified="No">5.000000e-01</Option>
    <Option name="SeparationType" modified="No">giniindex</Option>
    <Option name="RegressionLossFunctionBDTG" modified="No">huber</Option>
    <Option name="HuberQuantile" modified="No">7.000000e-01</Option>
    <Option name="DoBoostMonitor" modified="No">False</Option>
    <Option name="UseFisherCuts" modified="No">False</Option>
    <Option name="MinLinCorrForFisher" modified="No">8.000000e-01</Option>
    <Option name="UseExclusiveVars" modified="No">False</Option>
    <Option name="DoPreselection" modified="No">False</Option>
    <Option name="SigToBkgFraction" modified="No">1.000000e+00</Option>
    <Option name="PruneMethod" modified="No">nopruning</Option>
    <Option name="PruneStrength" modified="No">0.000000e+00</Option>
    <Option name="PruningValFraction" modified="No">5.000000e-01</Option>
    <Option name="SkipNormalization" modified="No">False</Option>
    <Option name="nEventsMin" modified="No">0</Option>
    <Option name="UseBaggedGrad" modified="No">False</Option>
    <Option name="GradBaggingFraction" modified="No">5.000000e-01</Option>
    <Option name="UseNTrainEvents" modified="No">0</Option>
    <Option name="NNodesMax" modified="No">0</Option>
  </Options>
  <Variables NVar="13">
    <Variable VarIndex="0" Expression="FlavorCategory" Label="FlavorCategory" Title="FlavorCategory" Unit="" Internal="FlavorCategory" Type="F" Min="1.00000000e+00" Max="8.00000000e+00"/>
    <Variable VarIndex="1" Expression="nJets" Label="nJets" Title="nJets" Unit="" Internal="nJets" Type="F" Min="1.00000000e+00" Max="1.20000000e+01"/>
    <Variable VarIndex="2" Expression="dR_l1l2" Label="dR_l1l2" Title="dR_l1l2" Unit="" Internal="dR_l1l2" Type="F" Min="4.65241726e-04" Max="5.03746939e+00"/>
    <Variable VarIndex="3" Expression="dR_l2l3" Label="dR_l2l3" Title="dR_l2l3" Unit="" Internal="dR_l2l3" Type="F" Min="0.00000000e+00" Max="5.86758041e+00"/>
    <Variable VarIndex="4" Expression="dR_l3j" Label="dR_l3j" Title="dR_l3j" Unit="" Internal="dR_l3j" Type="F" Min="9.54862591e-03" Max="5.30726480e+00"/>
    <Variable VarIndex="5" Expression="m_l1l2" Label="m_l1l2" Title="m_l1l2" Unit="" Internal="m_l1l2" Type="F" Min="-1.80649489e-01" Max="3.63314478e+03"/>
    <Variable VarIndex="6" Expression="m_l2l3" Label="m_l2l3" Title="m_l2l3" Unit="" Internal="m_l2l3" Type="F" Min="-3.56377095e-01" Max="9.59795605e+03"/>
    <Variable VarIndex="7" Expression="m_l1l3" Label="m_l1l3" Title="m_l1l3" Unit="" Internal="m_l1l3" Type="F" Min="6.70721245e+00" Max="5.36872607e+03"/>
    <Variable VarIndex="8" Expression="m_llljj" Label="m_llljj" Title="m_llljj" Unit="" Internal="m_llljj" Type="F" Min="2.05772896e+01" Max="6.34409912e+03"/>
    <Variable VarIndex="9" Expression="m_lll" Label="m_lll" Title="m_lll" Unit="" Internal="m_lll" Type="F" Min="1.58683691e+01" Max="9.61938965e+03"/>
    <Variable VarIndex="10" Expression="MET_ET" Label="MET_ET" Title="MET_ET" Unit="" Internal="MET_ET" Type="F" Min="3.29764448e-02" Max="4.67737617e+04"/>
    <Variable VarIndex="11" Expression="HT" Label="HT" Title="HT" Unit="" Internal="HT" Type="F" Min="6.97460251e+01" Max="4.79910000e+04"/>
    <Variable VarIndex="12" Expression="best_Z_Mll" Label="best_Z_Mll" Title="best_Z_Mll" Unit="" Internal="best_Z_Mll" Type="F" Min="0.00000000e+00" Max="5.36872559e+03"/>
  </Variables>
  <Spectators NSpec="1">
    <Spectator SpecIndex="0" Expression="EvtNum" Label="EvtNum" Title="EvtNum" Unit="" Internal="EvtNum" Type="F" Min="2.00000000e+00" Max="6.87070208e+08"/>
  </Spectators>
  <Classes NClass="2">
    <Class Name="Signal" Index="0"/>
    <Class Name="Background" Index="1"/>
  </Classes>
  <Transformations NTransformations="0"/>
  <MVAPdfs/>
  <Weights NTrees="1000" AnalysisType="1">
    <BinaryTree type="DecisionTree" boostWeight="1.0000000000000000e+00" itree="0">
      <Node pos="s" depth="0" NCoef="0" IVar="5" Cut="8.7775123596191406e+01" cType="1" res="-1.7392704030498862e-03" rms="4.9999696016311646e-01" purity="4.9826073646545410e-01" nType="0">
        <Node pos="l" depth="1" NCoef="0" IVar="4" Cut="1.2832881212234497e+00" cType="1" res="7.3951788246631622e-02" rms="4.9450090527534485e-01" purity="5.7395178079605103e-01" nType="0">
          <Node pos="l" depth="2" NCoef="0" IVar="-1" Cut="0.0000000000000000e+00" cType="1" res="4.8565823584794998e-02" rms="4.3707439303398132e-01" purity="7.4282908439636230e-01" nType="-99"/>
          <Node pos="r" depth="2" NCoef="0" IVar="-1" Cut="0.0000000000000000e+00" cType="1" res="-1.7716497182846069e-02" rms="4.9209058284759521e-01" purity="4.1141751408576965e-01" nType="-99"/>
        </Node>
        <Node pos="r" depth="1" NCoef="0" IVar="0" Cut="6.3333334922790527e+00" cType="1" res="-4.5597472786903381e-01" rms="2.0515128970146179e-01" purity="4.4025275856256485e-02" nType="0">
          <Node pos="l" depth="2" NCoef="0" IVar="-1" Cut="0.0000000000000000e+00" cType="1" res="-8.6174383759498596e-02" rms="2.5367182493209839e-01" purity="6.9128088653087616e-02" nType="-99"/>
          <Node pos="r" depth="2" NCoef="0" IVar="-1" Cut="0.0000000000000000e+00" cType="1" res="-9.7461588680744171e-02" rms="1.1194182187318802e-01" purity="1.2692058458924294e-02" nType="-99"/>
        </Node>
      </Node>
    </BinaryTree>
    <BinaryTree type="DecisionTree" boostWeight="1.0000000000000000e+00" itree="1">
      <Node pos="s" depth="0" NCoef="0" IVar="2" Cut="1.6024645566940308e+00" cType="1" res="4.3210759758949280e-03" rms="4.8882877826690674e-01" purity="5.0413537025451660e-01" nType="0">
        <Node pos="l" depth="1" NCoef="0" IVar="4" Cut="1.2447643280029297e+00" cType="1" res="1.0437506437301636e-01" rms="4.7965818643569946e-01" purity="6.0988783836364746e-01" nType="0">
          <Node pos="l" depth="2" NCoef="0" IVar="-1" Cut="0.0000000000000000e+00" cType="1" res="5.1534146070480347e-02" rms="4.1110813617706299e-01" purity="7.7864754199981689e-01" nType="-99"/>
          <Node pos="r" depth="2" NCoef="0" IVar="-1" Cut="0.0000000000000000e+00" cType="1" res="-9.0436534956097603e-03" rms="4.9468162655830383e-01" purity="4.4453203678131104e-01" nType="-99"/>
        </Node>
        <Node pos="r" depth="1" NCoef="0" IVar="1" Cut="1.5238095521926880e+00" cType="1" res="-2.5111556053161621e-01" rms="4.1330721974372864e-01" purity="2.3415061831474304e-01" nType="0">
          <Node pos="l" depth="2" NCoef="0" IVar="-1" Cut="0.0000000000000000e+00" cType="1" res="-6.4898751676082611e-02" rms="3.5936808586120605e-01" purity="1.6072563827037811e-01" nType="-99"/>
          <Node pos="r" depth="2" NCoef="0" IVar="-1" Cut="0.0000000000000000e+00" cType="1" res="-2.7933849021792412e-02" rms="4.6353885531425476e-01" purity="3.4805673360824585e-01" nType="-99"/>
        </Node>
      </Node>
    </BinaryTree>
    <BinaryTree type="DecisionTree" boostWeight="1.0000000000000000e+00" itree="2">
      <Node pos="s" depth="0" NCoef="0" IVar="5" Cut="8.9272926330566406e+01" cType="1" res="1.0260302806273103e-03" rms="4.8048770427703857e-01" purity="5.0156015157699585e-01" nType="0">
        <Node pos="l" depth="1" NCoef="0" IVar="4" Cut="1.5289092063903809e+00" cType="1" res="6.3757605850696564e-02" rms="4.8195776343345642e-01" purity="5.7428127527236938e-01" nType="0">
          <Node pos="l" depth="2" NCoef="0" IVar="-1" Cut="0.0000000000000000e+00" cType="1" res="3.6197986453771591e-02" rms="4.4563674926757812e-01" purity="7.1146613359451294e-01" nType="-99"/>
          <Node pos="r" depth="2" NCoef="0" IVar="-1" Cut="0.0000000000000000e+00" cType="1" res="-1.9569480791687965e-02" rms="4.8417493700981140e-01" purity="3.8326495885848999e-01" nType="-99"/>
        </Node>
        <Node pos="r" depth="1" NCoef="0" IVar="0" Cut="6.3333334922790527e+00" cType="1" res="-3.9477321505546570e-01" rms="2.0113532245159149e-01" purity="4.2732711881399155e-02" nType="0">
          <Node pos="l" depth="2" NCoef="0" IVar="-1" Cut="0.0000000000000000e+00" cType="1" res="-7.6093375682830811e-02" rms="2.4527263641357422e-01" purity="6.5152317285537720e-02" nType="-99"/>
          <Node pos="r" depth="2" NCoef="0" IVar="-1" Cut="0.0000000000000000e+00" cType="1" res="-8.5854910314083099e-02" rms="1.1544229835271835e-01" purity="1.3288912363350391e-02" nType="-99"/>
        </Node>
      </Node>
    </BinaryTree>
    <BinaryTree type="DecisionTree" boostWeight="1.0000000000000000e+00" itree="3">
      <Node pos="s" depth="0" NCoef="0" IVar="2" Cut="1.6026378870010376e+00" cType="1" res="-1.9815284758806229e-04" rms="4.7173565626144409e-01" purity="4.9977633357048035e-01" nType="0">
        <Node pos="l" depth="1" NCoef="0" IVar="4" Cut="1.0274635553359985e+00" cType="1" res="8.7487354874610901e-02" rms="4.7007343173027039e-01" purity="6.0879141092300415e-01" nType="0">
          <Node pos="l" depth="2" NCoef="0" IVar="-1" Cut="0.0000000000000000e+00" cType="1" res="4.9349825829267502e-02" rms="3.8875633478164673e-01" purity="8.0582576990127563e-01" nType="-99"/>
          <Node pos="r" depth="2" NCoef="0" IVar="-1" Cut="0.0000000000000000e+00" cType="1" res="-2.6023786049336195e-03" rms="4.9056738615036011e-01" purity="4.8095113039016724e-01" nType="-99"/>
        </Node>
        <Node pos="r" depth="1" NCoef="0" IVar="1" Cut="1.5238095521926880e+00" cType="1" res="-2.2010524570941925e-01" rms="3.9852085709571838e-01" purity="2.2637654840946198e-01" nType="0">
          <Node pos="l" depth="2" NCoef="0" IVar="-1" Cut="0.0000000000000000e+00" cType="1" res="-5.9384804219007492e-02" rms="3.4193378686904907e-01" purity="1.4810149371623993e-01" nType="-99"/>
          <Node pos="r" depth="2" NCoef="0" IVar="-1" Cut="0.0000000000000000e+00" cType="1" res="-2.1778430789709091e-02" rms="4.5420518517494202e-01" purity="3.5358989238739014e-01" nType="-99"/>
        </Node>
      </Node>
    </BinaryTree>
    <BinaryTree type="DecisionTree" boostWeight="1.0000000000000000e+00" itree="4">
      <Node pos="s" depth="0" NCoef="0" IVar="5" Cut="1.0219570159912109e+02" cType="1" res="-8.1897195195779204e-04" rms="4.6592441201210022e-01" purity="4.9919086694717407e-01" nType="0">
        <Node pos="l" depth="1" NCoef="0" IVar="5" Cut="6.9744789123535156e+01" cType="1" res="5.1188949495553970e-02" rms="4.7337079048156738e-01" purity="5.6844675540924072e-01" nType="0">
          <Node pos="l" depth="2" NCoef="0" IVar="-1" Cut="0.0000000000000000e+00" cType="1" res="2.0697947591543198e-02" rms="4.6508756279945374e-01" purity="6.2626767158508301e-01" nType="-99"/>
          <Node pos="r" depth="2" NCoef="0" IVar="-1" Cut="0.0000000000000000e+00" cType="1" res="-4.6712856739759445e-02" rms="4.1738179326057434e-01" purity="2.4831348657608032e-01" nType="-99"/>
        </Node>
        <Node pos="r" depth="1" NCoef="0" IVar="2" Cut="1.5624096393585205e+00" cType="1" res="-3.5971251130104065e-01" rms="1.4611442387104034e-01" purity="2.1273739635944366e-02" nType="0">
          <Node pos="l" depth="2" NCoef="0" IVar="-1" Cut="0.0000000000000000e+00" cType="1" res="-8.4277153015136719e-02" rms="1.1647322028875351e-01" purity="1.3909474015235901e-02" nType="-99"/>
          <Node pos="r" depth="2" NCoef="0" IVar="-1" Cut="0.0000000000000000e+00" cType="1" res="-7.4336446821689606e-02" rms="1.5026196837425232e-01" purity="2.3312164470553398e-02" nType="-99"/>
        </Node>
      </Node>
    </BinaryTree>
    <BinaryTree type="DecisionTree" boostWeight="1.0000000000000000e+00" itree="5">
      <Node pos="s" depth="0" NCoef="0" IVar="5" Cut="9.8749885559082031e+01" cType="1" res="7.0163805503398180e-04" rms="4.5959714055061340e-01" purity="5.0156217813491821e-01" nType="0">
        <Node pos="l" depth="1" NCoef="0" IVar="4" Cut="1.2777327299118042e+00" cType="1" res="4.9058482050895691e-02" rms="4.7006845474243164e-01" purity="5.7274132966995239e-01" nType="0">
          <Node pos="l" depth="2" NCoef="0" IVar="-1" Cut="0.0000000000000000e+00" cType="1" res="3.4677479416131973e-02" rms="4.2407411336898804e-01" purity="7.4433147907257080e-01" nType="-99"/>
          <Node pos="r" depth="2" NCoef="0" IVar="-1" Cut="0.0000000000000000e+00" cType="1" res="-1.2936202809214592e-02" rms="4.8351550102233887e-01" purity="4.0940779447555542e-01" nType="-99"/>
        </Node>
        <Node pos="r" depth="1" NCoef="0" IVar="11" Cut="3.2059732055664062e+02" cType="1" res="-3.2108184695243835e-01" rms="1.6536504030227661e-01" purity="2.7911305427551270e-02" nType="0">
          <Node pos="l" depth="2" NCoef="0" IVar="-1" Cut="0.0000000000000000e+00" cType="1" res="-6.6750384867191315e-02" rms="1.9023331999778748e-01" purity="3.8224786520004272e-02" nType="-99"/>
          <Node pos="r" depth="2" NCoef="0" IVar="-1" Cut="0.0000000000000000e+00" cType="1" res="-7.4426792562007904e-02" rms="1.3695620000362396e-01" purity="1.9007399678230286e-02" nType="-99"/>
        </Node>
      </Node>
    </BinaryTree>
    <BinaryTree type="DecisionTree" boostWeight="1.0000000000000000e+00" itree="6">
      <Node pos="s" depth="0" NCoef="0" IVar="2" Cut="1.4013687372207642e+00" cType="1" res="-2.2757893893867731e-03" rms="4.5384559035301208e-01" purity="4.9935951828956604e-01" nType="0">
        <Node pos="l" depth="1" NCoef="0" IVar="3" Cut="1.8584275245666504e+00" cType="1" res="8.2032129168510437e-02" rms="4.5665395259857178e-01" purity="6.2508678436279297e-01" nType="0">
          <Node pos="l" depth="2" NCoef="0" IVar="-1" Cut="0.0000000000000000e+00" cType="1" res="-3.3073019236326218e-02" rms="4.5798644423484802e-01" purity="3.4404832124710083e-01" nType="-99"/>
          <Node pos="r" depth="2" NCoef="0" IVar="-1" Cut="0.0000000000000000e+00" cType="1" res="2.6743499562144279e-02" rms="4.4096645712852478e-01" purity="6.7969834804534912e-01" nType="-99"/>
        </Node>
        <Node pos="r" depth="1" NCoef="0" IVar="1" Cut="1.4761904478073120e+00" cType="1" res="-1.5460640192031860e-01" rms="4.0658140182495117e-01" purity="2.7219086885452271e-01" nType="0">
          <Node pos="l" depth="2" NCoef="0" IVar="-1" Cut="0.0000000000000000e+00" cType="1" res="-4.7852635383605957e-02" rms="3.6280083656311035e-01" purity="1.8638291954994202e-01" nType="-99"/>
          <Node pos="r" depth="2" NCoef="0" IVar="-1" Cut="0.0000000000000000e+00" cType="1" res="-1.1670955456793308e-02" rms="4.4390663504600525e-01" purity="3.9525547623634338e-01" nType="-99"/>
        </Node>
      </Node>
    </BinaryTree>
    <BinaryTree type="DecisionTree" boostWeight="1.0000000000000000e+00" itree="7">
      <Node pos="s" depth="0" NCoef="0" IVar="5" Cut="8.8122802734375000e+01" cType="1" res="-1.1425340780988336e-03" rms="4.5064747333526611e-01" purity="5.0035488605499268e-01" nType="0">
        <Node pos="l" depth="1" NCoef="0" IVar="3" Cut="1.9566830396652222e+00" cType="1" res="4.1509207338094711e-02" rms="4.6476629376411438e-01" purity="5.7364672422409058e-01" nType="0">
          <Node pos="l" depth="2" NCoef="0" IVar="-1" Cut="0.0000000000000000e+00" cType="1" res="-3.2480537891387939e-02" rms="4.5323503017425537e-01" purity="3.2520806789398193e-01" nType="-99"/>
          <Node pos="r" depth="2" NCoef="0" IVar="-1" Cut="0.0000000000000000e+00" cType="1" res="2.0948737859725952e-02" rms="4.5115906000137329e-01" purity="6.4755880832672119e-01" nType="-99"/>
        </Node>
        <Node pos="r" depth="1" NCoef="0" IVar="8" Cut="3.1439755249023438e+02" cType="1" res="-2.6604992151260376e-01" rms="2.0330990850925446e-01" purity="4.5144084841012955e-02" nType="0">
          <Node pos="l" depth="2" NCoef="0" IVar="-1" Cut="0.0000000000000000e+00" cType="1" res="-5.8122199028730392e-02" rms="2.3051831126213074e-01" purity="6.0033857822418213e-02" nType="-99"/>
          <Node pos="r" depth="2" NCoef="0" IVar="-1" Cut="0.0000000000000000e+00" cType="1" res="-6.7516736686229706e-02" rms="1.6256752610206604e-01" purity="2.7911476790904999e-02" nType="-99"/>
        </Node>
      </Node>
    </BinaryTree>
    <BinaryTree type="DecisionTree" boostWeight="1.0000000000000000e+00" itree="8">
      <Node pos="s" depth="0" NCoef="0" IVar="4" Cut="1.0171617269515991e+00" cType="1" res="-1.5420144191011786e-03" rms="4.4607889652252197e-01" purity="4.9971640110015869e-01" nType="0">
        <Node pos="l" depth="1" NCoef="0" IVar="1" Cut="1.4285714626312256e+00" cType="1" res="1.3754959404468536e-01" rms="3.9969110488891602e-01" purity="7.2179740667343140e-01" nType="0">
          <Node pos="l" depth="2" NCoef="0" IVar="-1" Cut="0.0000000000000000e+00" cType="1" res="1.6977378400042653e-03" rms="4.4312587380409241e-01" purity="5.6560313701629639e-01" nType="-99"/>
          <Node pos="r" depth="2" NCoef="0" IVar="-1" Cut="0.0000000000000000e+00" cType="1" res="5.0212170928716660e-02" rms="3.3295497298240662e-01" purity="8.3766359090805054e-01" nType="-99"/>
        </Node>
        <Node pos="r" depth="1" NCoef="0" IVar="2" Cut="9.2606192827224731e-01" cType="1" res="-7.3705926537513733e-02" rms="4.5177048444747925e-01" purity="3.8449570536613464e-01" nType="0">
          <Node pos="l" depth="2" NCoef="0" IVar="-1" Cut="0.0000000000000000e+00" cType="1" res="5.9804641641676426e-03" rms="4.8175746202468872e-01" purity="5.4322820901870728e-01" nType="-99"/>
          <Node pos="r" depth="2" NCoef="0" IVar="-1" Cut="0.0000000000000000e+00" cType="1" res="-2.8073929250240326e-02" rms="4.2305293679237366e-01" purity="2.9510325193405151e-01" nType="-99"/>
        </Node>
      </Node>
    </BinaryTree>
    <BinaryTree type="DecisionTree" boostWeight="1.0000000000000000e+00" itree="9">
      <Node pos="s" depth="0" NCoef="0" IVar="4" Cut="1.2580758333206177e+00" cType="1" res="2.4805653374642134e-03" rms="4.4023939967155457e-01" purity="5.0296556949615479e-01" nType="0">
        <Node pos="l" depth="1" NCoef="0" IVar="5" Cut="7.1692916870117188e+01" cType="1" res="1.0746633261442184e-01" rms="4.1140028834342957e-01" purity="6.9415771961212158e-01" nType="0">
          <Node pos="l" depth="2" NCoef="0" IVar="-1" Cut="0.0000000000000000e+00" cType="1" res="3.6746583878993988e-02" rms="3.9060989022254944e-01" purity="7.9478216171264648e-01" nType="-99"/>
          <Node pos="r" depth="2" NCoef="0" IVar="-1" Cut="0.0000000000000000e+00" cType="1" res="-4.1512575000524521e-02" rms="3.7724429368972778e-01" purity="2.2756598889827728e-01" nType="-99"/>
        </Node>
        <Node pos="r" depth="1" NCoef="0" IVar="0" Cut="5.3333334922790527e+00" cType="1" res="-8.4311753511428833e-02" rms="4.4437620043754578e-01" purity="3.4490588307380676e-01" nType="0">
          <Node pos="l" depth="2" NCoef="0" IVar="-1" Cut="0.0000000000000000e+00" cType="1" res="-6.1151932459324598e-04" rms="4.5991611480712891e-01" purity="4.3149253726005554e-01" nType="-99"/>
          <Node pos="r" depth="2" NCoef="0" IVar="-1" Cut="0.0000000000000000e+00" cType="1" res="-3.2485518604516983e-02" rms="4.1844773292541504e-01" purity="2.7128458023071289e-01" nType="-99"/>
        </Node>
      </Node>
    </BinaryTree>
    <BinaryTree type="DecisionTree" boostWeight="1.0000000000000000e+00" itree="10">
      <Node pos="s" depth="0" NCoef="0" IVar="2" Cut="1.8719115257263184e+00" cType="1" res="1.4562149590346962e-04" rms="4.3691158294677734e-01" purity="5.0086021423339844e-01" nType="0">
        <Node pos="l" depth="1" NCoef="0" IVar="1" Cut="1.4761904478073120e+00" cType="1" res="4.6448722481727600e-02" rms="4.4639438390731812e-01" purity="5.8531075716018677e-01" nType="0">
          <Node pos="l" depth="2" NCoef="0" IVar="-1" Cut="0.0000000000000000e+00" cType="1" res="-1.0350347496569157e-02" rms="4.6278497576713562e-01" purity="4.7146886587142944e-01" nType="-99"/>
          <Node pos="r" depth="2" NCoef="0" IVar="-1" Cut="0.0000000000000000e+00" cType="1" res="2.6972005143761635e-02" rms="4.1579499840736389e-01" purity="6.8024075031280518e-01" nType="-99"/>
        </Node>
        <Node pos="r" depth="1" NCoef="0" IVar="10" Cut="7.2924461364746094e+01" cType="1" res="-1.8342030048370361e-01" rms="3.3983615040779114e-01" purity="1.6606092453002930e-01" nType="0">
          <Node pos="l" depth="2" NCoef="0" IVar="-1" Cut="0.0000000000000000e+00" cType="1" res="-4.9449268728494644e-02" rms="3.1480360031127930e-01" purity="1.3215255737304688e-01" nType="-99"/>
          <Node pos="r" depth="2" NCoef="0" IVar="-1" Cut="0.0000000000000000e+00" cType="1" res="-1.7551420256495476e-02" rms="3.9987108111381531e-01" purity="2.8790953755378723e-01" nType="-99"/>
        </Node>
      </Node>
    </BinaryTree>
    <BinaryTree type="DecisionTree" boostWeight="1.0000000000000000e+00" itree="11">
      <Node pos="s" depth="0" NCoef="0" IVar="3" Cut="2.2352688312530518e+00" cType="1" res="-3.8318717270158231e-04" rms="4.3336474895477295e-01" purity="4.9921923875808716e-01" nType="0">
        <Node pos="l" depth="1" NCoef="0" IVar="1" Cut="1.4761904478073120e+00" cType="1" res="-1.2295544147491455e-01" rms="4.1651636362075806e-01" purity="3.1046208739280701e-01" nType="0">
          <Node pos="l" depth="2" NCoef="0" IVar="-1" Cut="0.0000000000000000e+00" cType="1" res="-4.2926061898469925e-02" rms="3.7453746795654297e-01" purity="2.0773136615753174e-01" nType="-99"/>
          <Node pos="r" depth="2" NCoef="0" IVar="-1" Cut="0.0000000000000000e+00" cType="1" res="-1.1345279403030872e-02" rms="4.4400018453598022e-01" purity="4.1366335749626160e-01" nType="-99"/>
        </Node>
        <Node pos="r" depth="1" NCoef="0" IVar="2" Cut="9.0303283929824829e-01" cType="1" res="6.1363290995359421e-02" rms="4.2852923274040222e-01" purity="5.9430676698684692e-01" nType="0">
          <Node pos="l" depth="2" NCoef="0" IVar="-1" Cut="0.0000000000000000e+00" cType="1" res="3.3183824270963669e-02" rms="3.9926248788833618e-01" purity="7.5788706541061401e-01" nType="-99"/>
          <Node pos="r" depth="2" NCoef="0" IVar="-1" Cut="0.0000000000000000e+00" cType="1" res="-2.9033061582595110e-03" rms="4.3675592541694641e-01" purity="4.6204757690429688e-01" nType="-99"/>
        </Node>
      </Node>
    </BinaryTree>
    <BinaryTree type="DecisionTree" boostWeight="1.0000000000000000e+00" itree="12">
      <Node pos="s" depth="0" NCoef="0" IVar="5" Cut="8.8270629882812500e+01" cType="1" res="-3.3612039987929165e-04" rms="4.3134197592735291e-01" purity="4.9946075677871704e-01" nType="0">
        <Node pos="l" depth="1" NCoef="0" IVar="5" Cut="6.8198371887207031e+01" cType="1" res="3.5438358783721924e-02" rms="4.4980171322822571e-01" purity="5.7717335224151611e-01" nType="0">
          <Node pos="l" depth="2" NCoef="0" IVar="-1" Cut="0.0000000000000000e+00" cType="1" res="1.5059799887239933e-02" rms="4.4564524292945862e-01" purity="6.2866580486297607e-01" nType="-99"/>
          <Node pos="r" depth="2" NCoef="0" IVar="-1" Cut="0.0000000000000000e+00" cType="1" res="-3.5984054207801819e-02" rms="4.1754049062728882e-01" purity="2.7671891450881958e-01" nType="-99"/>
        </Node>
        <Node pos="r" depth="1" NCoef="0" IVar="11" Cut="3.0170446777343750e+02" cType="1" res="-2.1136085689067841e-01" rms="1.9500730931758881e-01" purity="4.1053712368011475e-02" nType="0">
          <Node pos="l" depth="2" NCoef="0" IVar="-1" Cut="0.0000000000000000e+00" cType="1" res="-5.1261343061923981e-02" rms="2.0897082984447479e-01" purity="4.9003608524799347e-02" nType="-99"/>
          <Node pos="r" depth="2" NCoef="0" IVar="-1" Cut="0.0000000000000000e+00" cType="1" res="-6.0825955122709274e-02" rms="1.7859648168087006e-01" purity="3.4538764506578445e-02" nType="-99"/>
        </Node>
      </Node>
    </BinaryTree>
    <BinaryTree type="DecisionTree" boostWeight="1.0000000000000000e+00" itree="13">
      <Node pos="s" depth="0" NCoef="0" IVar="4" Cut="1.0171617269515991e+00" cType="1" res="3.0212223646230996e-04" rms="4.2901763319969177e-01" purity="5.0039190053939819e-01" nType="0">
        <Node pos="l" depth="1" NCoef="0" IVar="1" Cut="1.4285714626312256e+00" cType="1" res="1.1018822342157364e-01" rms="3.8246122002601624e-01" purity="7.2817397117614746e-01" nType="0">
          <Node pos="l" depth="2" NCoef="0" IVar="-1" Cut="0.0000000000000000e+00" cType="1" res="2.7463713195174932e-03" rms="4.3394461274147034e-01" purity="5.7684683799743652e-01" nType="-99"/>
          <Node pos="r" depth="2" NCoef="0" IVar="-1" Cut="0.0000000000000000e+00" cType="1" res="4.2818464338779449e-02" rms="3.1988152861595154e-01" purity="8.4131115674972534e-01" nType="-99"/>
        </Node>
        <Node pos="r" depth="1" NCoef="0" IVar="0" Cut="5.3333334922790527e+00" cType="1" res="-5.6010663509368896e-02" rms="4.4051977992057800e-01" purity="3.8366150856018066e-01" nType="0">
          <Node pos="l" depth="2" NCoef="0" IVar="-1" Cut="0.0000000000000000e+00" cType="1" res="3.7699665408581495e-03" rms="4.4885018467903137e-01" purity="4.7180512547492981e-01" nType="-99"/>
          <Node pos="r" depth="2" NCoef="0" IVar="-1" Cut="0.0000000000000000e+00" cType="1" res="-2.6110988110303879e-02" rms="4.2299225926399231e-01" purity="3.0737972259521484e-01" nType="-99"/>
        </Node>
      </Node>
    </BinaryTree>
    <BinaryTree type="DecisionTree" boostWeight="1.0000000000000000e+00" itree="14">
      <Node pos="s" depth="0" NCoef="0" IVar="5" Cut="1.0136574554443359e+02" cType="1" res="-9.8617060575634241e-04" rms="4.2475596070289612e-01" purity="5.0074142217636108e-01" nType="0">
        <Node pos="l" depth="1" NCoef="0" IVar="3" Cut="1.6462728977203369e+00" cType="1" res="2.9026970267295837e-02" rms="4.4321048259735107e-01" purity="5.7131493091583252e-01" nType="0">
          <Node pos="l" depth="2" NCoef="0" IVar="-1" Cut="0.0000000000000000e+00" cType="1" res="-3.3337194472551346e-02" rms="4.2448705434799194e-01" purity="2.7160599827766418e-01" nType="-99"/>
          <Node pos="r" depth="2" NCoef="0" IVar="-1" Cut="0.0000000000000000e+00" cType="1" res="1.3599466532468796e-02" rms="4.3812540173530579e-01" purity="6.2558639049530029e-01" nType="-99"/>
        </Node>
        <Node pos="r" depth="1" NCoef="0" IVar="2" Cut="1.7428598403930664e+00" cType="1" res="-2.0352150499820709e-01" rms="1.5882715582847595e-01" purity="2.4495692923665047e-02" nType="0">
          <Node pos="l" depth="2" NCoef="0" IVar="-1" Cut="0.0000000000000000e+00" cType="1" res="-6.5486229956150055e-02" rms="1.2979412078857422e-01" purity="1.6121918335556984e-02" nType="-99"/>
          <Node pos="r" depth="2" NCoef="0" IVar="-1" Cut="0.0000000000000000e+00" cType="1" res="-5.4746050387620926e-02" rms="1.6464805603027344e-01" purity="2.8302093967795372e-02" nType="-99"/>
        </Node>
      </Node>
    </BinaryTree>
    <BinaryTree type="DecisionTree" boostWeight="1.0000000000000000e+00" itree="15">
      <Node pos="s" depth="0" NCoef="0" IVar="1" Cut="1.5238095521926880e+00" cType="1" res="3.6494695814326406e-04" rms="4.2411088943481445e-01" purity="5.0109404325485229e-01" nType="0">
        <Node pos="l" depth="1" NCoef="0" IVar="8" Cut="1.6214118957519531e+02" cType="1" res="-7.0859581232070923e-02" rms="4.2398479580879211e-01" purity="3.8153338432312012e-01" nType="0">
          <Node pos="l" depth="2" NCoef="0" IVar="-1" Cut="0.0000000000000000e+00" cType="1" res="8.5981888696551323e-04" rms="4.5286086201667786e-01" purity="5.1712948083877563e-01" nType="-99"/>
          <Node pos="r" depth="2" NCoef="0" IVar="-1" Cut="0.0000000000000000e+00" cType="1" res="-4.4281318783760071e-02" rms="3.4710663557052612e-01" purity="1.7728391289710999e-01" nType="-99"/>
        </Node>
        <Node pos="r" depth="1" NCoef="0" IVar="4" Cut="1.5322484970092773e+00" cType="1" res="6.8146929144859314e-02" rms="4.1297659277915955e-01" purity="6.1487585306167603e-01" nType="0">
          <Node pos="l" depth="2" NCoef="0" IVar="-1" Cut="0.0000000000000000e+00" cType="1" res="3.1533062458038330e-02" rms="3.6705276370048523e-01" purity="7.6224845647811890e-01" nType="-99"/>
          <Node pos="r" depth="2" NCoef="0" IVar="-1" Cut="0.0000000000000000e+00" cType="1" res="-6.4231832511723042e-03" rms="4.5443746447563171e-01" purity="3.9995712041854858e-01" nType="-99"/>
        </Node>
      </Node>
    </BinaryTree>
    <BinaryTree type="DecisionTree" boostWeight="1.0000000000000000e+00" itree="16">
      <Node pos="s" depth="0" NCoef="0" IVar="2" Cut="1.8202087879180908e+00" cType="1" res="1.8143365159630775e-03" rms="4.2002928256988525e-01" purity="5.0231474637985229e-01" nType="0">
        <Node pos="l" depth="1" NCoef="0" IVar="0" Cut="6.3333334922790527e+00" cType="1" res="4.0705002844333649e-02" rms="4.3181097507476807e-01" purity="5.9456521272659302e-01" nType="0">
          <Node pos="l" depth="2" NCoef="0" IVar="-1" Cut="0.0000000000000000e+00" cType="1" res="2.2074118256568909e-02" rms="4.1507038474082947e-01" purity="6.7151433229446411e-01" nType="-99"/>
          <Node pos="r" depth="2" NCoef="0" IVar="-1" Cut="0.0000000000000000e+00" cType="1" res="-1.1923792771995068e-02" rms="4.4110813736915588e-01" purity="4.7120630741119385e-01" nType="-99"/>
        </Node>
        <Node pos="r" depth="1" NCoef="0" IVar="10" Cut="4.6367675781250000e+01" cType="1" res="-1.3623604178428650e-01" rms="3.4113422036170959e-01" purity="1.7485292255878448e-01" nType="0">
          <Node pos="l" depth="2" NCoef="0" IVar="-1" Cut="0.0000000000000000e+00" cType="1" res="-5.0656914710998535e-02" rms="2.8724002838134766e-01" purity="1.0113791376352310e-01" nType="-99"/>
          <Node pos="r" depth="2" NCoef="0" IVar="-1" Cut="0.0000000000000000e+00" cType="1" res="-1.5648413449525833e-02" rms="3.8341388106346130e-01" purity="2.6292172074317932e-01" nType="-99"/>
        </Node>
      </Node>
    </BinaryTree>
    <BinaryTree type="DecisionTree" boostWeight="1.0000000000000000e+00" itree="17">
      <Node pos="s" depth="0" NCoef="0" IVar="1" Cut="1.4761904478073120e+00" cType="1" res="-1.7127002356573939e-03" rms="4.2087715864181519e-01" purity="5.0125879049301147e-01" nType="0">
        <Node pos="l" depth="1" NCoef="0" IVar="10" Cut="5.5562591552734375e+01" cType="1" res="-6.8392209708690643e-02" rms="4.2215374112129211e-01" purity="3.8145947456359863e-01" nType="0">
          <Node pos="l" depth="2" NCoef="0" IVar="-1" Cut="0.0000000000000000e+00" cType="1" res="-3.4566320478916168e-02" rms="4.0066179633140564e-01" purity="2.8207558393478394e-01" nType="-99"/>
          <Node pos="r" depth="2" NCoef="0" IVar="-1" Cut="0.0000000000000000e+00" cType="1" res="1.0338271036744118e-02" rms="4.2531087994575500e-01" purity="5.2172982692718506e-01" nType="-99"/>
        </Node>
        <Node pos="r" depth="1" NCoef="0" IVar="5" Cut="8.8270629882812500e+01" cType="1" res="6.3429236412048340e-02" rms="4.0926653146743774e-01" purity="6.1829555034637451e-01" nType="0">
          <Node pos="l" depth="2" NCoef="0" IVar="-1" Cut="0.0000000000000000e+00" cType="1" res="2.1235568448901176e-02" rms="4.1643577814102173e-01" purity="6.9015735387802124e-01" nType="-99"/>
          <Node pos="r" depth="2" NCoef="0" IVar="-1" Cut="0.0000000000000000e+00" cType="1" res="-5.0154574215412140e-02" rms="2.3189091682434082e-01" purity="6.2493760138750076e-02" nType="-99"/>
        </Node>
      </Node>
    </BinaryTree>
    <BinaryTree type="DecisionTree" boostWeight="1.0000000000000000e+00" itree="18">
      <Node pos="s" depth="0" NCoef="0" IVar="3" Cut="2.1940269470214844e+00" cType="1" res="3.8032610900700092e-03" rms="4.1509753465652466e-01" purity="5.0646346807479858e-01" nType="0">
        <Node pos="l" depth="1" NCoef="0" IVar="3" Cut="1.5671542882919312e+00" cType="1" res="-9.4486474990844727e-02" rms="4.0388560295104980e-01" purity="3.1021147966384888e-01" nType="0">
          <Node pos="l" depth="2" NCoef="0" IVar="-1" Cut="0.0000000000000000e+00" cType="1" res="-3.5025201737880707e-02" rms="3.7354704737663269e-01" purity="2.1144601702690125e-01" nType="-99"/>
          <Node pos="r" depth="2" NCoef="0" IVar="-1" Cut="0.0000000000000000e+00" cType="1" res="-1.0652824304997921e-02" rms="4.2331302165985107e-01" purity="3.9798048138618469e-01" nType="-99"/>
        </Node>
        <Node pos="r" depth="1" NCoef="0" IVar="5" Cut="6.1148460388183594e+01" cType="1" res="5.0080999732017517e-02" rms="4.1223663091659546e-01" purity="5.9886473417282104e-01" nType="0">
          <Node pos="l" depth="2" NCoef="0" IVar="-1" Cut="0.0000000000000000e+00" cType="1" res="2.4874873459339142e-02" rms="4.0926793217658997e-01" purity="7.2531759738922119e-01" nType="-99"/>
          <Node pos="r" depth="2" NCoef="0" IVar="-1" Cut="0.0000000000000000e+00" cType="1" res="-2.5179741904139519e-02" rms="3.7858498096466064e-01" purity="2.8230512142181396e-01" nType="-99"/>
        </Node>
      </Node>
    </BinaryTree>
    <BinaryTree type="DecisionTree" boostWeight="1.0000000000000000e+00" itree="19">
      <Node pos="s" depth="0" NCoef="0" IVar="4" Cut="1.7728714942932129e+00" cType="1" res="3.4227361902594566e-04" rms="4.1429191827774048e-01" purity="5.0448966026306152e-01" nType="0">
        <Node pos="l" depth="1" NCoef="0" IVar="1" Cut="1.4285714626312256e+00" cType="1" res="4.6068258583545685e-02" rms="4.0378123521804810e-01" purity="6.0869431495666504e-01" nType="0">
          <Node pos="l" depth="2" NCoef="0" IVar="-1" Cut="0.0000000000000000e+00" cType="1" res="-5.4053608328104019e-03" rms="4.2587932944297791e-01" purity="4.6525070071220398e-01" nType="-99"/>
          <Node pos="r" depth="2" NCoef="0" IVar="-1" Cut="0.0000000000000000e+00" cType="1" res="2.6066748425364494e-02" rms="3.7225574254989624e-01" purity="7.3643141984939575e-01" nType="-99"/>
        </Node>
        <Node pos="r" depth="1" NCoef="0" IVar="1" Cut="2.0476191043853760e+00" cType="1" res="-8.7841048836708069e-02" rms="4.2001384496688843e-01" purity="3.0352914333343506e-01" nType="0">
          <Node pos="l" depth="2" NCoef="0" IVar="-1" Cut="0.0000000000000000e+00" cType="1" res="-2.5646550580859184e-02" rms="4.0781506896018982e-01" purity="2.6910293102264404e-01" nType="-99"/>
          <Node pos="r" depth="2" NCoef="0" IVar="-1" Cut="0.0000000000000000e+00" cType="1" res="2.3673465475440025e-03" rms="4.5290932059288025e-01" purity="4.4289609789848328e-01" nType="-99"/>
        </Node>
      </Node>
    </BinaryTree>
    <BinaryTree type="DecisionTree" boostWeight="1.0000000000000000e+00" itree="20">
      <Node pos="s" depth="0" NCoef="0" IVar="0" Cut="5.3333334922790527e+00" cType="1" res="-5.9021948836743832e-03" rms="4.1186618804931641e-01" purity="4.9457180500030518e-01" nType="0">
        <Node pos="l" depth="1" NCoef="0" IVar="0" Cut="3.0952382087707520e+00" cType="1" res="5.8724425733089447e-02" rms="4.0563306212425232e-01" purity="5.9580802917480469e-01" nType="0">
          <Node pos="l" depth="2" NCoef="0" IVar="-1" Cut="0.0000000000000000e+00" cType="1" res="-8.4251835942268372e-03" rms="4.1061064600944519e-01" purity="4.7377204895019531e-01" nType="-99"/>
          <Node pos="r" depth="2" NCoef="0" IVar="-1" Cut="0.0000000000000000e+00" cType="1" res="6.4179003238677979e-02" rms="2.9412490129470825e-01" purity="8.7841790914535522e-01" nType="-99"/>
        </Node>
        <Node pos="r" depth="1" NCoef="0" IVar="4" Cut="7.4279421567916870e-01" cType="1" res="-6.4550176262855530e-02" rms="4.0869075059890747e-01" purity="4.0270093083381653e-01" nType="0">
          <Node pos="l" depth="2" NCoef="0" IVar="-1" Cut="0.0000000000000000e+00" cType="1" res="1.6490288078784943e-02" rms="3.7559002637863159e-01" purity="7.0965129137039185e-01" nType="-99"/>
          <Node pos="r" depth="2" NCoef="0" IVar="-1" Cut="0.0000000000000000e+00" cType="1" res="-2.1416118368506432e-02" rms="4.1000941395759583e-01" purity="3.3901575207710266e-01" nType="-99"/>
        </Node>
      </Node>
    </BinaryTree>
    <BinaryTree type="DecisionTree" boostWeight="1.0000000000000000e+00" itree="21">
      <Node pos="s" depth="0" NCoef="0" IVar="0" Cut="5.3333334922790527e+00" cType="1" res="-1.0341351153329015e-03" rms="4.1036999225616455e-01" purity="4.9989223480224609e-01" nType="0">
        <Node pos="l" depth="1" NCoef="0" IVar="0" Cut="3.0952382087707520e+00" cType="1" res="5.6464370340108871e-02" rms="4.0052533149719238e-01" purity="5.9781861305236816e-01" nType="0">
          <Node pos="l" depth="2" NCoef="0" IVar="-1" Cut="0.0000000000000000e+00" cType="1" res="-7.1220761165022850e-03" rms="4.0974578261375427e-01" purity="4.7306820750236511e-01" nType="-99"/>
          <Node pos="r" depth="2" NCoef="0" IVar="-1" Cut="0.0000000000000000e+00" cType="1" res="6.0674127191305161e-02" rms="2.9303300380706787e-01" purity="8.8514083623886108e-01" nType="-99"/>
        </Node>
        <Node pos="r" depth="1" NCoef="0" IVar="1" Cut="1.5238095521926880e+00" cType="1" res="-5.4800037294626236e-02" rms="4.1217234730720520e-01" purity="4.0832296013832092e-01" nType="0">
          <Node pos="l" depth="2" NCoef="0" IVar="-1" Cut="0.0000000000000000e+00" cType="1" res="-2.4881791323423386e-02" rms="4.0256884694099426e-01" purity="2.9956927895545959e-01" nType="-99"/>
          <Node pos="r" depth="2" NCoef="0" IVar="-1" Cut="0.0000000000000000e+00" cType="1" res="-5.5590603733435273e-04" rms="4.1576808691024780e-01" purity="5.2386540174484253e-01" nType="-99"/>
        </Node>
      </Node>
    </BinaryTree>
    <BinaryTree type="DecisionTree" boostWeight="1.0000000000000000e+00" itree="22">
      <Node pos="s" depth="0" NCoef="0" IVar="5" Cut="7.6823326110839844e+01" cType="1" res="1.6941423527896404e-03" rms="4.0651199221611023e-01" purity="5.0507867336273193e-01" nType="0">
        <Node pos="l" depth="1" NCoef="0" IVar="10" Cut="6.8429550170898438e+01" cType="1" res="3.9589017629623413e-02" rms="4.2711284756660461e-01" purity="6.0655701160430908e-01" nType="0">
          <Node pos="l" depth="2" NCoef="0" IVar="-1" Cut="0.0000000000000000e+00" cType="1" res="-4.5187724754214287e-03" rms="4.3630352616310120e-01" purity="5.2322602272033691e-01" nType="-99"/>
          <Node pos="r" depth="2" NCoef="0" IVar="-1" Cut="0.0000000000000000e+00" cType="1" res="2.9990931972861290e-02" rms="3.9537057280540466e-01" purity="7.3461568355560303e-01" nType="-99"/>
        </Node>
        <Node pos="r" depth="1" NCoef="0" IVar="2" Cut="1.4940899610519409e+00" cType="1" res="-1.5378755331039429e-01" rms="2.5440818071365356e-01" purity="8.8715754449367523e-02" nType="0">
          <Node pos="l" depth="2" NCoef="0" IVar="-1" Cut="0.0000000000000000e+00" cType="1" res="-5.0674114376306534e-02" rms="2.9670825600624084e-01" purity="1.3691829144954681e-01" nType="-99"/>
          <Node pos="r" depth="2" NCoef="0" IVar="-1" Cut="0.0000000000000000e+00" cType="1" res="-4.3730288743972778e-02" rms="2.3396633565425873e-01" purity="7.0944845676422119e-02" nType="-99"/>
        </Node>
      </Node>
    </BinaryTree>
    <BinaryTree type="DecisionTree" boostWeight="1.0000000000000000e+00" itree="23">
      <Node pos="s" depth="0" NCoef="0" IVar="3" Cut="2.2354857921600342e+00" cType="1" res="1.9795554690063000e-03" rms="4.0396693348884583e-01" purity="5.0330704450607300e-01" nType="0">
        <Node pos="l" depth="1" NCoef="0" IVar="3" Cut="1.3839986324310303e+00" cType="1" res="-7.1935452520847321e-02" rms="3.9788398146629333e-01" purity="3.2362398505210876e-01" nType="0">
          <Node pos="l" depth="2" NCoef="0" IVar="-1" Cut="0.0000000000000000e+00" cType="1" res="-3.3184878528118134e-02" rms="3.6198827624320984e-01" purity="1.9652853906154633e-01" nType="-99"/>
          <Node pos="r" depth="2" NCoef="0" IVar="-1" Cut="0.0000000000000000e+00" cType="1" res="-8.9648356661200523e-03" rms="4.1280543804168701e-01" purity="3.9497709274291992e-01" nType="-99"/>
        </Node>
        <Node pos="r" depth="1" NCoef="0" IVar="5" Cut="8.0040649414062500e+01" cType="1" res="3.8540840148925781e-02" rms="4.0194875001907349e-01" purity="5.9218537807464600e-01" nType="0">
          <Node pos="l" depth="2" NCoef="0" IVar="-1" Cut="0.0000000000000000e+00" cType="1" res="1.5145191922783852e-02" rms="4.1515931487083435e-01" purity="6.7421913146972656e-01" nType="-99"/>
          <Node pos="r" depth="2" NCoef="0" IVar="-1" Cut="0.0000000000000000e+00" cType="1" res="-4.2094800621271133e-02" rms="2.4746225774288177e-01" purity="8.2931034266948700e-02" nType="-99"/>
        </Node>
      </Node>
    </BinaryTree>
    <BinaryTree type="DecisionTree" boostWeight="1.0000000000000000e+00" itree="24">
      <Node pos="s" depth="0" NCoef="0" IVar="0" Cut="5.3333334922790527e+00" cType="1" res="-2.5102158542722464e-03" rms="4.0226438641548157e-01" purity="4.9944671988487244e-01" nType="0">
        <Node pos="l" depth="1" NCoef="0" IVar="0" Cut="3.0952382087707520e+00" cType="1" res="5.2460648119449615e-02" rms="3.9011380076408386e-01" purity="6.0143840312957764e-01" nType="0">
          <Node pos="l" depth="2" NCoef="0" IVar="-1" Cut="0.0000000000000000e+00" cType="1" res="-5.0001703202724457e-03" rms="4.0524172782897949e-01" purity="4.8057642579078674e-01" nType="-99"/>
          <Node pos="r" depth="2" NCoef="0" IVar="-1" Cut="0.0000000000000000e+00" cType="1" res="5.5014550685882568e-02" rms="2.8939256072044373e-01" purity="8.7923055887222290e-01" nType="-99"/>
        </Node>
        <Node pos="r" depth="1" NCoef="0" IVar="4" Cut="7.5912821292877197e-01" cType="1" res="-5.3391989320516586e-02" rms="4.0662309527397156e-01" purity="4.0504196286201477e-01" nType="0">
          <Node pos="l" depth="2" NCoef="0" IVar="-1" Cut="0.0000000000000000e+00" cType="1" res="1.3946153223514557e-02" rms="3.7627354264259338e-01" purity="7.0147347450256348e-01" nType="-99"/>
          <Node pos="r" depth="2" NCoef="0" IVar="-1" Cut="0.0000000000000000e+00" cType="1" res="-1.8479114398360252e-02" rms="4.0919792652130127e-01" purity="3.3919742703437805e-01" nType="-99"/>
        </Node>
      </Node>
    </BinaryTree>
    <BinaryTree type="DecisionTree" boostWeight="1.0000000000000000e+00" itree="25">
      <Node pos="s" depth="0" NCoef="0" IVar="4" Cut="9.9912786483764648e-01" cType="1" res="-1.4794985763728619e-03" rms="4.0195971727371216e-01" purity="5.0475966930389404e-01" nType="0">
        <Node pos="l" depth="1" NCoef="0" IVar="5" Cut="6.7788833618164062e+01" cType="1" res="6.9538339972496033e-02" rms="3.5743921995162964e-01" purity="7.3089873790740967e-01" nType="0">
          <Node pos="l" depth="2" NCoef="0" IVar="-1" Cut="0.0000000000000000e+00" cType="1" res="2.7458185330033302e-02" rms="3.4310740232467651e-01" purity="8.3046185970306396e-01" nType="-99"/>
          <Node pos="r" depth="2" NCoef="0" IVar="-1" Cut="0.0000000000000000e+00" cType="1" res="-1.9219134002923965e-02" rms="3.7872502207756042e-01" purity="3.1798163056373596e-01" nType="-99"/>
        </Node>
        <Node pos="r" depth="1" NCoef="0" IVar="0" Cut="1.3333333730697632e+00" cType="1" res="-3.7570025771856308e-02" rms="4.1819530725479126e-01" purity="3.8983824849128723e-01" nType="0">
          <Node pos="l" depth="2" NCoef="0" IVar="-1" Cut="0.0000000000000000e+00" cType="1" res="-3.7861887365579605e-02" rms="4.0894696116447449e-01" purity="2.7040779590606689e-01" nType="-99"/>
          <Node pos="r" depth="2" NCoef="0" IVar="-1" Cut="0.0000000000000000e+00" cType="1" res="-4.3721636757254601e-03" rms="4.1634321212768555e-01" purity="4.0808248519897461e-01" nType="-99"/>
        </Node>
      </Node>
    </BinaryTree>
    <BinaryTree type="DecisionTree" boostWeight="1.0000000000000000e+00" itree="26">
      <Node pos="s" depth="0" NCoef="0" IVar="0" Cut="7.3333334922790527e+00" cType="1" res="1.8126204377040267e-03" rms="3.9802372455596924e-01" purity="5.0242823362350464e-01" nType="0">
        <Node pos="l" depth="1" NCoef="0" IVar="5" Cut="8.9100585937500000e+01" cType="1" res="2.8134258463978767e-02" rms="3.9509674906730652e-01" purity="5.4794007539749146e-01" nType="0">
          <Node pos="l" depth="2" NCoef="0" IVar="-1" Cut="0.0000000000000000e+00" cType="1" res="1.1517678387463093e-02" rms="4.1249254345893860e-01" purity="6.2376993894577026e-01" nType="-99"/>
          <Node pos="r" depth="2" NCoef="0" IVar="-1" Cut="0.0000000000000000e+00" cType="1" res="-4.2531032115221024e-02" rms="2.0279935002326965e-01" purity="4.8705201596021652e-02" nType="-99"/>
        </Node>
        <Node pos="r" depth="1" NCoef="0" IVar="1" Cut="1.4285714626312256e+00" cType="1" res="0.0000000000000000e+00" rms="0.0000000000000000e+00" purity="3.4072542190551758e-01" nType="0">
          <Node pos="l" depth="2" NCoef="0" IVar="-1" Cut="0.0000000000000000e+00" cType="1" res="-3.3877644687891006e-02" rms="3.7672606110572815e-01" purity="2.3419445753097534e-01" nType="-99"/>
          <Node pos="r" depth="2" NCoef="0" IVar="-1" Cut="0.0000000000000000e+00" cType="1" res="-1.0435555130243301e-02" rms="4.0786051750183105e-01" purity="4.6112421154975891e-01" nType="-99"/>
        </Node>
      </Node>
    </BinaryTree>
    <BinaryTree type="DecisionTree" boostWeight="1.0000000000000000e+00" itree="27">
      <Node pos="s" depth="0" NCoef="0" IVar="3" Cut="2.1569492816925049e+00" cType="1" res="-1.6064613591879606e-03" rms="3.9655005931854248e-01" purity="4.9796453118324280e-01" nType="0">
        <Node pos="l" depth="1" NCoef="0" IVar="8" Cut="3.0002185058593750e+02" cType="1" res="-7.0328585803508759e-02" rms="3.8825237751007080e-01" purity="3.0091238021850586e-01" nType="0">
          <Node pos="l" depth="2" NCoef="0" IVar="-1" Cut="0.0000000000000000e+00" cType="1" res="-1.0168392211198807e-02" rms="4.0103316307067871e-01" purity="3.4009939432144165e-01" nType="-99"/>
          <Node pos="r" depth="2" NCoef="0" IVar="-1" Cut="0.0000000000000000e+00" cType="1" res="-3.6048155277967453e-02" rms="3.4728813171386719e-01" purity="2.0930799841880798e-01" nType="-99"/>
        </Node>
        <Node pos="r" depth="1" NCoef="0" IVar="5" Cut="6.5822532653808594e+01" cType="1" res="2.8595615178346634e-02" rms="3.9639139175415039e-01" purity="5.8456522226333618e-01" nType="0">
          <Node pos="l" depth="2" NCoef="0" IVar="-1" Cut="0.0000000000000000e+00" cType="1" res="1.6178905963897705e-02" rms="4.0553718805313110e-01" purity="7.0715069770812988e-01" nType="-99"/>
          <Node pos="r" depth="2" NCoef="0" IVar="-1" Cut="0.0000000000000000e+00" cType="1" res="-2.4633716791868210e-02" rms="3.4290403127670288e-01" purity="2.2421735525131226e-01" nType="-99"/>
        </Node>
      </Node>
    </BinaryTree>
    <BinaryTree type="DecisionTree" boostWeight="1.0000000000000000e+00" itree="28">
      <Node pos="s" depth="0" NCoef="0" IVar="1" Cut="1.4761904478073120e+00" cType="1" res="-1.5226437244564295e-03" rms="3.9591637253761292e-01" purity="5.0119203329086304e-01" nType="0">
        <Node pos="l" depth="1" NCoef="0" IVar="10" Cut="5.5615409851074219e+01" cType="1" res="-4.9851808696985245e-02" rms="4.0000486373901367e-01" purity="3.7799867987632751e-01" nType="0">
          <Node pos="l" depth="2" NCoef="0" IVar="-1" Cut="0.0000000000000000e+00" cType="1" res="-2.7271740138530731e-02" rms="3.8599967956542969e-01" purity="2.8432932496070862e-01" nType="-99"/>
          <Node pos="r" depth="2" NCoef="0" IVar="-1" Cut="0.0000000000000000e+00" cType="1" res="7.6195667497813702e-03" rms="4.0512448549270630e-01" purity="5.0900328159332275e-01" nType="-99"/>
        </Node>
        <Node pos="r" depth="1" NCoef="0" IVar="8" Cut="3.1975573730468750e+02" cType="1" res="4.4935155659914017e-02" rms="3.8628756999969482e-01" purity="6.1961519718170166e-01" nType="0">
          <Node pos="l" depth="2" NCoef="0" IVar="-1" Cut="0.0000000000000000e+00" cType="1" res="2.3031722754240036e-02" rms="3.7662124633789062e-01" purity="7.1723270416259766e-01" nType="-99"/>
          <Node pos="r" depth="2" NCoef="0" IVar="-1" Cut="0.0000000000000000e+00" cType="1" res="-1.0060770437121391e-02" rms="3.8902401924133301e-01" purity="4.4356665015220642e-01" nType="-99"/>
        </Node>
      </Node>
    </BinaryTree>
    <BinaryTree type="DecisionTree" boostWeight="1.0000000000000000e+00" itree="29">
      <Node pos="s" depth="0" NCoef="0" IVar="1" Cut="1.4761904478073120e+00" cType="1" res="-2.1240273490548134e-03" rms="3.9429387450218201e-01" purity="4.9912908673286438e-01" nType="0">
        <Node pos="l" depth="1" NCoef="0" IVar="10" Cut="4.7571136474609375e+01" cType="1" res="-5.0891328603029251e-02" rms="3.9867860078811646e-01" purity="3.7058761715888977e-01" nType="0">
          <Node pos="l" depth="2" NCoef="0" IVar="-1" Cut="0.0000000000000000e+00" cType="1" res="-3.1326621770858765e-02" rms="3.7389102578163147e-01" purity="2.5279802083969116e-01" nType="-99"/>
          <Node pos="r" depth="2" NCoef="0" IVar="-1" Cut="0.0000000000000000e+00" cType="1" res="5.5890833027660847e-03" rms="4.0979793667793274e-01" purity="4.9204286932945251e-01" nType="-99"/>
        </Node>
        <Node pos="r" depth="1" NCoef="0" IVar="8" Cut="3.2679458618164062e+02" cType="1" res="4.5464567840099335e-02" rms="3.8404333591461182e-01" purity="6.2456381320953369e-01" nType="0">
          <Node pos="l" depth="2" NCoef="0" IVar="-1" Cut="0.0000000000000000e+00" cType="1" res="2.3321866989135742e-02" rms="3.7323388457298279e-01" purity="7.2689539194107056e-01" nType="-99"/>
          <Node pos="r" depth="2" NCoef="0" IVar="-1" Cut="0.0000000000000000e+00" cType="1" res="-1.0200171731412411e-02" rms="3.8894113898277283e-01" purity="4.3520277738571167e-01" nType="-99"/>
        </Node>
      </Node>
    </BinaryTree>
    <BinaryTree type="DecisionTree" boostWeight="1.0000000000000000e+00" itree="30">
      <Node pos="s" depth="0" NCoef="0" IVar="1" Cut="1.5238095521926880e+00" cType="1" res="-1.1959887342527509e-03" rms="3.9103296399116516e-01" purity="4.9663943052291870e-01" nType="0">
        <Node pos="l" depth="1" NCoef="0" IVar="10" Cut="5.5495117187500000e+01" cType="1" res="-4.2707763612270355e-02" rms="3.9365577697753906e-01" purity="3.7033089995384216e-01" nType="0">
          <Node pos="l" depth="2" NCoef="0" IVar="-1" Cut="0.0000000000000000e+00" cType="1" res="-2.4273816496133804e-02" rms="3.7387743592262268e-01" purity="2.6776683330535889e-01" nType="-99"/>
          <Node pos="r" depth="2" NCoef="0" IVar="-1" Cut="0.0000000000000000e+00" cType="1" res="6.6066957078874111e-03" rms="4.0964737534523010e-01" purity="5.1374465227127075e-01" nType="-99"/>
        </Node>
        <Node pos="r" depth="1" NCoef="0" IVar="8" Cut="3.1975573730468750e+02" cType="1" res="3.9903715252876282e-02" rms="3.8402318954467773e-01" purity="6.2169414758682251e-01" nType="0">
          <Node pos="l" depth="2" NCoef="0" IVar="-1" Cut="0.0000000000000000e+00" cType="1" res="2.0794797688722610e-02" rms="3.7394329905509949e-01" purity="7.2466951608657837e-01" nType="-99"/>
          <Node pos="r" depth="2" NCoef="0" IVar="-1" Cut="0.0000000000000000e+00" cType="1" res="-8.4441183134913445e-03" rms="3.9068830013275146e-01" purity="4.3861338496208191e-01" nType="-99"/>
        </Node>
      </Node>
    </BinaryTree>
    <BinaryTree type="DecisionTree" boostWeight="1.0000000000000000e+00" itree="31">
      <Node pos="s" depth="0" NCoef="0" IVar="3" Cut="2.1942439079284668e+00" cType="1" res="1.1648258659988642e-03" rms="3.8980886340141296e-01" purity="5.0099760293960571e-01" nType="0">
        <Node pos="l" depth="1" NCoef="0" IVar="0" Cut="5.3333334922790527e+00" cType="1" res="-6.4791172742843628e-02" rms="3.8471055030822754e-01" purity="3.0225318670272827e-01" nType="0">
          <Node pos="l" depth="2" NCoef="0" IVar="-1" Cut="0.0000000000000000e+00" cType="1" res="-5.4081929847598076e-03" rms="3.9713057875633240e-01" purity="3.9141434431076050e-01" nType="-99"/>
          <Node pos="r" depth="2" NCoef="0" IVar="-1" Cut="0.0000000000000000e+00" cType="1" res="-2.5944348424673080e-02" rms="3.7112405896186829e-01" purity="2.3189939558506012e-01" nType="-99"/>
        </Node>
        <Node pos="r" depth="1" NCoef="0" IVar="5" Cut="7.7284156799316406e+01" cType="1" res="3.2353200018405914e-02" rms="3.8831481337547302e-01" purity="5.9497714042663574e-01" nType="0">
          <Node pos="l" depth="2" NCoef="0" IVar="-1" Cut="0.0000000000000000e+00" cType="1" res="1.4404560439288616e-02" rms="4.0171983838081360e-01" purity="6.9120222330093384e-01" nType="-99"/>
          <Node pos="r" depth="2" NCoef="0" IVar="-1" Cut="0.0000000000000000e+00" cType="1" res="-3.5175111144781113e-02" rms="2.7441573143005371e-01" purity="1.1091329902410507e-01" nType="-99"/>
        </Node>
      </Node>
    </BinaryTree>
    <BinaryTree type="DecisionTree" boostWeight="1.0000000000000000e+00" itree="32">
      <Node pos="s" depth="0" NCoef="0" IVar="0" Cut="7.3333334922790527e+00" cType="1" res="-3.0049975612200797e-04" rms="3.9041888713836670e-01" purity="5.0037610530853271e-01" nType="0">
        <Node pos="l" depth="1" NCoef="0" IVar="5" Cut="9.8749885559082031e+01" cType="1" res="2.1133348345756531e-02" rms="3.8807010650634766e-01" purity="5.4458534717559814e-01" nType="0">
          <Node pos="l" depth="2" NCoef="0" IVar="-1" Cut="0.0000000000000000e+00" cType="1" res="9.2745060101151466e-03" rms="4.0749582648277283e-01" purity="6.1942130327224731e-01" nType="-99"/>
          <Node pos="r" depth="2" NCoef="0" IVar="-1" Cut="0.0000000000000000e+00" cType="1" res="-4.4996816664934158e-02" rms="1.6752125322818756e-01" purity="2.9103206470608711e-02" nType="-99"/>
        </Node>
        <Node pos="r" depth="1" NCoef="0" IVar="1" Cut="2.4285714626312256e+00" cType="1" res="0.0000000000000000e+00" rms="0.0000000000000000e+00" purity="3.4339377284049988e-01" nType="0">
          <Node pos="l" depth="2" NCoef="0" IVar="-1" Cut="0.0000000000000000e+00" cType="1" res="-2.5015069171786308e-02" rms="3.8081952929496765e-01" purity="3.0042737722396851e-01" nType="-99"/>
          <Node pos="r" depth="2" NCoef="0" IVar="-1" Cut="0.0000000000000000e+00" cType="1" res="1.6727484762668610e-04" rms="4.1086295247077942e-01" purity="5.0807094573974609e-01" nType="-99"/>
        </Node>
      </Node>
    </BinaryTree>
    <BinaryTree type="DecisionTree" boostWeight="1.0000000000000000e+00" itree="33">
      <Node pos="s" depth="0" NCoef="0" IVar="4" Cut="1.7728714942932129e+00" cType="1" res="-3.2558110542595387e-03" rms="3.8978996872901917e-01" purity="5.0167399644851685e-01" nType="0">
        <Node pos="l" depth="1" NCoef="0" IVar="5" Cut="7.8041824340820312e+01" cType="1" res="2.6650760322809219e-02" rms="3.8048964738845825e-01" purity="6.0523504018783569e-01" nType="0">
          <Node pos="l" depth="2" NCoef="0" IVar="-1" Cut="0.0000000000000000e+00" cType="1" res="1.2004941701889038e-02" rms="3.9386054873466492e-01" purity="6.9810026884078979e-01" nType="-99"/>
          <Node pos="r" depth="2" NCoef="0" IVar="-1" Cut="0.0000000000000000e+00" cType="1" res="-3.1434282660484314e-02" rms="2.7252930402755737e-01" purity="1.0961493849754333e-01" nType="-99"/>
        </Node>
        <Node pos="r" depth="1" NCoef="0" IVar="10" Cut="8.7109741210937500e+01" cType="1" res="-6.0150407254695892e-02" rms="4.0078210830688477e-01" purity="3.0465823411941528e-01" nType="0">
          <Node pos="l" depth="2" NCoef="0" IVar="-1" Cut="0.0000000000000000e+00" cType="1" res="-2.2416150197386742e-02" rms="3.8882866501808167e-01" purity="2.5743252038955688e-01" nType="-99"/>
          <Node pos="r" depth="2" NCoef="0" IVar="-1" Cut="0.0000000000000000e+00" cType="1" res="8.6998715996742249e-03" rms="4.2382580041885376e-01" purity="4.6162703633308411e-01" nType="-99"/>
        </Node>
      </Node>
    </BinaryTree>
    <BinaryTree type="DecisionTree" boostWeight="1.0000000000000000e+00" itree="34">
      <Node pos="s" depth="0" NCoef="0" IVar="4" Cut="7.8125953674316406e-01" cType="1" res="-2.1031990181654692e-03" rms="3.8829258084297180e-01" purity="4.9586939811706543e-01" nType="0">
        <Node pos="l" depth="1" NCoef="0" IVar="11" Cut="2.4100326538085938e+02" cType="1" res="7.4825681746006012e-02" rms="3.2503178715705872e-01" purity="7.6986920833587646e-01" nType="0">
          <Node pos="l" depth="2" NCoef="0" IVar="-1" Cut="0.0000000000000000e+00" cType="1" res="-3.6321501829661429e-04" rms="4.0870639681816101e-01" purity="6.1525893211364746e-01" nType="-99"/>
          <Node pos="r" depth="2" NCoef="0" IVar="-1" Cut="0.0000000000000000e+00" cType="1" res="3.2369118183851242e-02" rms="2.7888888120651245e-01" purity="8.3183115720748901e-01" nType="-99"/>
        </Node>
        <Node pos="r" depth="1" NCoef="0" IVar="1" Cut="2.0476191043853760e+00" cType="1" res="-2.3569419980049133e-02" rms="4.0156039595603943e-01" purity="4.1941258311271667e-01" nType="0">
          <Node pos="l" depth="2" NCoef="0" IVar="-1" Cut="0.0000000000000000e+00" cType="1" res="-1.1191027238965034e-02" rms="3.9897099137306213e-01" purity="3.7583094835281372e-01" nType="-99"/>
          <Node pos="r" depth="2" NCoef="0" IVar="-1" Cut="0.0000000000000000e+00" cType="1" res="1.3080373406410217e-02" rms="4.0218892693519592e-01" purity="5.8654218912124634e-01" nType="-99"/>
        </Node>
      </Node>
    </BinaryTree>
    <BinaryTree type="DecisionTree" boostWeight="1.0000000000000000e+00" itree="35">
      <Node pos="s" depth="0" NCoef="0" IVar="0" Cut="1.3333333730697632e+00" cType="1" res="-5.2043767645955086e-03" rms="3.8795074820518494e-01" purity="4.9384900927543640e-01" nType="0">
        <Node pos="l" depth="1" NCoef="0" IVar="10" Cut="5.5758605957031250e+01" cType="1" res="0.0000000000000000e+00" rms="0.0000000000000000e+00" purity="3.4525513648986816e-01" nType="0">
          <Node pos="l" depth="2" NCoef="0" IVar="-1" Cut="0.0000000000000000e+00" cType="1" res="-4.4658116996288300e-02" rms="3.6552909016609192e-01" purity="2.3981721699237823e-01" nType="-99"/>
          <Node pos="r" depth="2" NCoef="0" IVar="-1" Cut="0.0000000000000000e+00" cType="1" res="-8.8857151567935944e-03" rms="3.9980483055114746e-01" purity="4.9127846956253052e-01" nType="-99"/>
        </Node>
        <Node pos="r" depth="1" NCoef="0" IVar="0" Cut="5.1428570747375488e+00" cType="1" res="1.0566719807684422e-02" rms="3.8561636209487915e-01" purity="5.1509732007980347e-01" nType="0">
          <Node pos="l" depth="2" NCoef="0" IVar="-1" Cut="0.0000000000000000e+00" cType="1" res="1.9789474084973335e-02" rms="3.6757794022560120e-01" purity="6.6904526948928833e-01" nType="-99"/>
          <Node pos="r" depth="2" NCoef="0" IVar="-1" Cut="0.0000000000000000e+00" cType="1" res="-9.1567700728774071e-03" rms="3.9146700501441956e-01" purity="4.0668481588363647e-01" nType="-99"/>
        </Node>
      </Node>
    </BinaryTree>
    <BinaryTree type="DecisionTree" boostWeight="1.0000000000000000e+00" itree="36">
      <Node pos="s" depth="0" NCoef="0" IVar="2" Cut="1.2152333259582520e+00" cType="1" res="-1.8307010177522898e-03" rms="3.8569071888923645e-01" purity="4.9557858705520630e-01" nType="0">
        <Node pos="l" depth="1" NCoef="0" IVar="5" Cut="7.1223739624023438e+01" cType="1" res="3.0406555160880089e-02" rms="3.9974212646484375e-01" purity="6.4807760715484619e-01" nType="0">
          <Node pos="l" depth="2" NCoef="0" IVar="-1" Cut="0.0000000000000000e+00" cType="1" res="1.0904243215918541e-02" rms="4.0166506171226501e-01" purity="6.8502384424209595e-01" nType="-99"/>
          <Node pos="r" depth="2" NCoef="0" IVar="-1" Cut="0.0000000000000000e+00" cType="1" res="-3.4199833869934082e-02" rms="3.3744534850120544e-01" purity="2.0672023296356201e-01" nType="-99"/>
        </Node>
        <Node pos="r" depth="1" NCoef="0" IVar="10" Cut="7.3072517395019531e+01" cType="1" res="-4.1886761784553528e-02" rms="3.6352214217185974e-01" purity="3.0609253048896790e-01" nType="0">
          <Node pos="l" depth="2" NCoef="0" IVar="-1" Cut="0.0000000000000000e+00" cType="1" res="-1.8309395760297775e-02" rms="3.5200747847557068e-01" purity="2.4901342391967773e-01" nType="-99"/>
          <Node pos="r" depth="2" NCoef="0" IVar="-1" Cut="0.0000000000000000e+00" cType="1" res="3.8214612286537886e-03" rms="3.8775417208671570e-01" purity="4.6226862072944641e-01" nType="-99"/>
        </Node>
      </Node>
    </BinaryTree>
    <BinaryTree type="DecisionTree" boostWeight="1.0000000000000000e+00" itree="37">
      <Node pos="s" depth="0" NCoef="0" IVar="3" Cut="1.3501571416854858e+00" cType="1" res="-9.2394312378019094e-04" rms="3.8684493303298950e-01" purity="4.9965414404869080e-01" nType="0">
        <Node pos="l" depth="1" NCoef="0" IVar="10" Cut="7.2297981262207031e+01" cType="1" res="-1.0251633822917938e-01" rms="3.4601765871047974e-01" purity="1.8775491416454315e-01" nType="0">
          <Node pos="l" depth="2" NCoef="0" IVar="-1" Cut="0.0000000000000000e+00" cType="1" res="-3.7655435502529144e-02" rms="3.1450119614601135e-01" purity="1.3547526299953461e-01" nType="-99"/>
          <Node pos="r" depth="2" NCoef="0" IVar="-1" Cut="0.0000000000000000e+00" cType="1" res="-9.0374778956174850e-03" rms="4.1000619530677795e-01" purity="3.2450366020202637e-01" nType="-99"/>
        </Node>
        <Node pos="r" depth="1" NCoef="0" IVar="0" Cut="5.3333334922790527e+00" cType="1" res="1.2876751832664013e-02" rms="3.9002698659896851e-01" purity="5.4202377796173096e-01" nType="0">
          <Node pos="l" depth="2" NCoef="0" IVar="-1" Cut="0.0000000000000000e+00" cType="1" res="1.3300403952598572e-02" rms="3.7424698472023010e-01" purity="6.4400541782379150e-01" nType="-99"/>
          <Node pos="r" depth="2" NCoef="0" IVar="-1" Cut="0.0000000000000000e+00" cType="1" res="-5.8705699630081654e-03" rms="4.0139785408973694e-01" purity="4.4407197833061218e-01" nType="-99"/>
        </Node>
      </Node>
    </BinaryTree>
    <BinaryTree type="DecisionTree" boostWeight="1.0000000000000000e+00" itree="38">
      <Node pos="s" depth="0" NCoef="0" IVar="4" Cut="1.9997526407241821e+00" cType="1" res="-2.9933908954262733e-03" rms="3.8683578372001648e-01" purity="4.9960556626319885e-01" nType="0">
        <Node pos="l" depth="1" NCoef="0" IVar="0" Cut="1.3333333730697632e+00" cType="1" res="1.8424872308969498e-02" rms="3.8232740759849548e-01" purity="5.7604318857192993e-01" nType="0">
          <Node pos="l" depth="2" NCoef="0" IVar="-1" Cut="0.0000000000000000e+00" cType="1" res="-2.1765798330307007e-02" rms="3.9785259962081909e-01" purity="4.2194131016731262e-01" nType="-99"/>
          <Node pos="r" depth="2" NCoef="0" IVar="-1" Cut="0.0000000000000000e+00" cType="1" res="8.6886547505855560e-03" rms="3.7806138396263123e-01" purity="5.9725576639175415e-01" nType="-99"/>
        </Node>
        <Node pos="r" depth="1" NCoef="0" IVar="1" Cut="2.2857143878936768e+00" cType="1" res="-6.1537381261587143e-02" rms="3.9298740029335022e-01" purity="2.9067358374595642e-01" nType="0">
          <Node pos="l" depth="2" NCoef="0" IVar="-1" Cut="0.0000000000000000e+00" cType="1" res="-2.0271366462111473e-02" rms="3.8245075941085815e-01" purity="2.5466206669807434e-01" nType="-99"/>
          <Node pos="r" depth="2" NCoef="0" IVar="-1" Cut="0.0000000000000000e+00" cType="1" res="6.7448208574205637e-04" rms="4.2578005790710449e-01" purity="4.3197467923164368e-01" nType="-99"/>
        </Node>
      </Node>
    </BinaryTree>
    <BinaryTree type="DecisionTree" boostWeight="1.0000000000000000e+00" itree="39">
      <Node pos="s" depth="0" NCoef="0" IVar="2" Cut="9.0684908628463745e-01" cType="1" res="6.5307889599353075e-04" rms="3.8469180464744568e-01" purity="4.9897915124893188e-01" nType="0">
        <Node pos="l" depth="1" NCoef="0" IVar="3" Cut="1.6460971832275391e+00" cType="1" res="4.1025053709745407e-02" rms="3.8872733712196350e-01" purity="6.7868477106094360e-01" nType="0">
          <Node pos="l" depth="2" NCoef="0" IVar="-1" Cut="0.0000000000000000e+00" cType="1" res="-1.7336633056402206e-02" rms="4.1803705692291260e-01" purity="3.1962999701499939e-01" nType="-99"/>
          <Node pos="r" depth="2" NCoef="0" IVar="-1" Cut="0.0000000000000000e+00" cType="1" res="1.5130362473428249e-02" rms="3.8124242424964905e-01" purity="7.3131471872329712e-01" nType="-99"/>
        </Node>
        <Node pos="r" depth="1" NCoef="0" IVar="10" Cut="7.2977279663085938e+01" cType="1" res="-2.6538707315921783e-02" rms="3.7953710556030273e-01" purity="3.7794178724288940e-01" nType="0">
          <Node pos="l" depth="2" NCoef="0" IVar="-1" Cut="0.0000000000000000e+00" cType="1" res="-1.4824115671217442e-02" rms="3.7328836321830750e-01" purity="3.0837854743003845e-01" nType="-99"/>
          <Node pos="r" depth="2" NCoef="0" IVar="-1" Cut="0.0000000000000000e+00" cType="1" res="8.7417699396610260e-03" rms="3.8675171136856079e-01" purity="5.3592598438262939e-01" nType="-99"/>
        </Node>
      </Node>
    </BinaryTree>
    <BinaryTree type="DecisionTree" boostWeight="1.0000000000000000e+00" itree="40">
      <Node pos="s" depth="0" NCoef="0" IVar="0" Cut="7.3333334922790527e+00" cType="1" res="1.4820642536506057e-04" rms="3.8428729772567749e-01" purity="5.0093048810958862e-01" nType="0">
        <Node pos="l" depth="1" NCoef="0" IVar="0" Cut="3.2857143878936768e+00" cType="1" res="1.8381796777248383e-02" rms="3.8149368762969971e-01" purity="5.4611951112747192e-01" nType="0">
          <Node pos="l" depth="2" NCoef="0" IVar="-1" Cut="0.0000000000000000e+00" cType="1" res="-7.9034399241209030e-03" rms="3.8784343004226685e-01" purity="4.7250443696975708e-01" nType="-99"/>
          <Node pos="r" depth="2" NCoef="0" IVar="-1" Cut="0.0000000000000000e+00" cType="1" res="1.5322979539632797e-02" rms="3.7206140160560608e-01" purity="6.0372048616409302e-01" nType="-99"/>
        </Node>
        <Node pos="r" depth="1" NCoef="0" IVar="12" Cut="7.3247718811035156e+01" cType="1" res="0.0000000000000000e+00" rms="0.0000000000000000e+00" purity="3.4035986661911011e-01" nType="0">
          <Node pos="l" depth="2" NCoef="0" IVar="-1" Cut="0.0000000000000000e+00" cType="1" res="-7.2881719097495079e-03" rms="4.3408232927322388e-01" purity="4.4926625490188599e-01" nType="-99"/>
          <Node pos="r" depth="2" NCoef="0" IVar="-1" Cut="0.0000000000000000e+00" cType="1" res="-2.7915097773075104e-02" rms="3.3978262543678284e-01" purity="2.4813537299633026e-01" nType="-99"/>
        </Node>
      </Node>
    </BinaryTree>
    <BinaryTree type="DecisionTree" boostWeight="1.0000000000000000e+00" itree="41">
      <Node pos="s" depth="0" NCoef="0" IVar="3" Cut="2.4264669418334961e+00" cType="1" res="2.3816293105483055e-03" rms="3.8367074728012085e-01" purity="5.0500512123107910e-01" nType="0">
        <Node pos="l" depth="1" NCoef="0" IVar="8" Cut="2.9825582885742188e+02" cType="1" res="-3.4718379378318787e-02" rms="3.8001763820648193e-01" purity="3.5698786377906799e-01" nType="0">
          <Node pos="l" depth="2" NCoef="0" IVar="-1" Cut="0.0000000000000000e+00" cType="1" res="-3.7686913274228573e-03" rms="3.8934198021888733e-01" purity="3.9481148123741150e-01" nType="-99"/>
          <Node pos="r" depth="2" NCoef="0" IVar="-1" Cut="0.0000000000000000e+00" cType="1" res="-2.3278592154383659e-02" rms="3.5276594758033752e-01" purity="2.6898279786109924e-01" nType="-99"/>
        </Node>
        <Node pos="r" depth="1" NCoef="0" IVar="5" Cut="7.8472785949707031e+01" cType="1" res="2.7723962441086769e-02" rms="3.8409176468849182e-01" purity="6.0611295700073242e-01" nType="0">
          <Node pos="l" depth="2" NCoef="0" IVar="-1" Cut="0.0000000000000000e+00" cType="1" res="1.0928199626505375e-02" rms="3.9674541354179382e-01" purity="6.8608140945434570e-01" nType="-99"/>
          <Node pos="r" depth="2" NCoef="0" IVar="-1" Cut="0.0000000000000000e+00" cType="1" res="-2.5785058736801147e-02" rms="2.7640044689178467e-01" purity="1.1400210857391357e-01" nType="-99"/>
        </Node>
      </Node>
    </BinaryTree>
    <BinaryTree type="DecisionTree" boostWeight="1.0000000000000000e+00" itree="42">
      <Node pos="s" depth="0" NCoef="0" IVar="1" Cut="2.4285714626312256e+00" cType="1" res="-1.7048023873940110e-03" rms="3.8591927289962769e-01" purity="5.0188660621643066e-01" nType="0">
        <Node pos="l" depth="1" NCoef="0" IVar="10" Cut="7.2984680175781250e+01" cType="1" res="-1.9414128735661507e-02" rms="3.8852515816688538e-01" purity="4.5552736520767212e-01" nType="0">
          <Node pos="l" depth="2" NCoef="0" IVar="-1" Cut="0.0000000000000000e+00" cType="1" res="-1.3310515321791172e-02" rms="3.8834357261657715e-01" purity="3.8654211163520813e-01" nType="-99"/>
          <Node pos="r" depth="2" NCoef="0" IVar="-1" Cut="0.0000000000000000e+00" cType="1" res="1.2459061108529568e-02" rms="3.8059955835342407e-01" purity="6.0952872037887573e-01" nType="-99"/>
        </Node>
        <Node pos="r" depth="1" NCoef="0" IVar="11" Cut="5.9473358154296875e+02" cType="1" res="6.0573585331439972e-02" rms="3.6993926763534546e-01" purity="6.6491830348968506e-01" nType="0">
          <Node pos="l" depth="2" NCoef="0" IVar="-1" Cut="0.0000000000000000e+00" cType="1" res="2.4897417053580284e-02" rms="3.6287835240364075e-01" purity="7.2572451829910278e-01" nType="-99"/>
          <Node pos="r" depth="2" NCoef="0" IVar="-1" Cut="0.0000000000000000e+00" cType="1" res="-2.2767513990402222e-02" rms="3.6775812506675720e-01" purity="3.8959977030754089e-01" nType="-99"/>
        </Node>
      </Node>
    </BinaryTree>
    <BinaryTree type="DecisionTree" boostWeight="1.0000000000000000e+00" itree="43">
      <Node pos="s" depth="0" NCoef="0" IVar="4" Cut="1.9916632175445557e+00" cType="1" res="1.3845810899510980e-03" rms="3.8397878408432007e-01" purity="5.0302541255950928e-01" nType="0">
        <Node pos="l" depth="1" NCoef="0" IVar="5" Cut="7.3725448608398438e+01" cType="1" res="2.1160721778869629e-02" rms="3.7937092781066895e-01" purity="5.8271074295043945e-01" nType="0">
          <Node pos="l" depth="2" NCoef="0" IVar="-1" Cut="0.0000000000000000e+00" cType="1" res="1.1394271627068520e-02" rms="3.9432230591773987e-01" purity="6.9702208042144775e-01" nType="-99"/>
          <Node pos="r" depth="2" NCoef="0" IVar="-1" Cut="0.0000000000000000e+00" cType="1" res="-2.4097789078950882e-02" rms="2.9942628741264343e-01" purity="1.4289616048336029e-01" nType="-99"/>
        </Node>
        <Node pos="r" depth="1" NCoef="0" IVar="0" Cut="3.3333332538604736e+00" cType="1" res="-5.1068652421236038e-02" rms="3.9112716913223267e-01" purity="2.9167202115058899e-01" nType="0">
          <Node pos="l" depth="2" NCoef="0" IVar="-1" Cut="0.0000000000000000e+00" cType="1" res="-2.2192267701029778e-02" rms="3.8680768013000488e-01" purity="2.6367872953414917e-01" nType="-99"/>
          <Node pos="r" depth="2" NCoef="0" IVar="-1" Cut="0.0000000000000000e+00" cType="1" res="-8.3788977935910225e-03" rms="3.9205199480056763e-01" purity="3.0650931596755981e-01" nType="-99"/>
        </Node>
      </Node>
    </BinaryTree>
    <BinaryTree type="DecisionTree" boostWeight="1.0000000000000000e+00" itree="44">
      <Node pos="s" depth="0" NCoef="0" IVar="0" Cut="1.3333333730697632e+00" cType="1" res="-3.1511120032519102e-03" rms="3.8425496220588684e-01" purity="4.9786266684532166e-01" nType="0">
        <Node pos="l" depth="1" NCoef="0" IVar="10" Cut="5.5079498291015625e+01" cType="1" res="0.0000000000000000e+00" rms="0.0000000000000000e+00" purity="3.4454506635665894e-01" nType="0">
          <Node pos="l" depth="2" NCoef="0" IVar="-1" Cut="0.0000000000000000e+00" cType="1" res="-4.1440628468990326e-02" rms="3.4745204448699951e-01" purity="2.1868747472763062e-01" nType="-99"/>
          <Node pos="r" depth="2" NCoef="0" IVar="-1" Cut="0.0000000000000000e+00" cType="1" res="1.0537817142903805e-03" rms="3.9591896533966064e-01" purity="5.3165668249130249e-01" nType="-99"/>
        </Node>
        <Node pos="r" depth="1" NCoef="0" IVar="0" Cut="5.1428570747375488e+00" cType="1" res="8.8377585634589195e-03" rms="3.8412335515022278e-01" purity="5.2021187543869019e-01" nType="0">
          <Node pos="l" depth="2" NCoef="0" IVar="-1" Cut="0.0000000000000000e+00" cType="1" res="1.7722897231578827e-02" rms="3.6434429883956909e-01" purity="6.6982215642929077e-01" nType="-99"/>
          <Node pos="r" depth="2" NCoef="0" IVar="-1" Cut="0.0000000000000000e+00" cType="1" res="-8.0086328089237213e-03" rms="3.9282736182212830e-01" purity="4.1501057147979736e-01" nType="-99"/>
        </Node>
      </Node>
    </BinaryTree>
    <BinaryTree type="DecisionTree" boostWeight="1.0000000000000000e+00" itree="45">
      <Node pos="s" depth="0" NCoef="0" IVar="11" Cut="7.2922076416015625e+02" cType="1" res="3.7031732499599457e-03" rms="3.7922343611717224e-01" purity="5.0382065773010254e-01" nType="0">
        <Node pos="l" depth="1" NCoef="0" IVar="12" Cut="6.8195045471191406e+01" cType="1" res="9.3880556523799896e-03" rms="3.7989875674247742e-01" purity="5.1454132795333862e-01" nType="0">
          <Node pos="l" depth="2" NCoef="0" IVar="-1" Cut="0.0000000000000000e+00" cType="1" res="1.4892025850713253e-02" rms="3.9685356616973877e-01" purity="6.5911489725112915e-01" nType="-99"/>
          <Node pos="r" depth="2" NCoef="0" IVar="-1" Cut="0.0000000000000000e+00" cType="1" res="-1.5622889623045921e-02" rms="3.4753769636154175e-01" purity="3.3077079057693481e-01" nType="-99"/>
        </Node>
        <Node pos="r" depth="1" NCoef="0" IVar="-1" Cut="0.0000000000000000e+00" cType="1" res="-4.7441422939300537e-02" rms="3.1863170862197876e-01" purity="1.9603423774242401e-01" nType="-99"/>
      </Node>
    </BinaryTree>
    <BinaryTree type="DecisionTree" boostWeight="1.0000000000000000e+00" itree="46">
      <Node pos="s" depth="0" NCoef="0" IVar="3" Cut="1.6764515638351440e+00" cType="1" res="1.0462009813636541e-03" rms="3.7936916947364807e-01" purity="4.9726018309593201e-01" nType="0">
        <Node pos="l" depth="1" NCoef="0" IVar="8" Cut="3.0311361694335938e+02" cType="1" res="-6.2188480049371719e-02" rms="3.5544979572296143e-01" purity="2.2241763770580292e-01" nType="0">
          <Node pos="l" depth="2" NCoef="0" IVar="-1" Cut="0.0000000000000000e+00" cType="1" res="-1.2442734092473984e-02" rms="3.6706316471099854e-01" purity="2.5204366445541382e-01" nType="-99"/>
          <Node pos="r" depth="2" NCoef="0" IVar="-1" Cut="0.0000000000000000e+00" cType="1" res="-3.1715050339698792e-02" rms="3.2482868432998657e-01" purity="1.5770570933818817e-01" nType="-99"/>
        </Node>
        <Node pos="r" depth="1" NCoef="0" IVar="5" Cut="7.1369812011718750e+01" cType="1" res="1.4938018284738064e-02" rms="3.8302853703498840e-01" purity="5.5763942003250122e-01" nType="0">
          <Node pos="l" depth="2" NCoef="0" IVar="-1" Cut="0.0000000000000000e+00" cType="1" res="9.5784468576312065e-03" rms="4.0108868479728699e-01" purity="6.7456847429275513e-01" nType="-99"/>
          <Node pos="r" depth="2" NCoef="0" IVar="-1" Cut="0.0000000000000000e+00" cType="1" res="-2.3348936811089516e-02" rms="2.9803949594497681e-01" purity="1.4675441384315491e-01" nType="-99"/>
        </Node>
      </Node>
    </BinaryTree>
    <BinaryTree type="DecisionTree" boostWeight="1.0000000000000000e+00" itree="47">
      <Node pos="s" depth="0" NCoef="0" IVar="10" Cut="9.0565330505371094e+01" cType="1" res="4.9643746024230495e-05" rms="3.8216930627822876e-01" purity="5.0388169288635254e-01" nType="0">
        <Node pos="l" depth="1" NCoef="0" IVar="10" Cut="4.3179756164550781e+01" cType="1" res="-1.5663722530007362e-02" rms="3.8571903109550476e-01" purity="4.5958408713340759e-01" nType="0">
          <Node pos="l" depth="2" NCoef="0" IVar="-1" Cut="0.0000000000000000e+00" cType="1" res="-1.8577598035335541e-02" rms="3.8137724995613098e-01" purity="3.5852280259132385e-01" nType="-99"/>
          <Node pos="r" depth="2" NCoef="0" IVar="-1" Cut="0.0000000000000000e+00" cType="1" res="9.2609757557511330e-03" rms="3.8347089290618896e-01" purity="5.5856168270111084e-01" nType="-99"/>
        </Node>
        <Node pos="r" depth="1" NCoef="0" IVar="11" Cut="5.4517742919921875e+02" cType="1" res="5.1664125174283981e-02" rms="3.6554720997810364e-01" purity="6.4938825368881226e-01" nType="0">
          <Node pos="l" depth="2" NCoef="0" IVar="-1" Cut="0.0000000000000000e+00" cType="1" res="2.0348493009805679e-02" rms="3.6315900087356567e-01" purity="6.9579327106475830e-01" nType="-99"/>
          <Node pos="r" depth="2" NCoef="0" IVar="-1" Cut="0.0000000000000000e+00" cType="1" res="-1.7432587221264839e-02" rms="3.5694926977157593e-01" purity="4.1508778929710388e-01" nType="-99"/>
        </Node>
      </Node>
    </BinaryTree>
    <BinaryTree type="DecisionTree" boostWeight="1.0000000000000000e+00" itree="48">
      <Node pos="s" depth="0" NCoef="0" IVar="4" Cut="7.5067800283432007e-01" cType="1" res="-2.5268730241805315e-03" rms="3.8253679871559143e-01" purity="5.0281143188476562e-01" nType="0">
        <Node pos="l" depth="1" NCoef="0" IVar="9" Cut="1.3225856018066406e+02" cType="1" res="5.7361554354429245e-02" rms="3.2124200463294983e-01" purity="7.7170515060424805e-01" nType="0">
          <Node pos="l" depth="2" NCoef="0" IVar="-1" Cut="0.0000000000000000e+00" cType="1" res="-3.0757524073123932e-03" rms="3.9215523004531860e-01" purity="6.9437187910079956e-01" nType="-99"/>
          <Node pos="r" depth="2" NCoef="0" IVar="-1" Cut="0.0000000000000000e+00" cType="1" res="2.5243479758501053e-02" rms="2.9555967450141907e-01" purity="7.9337215423583984e-01" nType="-99"/>
        </Node>
        <Node pos="r" depth="1" NCoef="0" IVar="11" Cut="5.3246215820312500e+02" cType="1" res="-1.7959602177143097e-02" rms="3.9533311128616333e-01" purity="4.3351978063583374e-01" nType="0">
          <Node pos="l" depth="2" NCoef="0" IVar="-1" Cut="0.0000000000000000e+00" cType="1" res="-2.4222175125032663e-03" rms="3.9955046772956848e-01" purity="4.5167532563209534e-01" nType="-99"/>
          <Node pos="r" depth="2" NCoef="0" IVar="-1" Cut="0.0000000000000000e+00" cType="1" res="-3.0819065868854523e-02" rms="3.3967974781990051e-01" purity="2.5654956698417664e-01" nType="-99"/>
        </Node>
      </Node>
    </BinaryTree>
    <BinaryTree type="DecisionTree" boostWeight="1.0000000000000000e+00" itree="49">
      <Node pos="s" depth="0" NCoef="0" IVar="4" Cut="1.5289092063903809e+00" cType="1" res="2.3270510137081146e-03" rms="3.7672409415245056e-01" purity="5.0327205657958984e-01" nType="0">
        <Node pos="l" depth="1" NCoef="0" IVar="5" Cut="7.8180320739746094e+01" cType="1" res="2.8673596680164337e-02" rms="3.6091765761375427e-01" purity="6.4624661207199097e-01" nType="0">
          <Node pos="l" depth="2" NCoef="0" IVar="-1" Cut="0.0000000000000000e+00" cType="1" res="1.1984188109636307e-02" rms="3.7233528494834900e-01" purity="7.3988413810729980e-01" nType="-99"/>
          <Node pos="r" depth="2" NCoef="0" IVar="-1" Cut="0.0000000000000000e+00" cType="1" res="-2.2304829210042953e-02" rms="2.7339988946914673e-01" purity="1.1445156484842300e-01" nType="-99"/>
        </Node>
        <Node pos="r" depth="1" NCoef="0" IVar="1" Cut="2.0476191043853760e+00" cType="1" res="-3.1931880861520767e-02" rms="3.9370778203010559e-01" purity="3.1735950708389282e-01" nType="0">
          <Node pos="l" depth="2" NCoef="0" IVar="-1" Cut="0.0000000000000000e+00" cType="1" res="-1.2635351158678532e-02" rms="3.8543725013732910e-01" purity="2.8124713897705078e-01" nType="-99"/>
          <Node pos="r" depth="2" NCoef="0" IVar="-1" Cut="0.0000000000000000e+00" cType="1" res="6.5507455728948116e-03" rms="4.2055746912956238e-01" purity="4.6423384547233582e-01" nType="-99"/>
        </Node>
      </Node>
    </BinaryTree>
    <BinaryTree type="DecisionTree" boostWeight="1.0000000000000000e+00" itree="50">
      <Node pos="s" depth="0" NCoef="0" IVar="1" Cut="1.5238095521926880e+00" cType="1" res="7.9891656059771776e-04" rms="3.7919947504997253e-01" purity="5.0273340940475464e-01" nType="0">
        <Node pos="l" depth="1" NCoef="0" IVar="0" Cut="1.3333333730697632e+00" cType="1" res="-2.7255423367023468e-02" rms="3.8781386613845825e-01" purity="3.8165146112442017e-01" nType="0">
          <Node pos="l" depth="2" NCoef="0" IVar="-1" Cut="0.0000000000000000e+00" cType="1" res="-3.3361360430717468e-02" rms="3.7167116999626160e-01" purity="2.4505682289600372e-01" nType="-99"/>
          <Node pos="r" depth="2" NCoef="0" IVar="-1" Cut="0.0000000000000000e+00" cType="1" res="-3.4412178210914135e-03" rms="3.8825437426567078e-01" purity="4.0320470929145813e-01" nType="-99"/>
        </Node>
        <Node pos="r" depth="1" NCoef="0" IVar="8" Cut="3.2502856445312500e+02" cType="1" res="2.7802964672446251e-02" rms="3.6870783567428589e-01" purity="6.1928230524063110e-01" nType="0">
          <Node pos="l" depth="2" NCoef="0" IVar="-1" Cut="0.0000000000000000e+00" cType="1" res="1.6181837767362595e-02" rms="3.6400887370109558e-01" purity="7.2236835956573486e-01" nType="-99"/>
          <Node pos="r" depth="2" NCoef="0" IVar="-1" Cut="0.0000000000000000e+00" cType="1" res="-6.8771252408623695e-03" rms="3.7145105004310608e-01" purity="4.3199014663696289e-01" nType="-99"/>
        </Node>
      </Node>
    </BinaryTree>
    <BinaryTree type="DecisionTree" boostWeight="1.0000000000000000e+00" itree="51">
      <Node pos="s" depth="0" NCoef="0" IVar="4" Cut="1.5290942192077637e+00" cType="1" res="1.5363221755251288e-03" rms="3.7922412157058716e-01" purity="5.0235384702682495e-01" nType="0">
        <Node pos="l" depth="1" NCoef="0" IVar="5" Cut="7.0044700622558594e+01" cType="1" res="2.5850709527730942e-02" rms="3.6498293280601501e-01" purity="6.5089601278305054e-01" nType="0">
          <Node pos="l" depth="2" NCoef="0" IVar="-1" Cut="0.0000000000000000e+00" cType="1" res="1.2513834983110428e-02" rms="3.6978229880332947e-01" purity="7.6635456085205078e-01" nType="-99"/>
          <Node pos="r" depth="2" NCoef="0" IVar="-1" Cut="0.0000000000000000e+00" cType="1" res="-1.4439543709158897e-02" rms="3.3734035491943359e-01" purity="2.0987249910831451e-01" nType="-99"/>
        </Node>
        <Node pos="r" depth="1" NCoef="0" IVar="1" Cut="2.0476191043853760e+00" cType="1" res="-2.8750445693731308e-02" rms="3.9415597915649414e-01" purity="3.1732505559921265e-01" nType="0">
          <Node pos="l" depth="2" NCoef="0" IVar="-1" Cut="0.0000000000000000e+00" cType="1" res="-1.2056132778525352e-02" rms="3.8527515530586243e-01" purity="2.7934825420379639e-01" nType="-99"/>
          <Node pos="r" depth="2" NCoef="0" IVar="-1" Cut="0.0000000000000000e+00" cType="1" res="7.8677777200937271e-03" rms="4.2240270972251892e-01" purity="4.6967172622680664e-01" nType="-99"/>
        </Node>
      </Node>
    </BinaryTree>
    <BinaryTree type="DecisionTree" boostWeight="1.0000000000000000e+00" itree="52">
      <Node pos="s" depth="0" NCoef="0" IVar="1" Cut="1.4761904478073120e+00" cType="1" res="-6.4536975696682930e-04" rms="3.7712079286575317e-01" purity="4.9759149551391602e-01" nType="0">
        <Node pos="l" depth="1" NCoef="0" IVar="10" Cut="6.8557250976562500e+01" cType="1" res="-3.0173128470778465e-02" rms="3.8260033726692200e-01" purity="3.7084665894508362e-01" nType="0">
          <Node pos="l" depth="2" NCoef="0" IVar="-1" Cut="0.0000000000000000e+00" cType="1" res="-1.5914415940642357e-02" rms="3.7669798731803894e-01" purity="2.9397043585777283e-01" nType="-99"/>
          <Node pos="r" depth="2" NCoef="0" IVar="-1" Cut="0.0000000000000000e+00" cType="1" res="7.3775090277194977e-03" rms="3.8995674252510071e-01" purity="5.5063182115554810e-01" nType="-99"/>
        </Node>
        <Node pos="r" depth="1" NCoef="0" IVar="8" Cut="3.2573724365234375e+02" cType="1" res="2.8334464877843857e-02" rms="3.6937633156776428e-01" purity="6.2198442220687866e-01" nType="0">
          <Node pos="l" depth="2" NCoef="0" IVar="-1" Cut="0.0000000000000000e+00" cType="1" res="1.5180615708231926e-02" rms="3.6454167962074280e-01" purity="7.2241872549057007e-01" nType="-99"/>
          <Node pos="r" depth="2" NCoef="0" IVar="-1" Cut="0.0000000000000000e+00" cType="1" res="-4.5609120279550552e-03" rms="3.7412655353546143e-01" purity="4.3603816628456116e-01" nType="-99"/>
        </Node>
      </Node>
    </BinaryTree>
    <BinaryTree type="DecisionTree" boostWeight="1.0000000000000000e+00" itree="53">
      <Node pos="s" depth="0" NCoef="0" IVar="2" Cut="1.1507540941238403e+00" cType="1" res="-1.7171864164993167e-03" rms="3.7709924578666687e-01" purity="4.9991959333419800e-01" nType="0">
        <Node pos="l" depth="1" NCoef="0" IVar="5" Cut="6.4127059936523438e+01" cType="1" res="2.1930828690528870e-02" rms="3.8732701539993286e-01" purity="6.5642958879470825e-01" nType="0">
          <Node pos="l" depth="2" NCoef="0" IVar="-1" Cut="0.0000000000000000e+00" cType="1" res="9.1053778305649757e-03" rms="3.8867929577827454e-01" purity="6.9569134712219238e-01" nType="-99"/>
          <Node pos="r" depth="2" NCoef="0" IVar="-1" Cut="0.0000000000000000e+00" cType="1" res="-2.3448305204510689e-02" rms="3.5849291086196899e-01" purity="3.0850243568420410e-01" nType="-99"/>
        </Node>
        <Node pos="r" depth="1" NCoef="0" IVar="0" Cut="5.3333334922790527e+00" cType="1" res="-2.8197498992085457e-02" rms="3.6348539590835571e-01" purity="3.2466450333595276e-01" nType="0">
          <Node pos="l" depth="2" NCoef="0" IVar="-1" Cut="0.0000000000000000e+00" cType="1" res="-7.3217245517298579e-04" rms="3.6657470464706421e-01" purity="4.0485882759094238e-01" nType="-99"/>
          <Node pos="r" depth="2" NCoef="0" IVar="-1" Cut="0.0000000000000000e+00" cType="1" res="-1.5421515330672264e-02" rms="3.5950925946235657e-01" purity="2.5814938545227051e-01" nType="-99"/>
        </Node>
      </Node>
    </BinaryTree>
    <BinaryTree type="DecisionTree" boostWeight="1.0000000000000000e+00" itree="54">
      <Node pos="s" depth="0" NCoef="0" IVar="0" Cut="5.3333334922790527e+00" cType="1" res="-5.8648707345128059e-03" rms="3.7743946909904480e-01" purity="4.9421831965446472e-01" nType="0">
        <Node pos="l" depth="1" NCoef="0" IVar="0" Cut="3.0952382087707520e+00" cType="1" res="2.7561372146010399e-02" rms="3.6322849988937378e-01" purity="5.9866517782211304e-01" nType="0">
          <Node pos="l" depth="2" NCoef="0" IVar="-1" Cut="0.0000000000000000e+00" cType="1" res="-6.7400950938463211e-03" rms="3.8012394309043884e-01" purity="4.7505798935890198e-01" nType="-99"/>
          <Node pos="r" depth="2" NCoef="0" IVar="-1" Cut="0.0000000000000000e+00" cType="1" res="4.7035869210958481e-02" rms="2.8564381599426270e-01" purity="8.8852542638778687e-01" nType="-99"/>
        </Node>
        <Node pos="r" depth="1" NCoef="0" IVar="3" Cut="2.1945269107818604e+00" cType="1" res="-3.6056693643331528e-02" rms="3.8735890388488770e-01" purity="3.9987805485725403e-01" nType="0">
          <Node pos="l" depth="2" NCoef="0" IVar="-1" Cut="0.0000000000000000e+00" cType="1" res="-2.2077051922678947e-02" rms="3.7027743458747864e-01" purity="2.3261494934558868e-01" nType="-99"/>
          <Node pos="r" depth="2" NCoef="0" IVar="-1" Cut="0.0000000000000000e+00" cType="1" res="-4.2074131779372692e-03" rms="3.9442417025566101e-01" purity="4.8758471012115479e-01" nType="-99"/>
        </Node>
      </Node>
    </BinaryTree>
    <BinaryTree type="DecisionTree" boostWeight="1.0000000000000000e+00" itree="55">
      <Node pos="s" depth="0" NCoef="0" IVar="3" Cut="1.3712668418884277e+00" cType="1" res="-2.8549047419801354e-04" rms="3.7487912178039551e-01" purity="5.0054425001144409e-01" nType="0">
        <Node pos="l" depth="1" NCoef="0" IVar="0" Cut="3.3333332538604736e+00" cType="1" res="-6.8151473999023438e-02" rms="3.3605909347534180e-01" purity="1.8680331110954285e-01" nType="0">
          <Node pos="l" depth="2" NCoef="0" IVar="-1" Cut="0.0000000000000000e+00" cType="1" res="-3.2335054129362106e-02" rms="3.0002012848854065e-01" purity="1.3888511061668396e-01" nType="-99"/>
          <Node pos="r" depth="2" NCoef="0" IVar="-1" Cut="0.0000000000000000e+00" cType="1" res="-1.5193698927760124e-02" rms="3.5570999979972839e-01" purity="2.1721662580966949e-01" nType="-99"/>
        </Node>
        <Node pos="r" depth="1" NCoef="0" IVar="10" Cut="6.8825164794921875e+01" cType="1" res="9.1436263173818588e-03" rms="3.7899866700172424e-01" purity="5.4413455724716187e-01" nType="0">
          <Node pos="l" depth="2" NCoef="0" IVar="-1" Cut="0.0000000000000000e+00" cType="1" res="-4.6296026557683945e-03" rms="3.8714614510536194e-01" purity="4.6194481849670410e-01" nType="-99"/>
          <Node pos="r" depth="2" NCoef="0" IVar="-1" Cut="0.0000000000000000e+00" cType="1" res="1.4374766498804092e-02" rms="3.6189168691635132e-01" purity="6.7566061019897461e-01" nType="-99"/>
        </Node>
      </Node>
    </BinaryTree>
    <BinaryTree type="DecisionTree" boostWeight="1.0000000000000000e+00" itree="56">
      <Node pos="s" depth="0" NCoef="0" IVar="0" Cut="5.3333334922790527e+00" cType="1" res="1.7104338621720672e-03" rms="3.7684723734855652e-01" purity="5.0289517641067505e-01" nType="0">
        <Node pos="l" depth="1" NCoef="0" IVar="0" Cut="3.0952382087707520e+00" cType="1" res="2.7639565989375114e-02" rms="3.6308392882347107e-01" purity="6.0317009687423706e-01" nType="0">
          <Node pos="l" depth="2" NCoef="0" IVar="-1" Cut="0.0000000000000000e+00" cType="1" res="-5.1719816401600838e-03" rms="3.8242116570472717e-01" purity="4.8011660575866699e-01" nType="-99"/>
          <Node pos="r" depth="2" NCoef="0" IVar="-1" Cut="0.0000000000000000e+00" cType="1" res="4.4294949620962143e-02" rms="2.8690245747566223e-01" purity="8.8758945465087891e-01" nType="-99"/>
        </Node>
        <Node pos="r" depth="1" NCoef="0" IVar="3" Cut="2.5151388645172119e+00" cType="1" res="-2.1910212934017181e-02" rms="3.8745409250259399e-01" purity="4.1154783964157104e-01" nType="0">
          <Node pos="l" depth="2" NCoef="0" IVar="-1" Cut="0.0000000000000000e+00" cType="1" res="-1.4752416871488094e-02" rms="3.7980687618255615e-01" purity="2.9239675402641296e-01" nType="-99"/>
          <Node pos="r" depth="2" NCoef="0" IVar="-1" Cut="0.0000000000000000e+00" cType="1" res="1.4314905274659395e-03" rms="3.9275228977203369e-01" purity="5.2598249912261963e-01" nType="-99"/>
        </Node>
      </Node>
    </BinaryTree>
    <BinaryTree type="DecisionTree" boostWeight="1.0000000000000000e+00" itree="57">
      <Node pos="s" depth="0" NCoef="0" IVar="3" Cut="1.9568657875061035e+00" cType="1" res="-3.1510554254055023e-03" rms="3.7467619776725769e-01" purity="4.9587172269821167e-01" nType="0">
        <Node pos="l" depth="1" NCoef="0" IVar="12" Cut="1.0502597045898438e+02" cType="1" res="-4.5324429869651794e-02" rms="3.6434081196784973e-01" purity="2.6358696818351746e-01" nType="0">
          <Node pos="l" depth="2" NCoef="0" IVar="-1" Cut="0.0000000000000000e+00" cType="1" res="-6.8532838486135006e-03" rms="3.8337466120719910e-01" purity="3.1107217073440552e-01" nType="-99"/>
          <Node pos="r" depth="2" NCoef="0" IVar="-1" Cut="0.0000000000000000e+00" cType="1" res="-4.2741082608699799e-02" rms="2.8589379787445068e-01" purity="1.1259121447801590e-01" nType="-99"/>
        </Node>
        <Node pos="r" depth="1" NCoef="0" IVar="9" Cut="4.0756365966796875e+02" cType="1" res="1.1246627196669579e-02" rms="3.7706145644187927e-01" purity="5.7517206668853760e-01" nType="0">
          <Node pos="l" depth="2" NCoef="0" IVar="-1" Cut="0.0000000000000000e+00" cType="1" res="5.1054800860583782e-03" rms="3.8019999861717224e-01" purity="5.9583622217178345e-01" nType="-99"/>
          <Node pos="r" depth="2" NCoef="0" IVar="-1" Cut="0.0000000000000000e+00" cType="1" res="-3.9309348911046982e-02" rms="2.9187208414077759e-01" purity="2.0840996503829956e-01" nType="-99"/>
        </Node>
      </Node>
    </BinaryTree>
    <BinaryTree type="DecisionTree" boostWeight="1.0000000000000000e+00" itree="58">
      <Node pos="s" depth="0" NCoef="0" IVar="4" Cut="2.2568974494934082e+00" cType="1" res="-2.4755769409239292e-03" rms="3.7519079446792603e-01" purity="4.9886846542358398e-01" nType="0">
        <Node pos="l" depth="1" NCoef="0" IVar="0" Cut="7.3333334922790527e+00" cType="1" res="9.6770869567990303e-03" rms="3.7205484509468079e-01" purity="5.5302894115447998e-01" nType="0">
          <Node pos="l" depth="2" NCoef="0" IVar="-1" Cut="0.0000000000000000e+00" cType="1" res="6.7670601420104504e-03" rms="3.6605587601661682e-01" purity="5.9562569856643677e-01" nType="-99"/>
          <Node pos="r" depth="2" NCoef="0" IVar="-1" Cut="0.0000000000000000e+00" cType="1" res="-1.0985846631228924e-02" rms="3.9013272523880005e-01" purity="3.9201691746711731e-01" nType="-99"/>
        </Node>
        <Node pos="r" depth="1" NCoef="0" IVar="0" Cut="2.3333332538604736e+00" cType="1" res="-5.1433552056550980e-02" rms="3.8368815183639526e-01" purity="2.8067865967750549e-01" nType="0">
          <Node pos="l" depth="2" NCoef="0" IVar="-1" Cut="0.0000000000000000e+00" cType="1" res="-2.6660781353712082e-02" rms="3.6665996909141541e-01" purity="2.2496774792671204e-01" nType="-99"/>
          <Node pos="r" depth="2" NCoef="0" IVar="-1" Cut="0.0000000000000000e+00" cType="1" res="-9.2903990298509598e-03" rms="3.8838624954223633e-01" purity="3.0166012048721313e-01" nType="-99"/>
        </Node>
      </Node>
    </BinaryTree>
    <BinaryTree type="DecisionTree" boostWeight="1.0000000000000000e+00" itree="59">
      <Node pos="s" depth="0" NCoef="0" IVar="7" Cut="2.6204144287109375e+02" cType="1" res="1.6636539949104190e-03" rms="3.7462887167930603e-01" purity="5.0520366430282593e-01" nType="0">
        <Node pos="l" depth="1" NCoef="0" IVar="5" Cut="6.9451995849609375e+01" cType="1" res="7.4040121398866177e-03" rms="3.7814474105834961e-01" purity="5.2164137363433838e-01" nType="0">
          <Node pos="l" depth="2" NCoef="0" IVar="-1" Cut="0.0000000000000000e+00" cType="1" res="6.2873782590031624e-03" rms="3.9689394831657410e-01" purity="6.3336938619613647e-01" nType="-99"/>
          <Node pos="r" depth="2" NCoef="0" IVar="-1" Cut="0.0000000000000000e+00" cType="1" res="-1.7513765022158623e-02" rms="3.0307590961456299e-01" purity="1.5601195394992828e-01" nType="-99"/>
        </Node>
        <Node pos="r" depth="1" NCoef="0" IVar="3" Cut="2.7942695617675781e+00" cType="1" res="-8.4988944232463837e-02" rms="3.0395454168319702e-01" purity="2.5707074999809265e-01" nType="0">
          <Node pos="l" depth="2" NCoef="0" IVar="-1" Cut="0.0000000000000000e+00" cType="1" res="-3.0647737905383110e-02" rms="2.4976891279220581e-01" purity="1.6717855632305145e-01" nType="-99"/>
          <Node pos="r" depth="2" NCoef="0" IVar="-1" Cut="0.0000000000000000e+00" cType="1" res="-3.1831618398427963e-02" rms="3.4113892912864685e-01" purity="3.3020889759063721e-01" nType="-99"/>
        </Node>
      </Node>
    </BinaryTree>
    <BinaryTree type="DecisionTree" boostWeight="1.0000000000000000e+00" itree="60">
      <Node pos="s" depth="0" NCoef="0" IVar="4" Cut="9.9912786483764648e-01" cType="1" res="-3.1356380786746740e-03" rms="3.7389183044433594e-01" purity="4.9978604912757874e-01" nType="0">
        <Node pos="l" depth="1" NCoef="0" IVar="9" Cut="1.3434924316406250e+02" cType="1" res="2.9641270637512207e-02" rms="3.3317166566848755e-01" purity="7.3208928108215332e-01" nType="0">
          <Node pos="l" depth="2" NCoef="0" IVar="-1" Cut="0.0000000000000000e+00" cType="1" res="-1.0019355453550816e-02" rms="3.9970725774765015e-01" purity="6.6989320516586304e-01" nType="-99"/>
          <Node pos="r" depth="2" NCoef="0" IVar="-1" Cut="0.0000000000000000e+00" cType="1" res="1.8061801791191101e-02" rms="3.0436059832572937e-01" purity="7.5317060947418213e-01" nType="-99"/>
        </Node>
        <Node pos="r" depth="1" NCoef="0" IVar="0" Cut="2.3333332538604736e+00" cType="1" res="-1.9426286220550537e-02" rms="3.9154270291328430e-01" purity="3.8432765007019043e-01" nType="0">
          <Node pos="l" depth="2" NCoef="0" IVar="-1" Cut="0.0000000000000000e+00" cType="1" res="-1.6439009457826614e-02" rms="3.9443805813789368e-01" purity="3.3594492077827454e-01" nType="-99"/>
          <Node pos="r" depth="2" NCoef="0" IVar="-1" Cut="0.0000000000000000e+00" cType="1" res="-1.4896490611135960e-03" rms="3.8955402374267578e-01" purity="4.0090614557266235e-01" nType="-99"/>
        </Node>
      </Node>
    </BinaryTree>
    <BinaryTree type="DecisionTree" boostWeight="1.0000000000000000e+00" itree="61">
      <Node pos="s" depth="0" NCoef="0" IVar="1" Cut="1.5238095521926880e+00" cType="1" res="-1.6193885821849108e-03" rms="3.7414056062698364e-01" purity="4.9943652749061584e-01" nType="0">
        <Node pos="l" depth="1" NCoef="0" IVar="8" Cut="1.3706640625000000e+02" cType="1" res="-2.7167808264493942e-02" rms="3.8441714644432068e-01" purity="3.7505903840065002e-01" nType="0">
          <Node pos="l" depth="2" NCoef="0" IVar="-1" Cut="0.0000000000000000e+00" cType="1" res="5.8811842463910580e-03" rms="4.2266115546226501e-01" purity="5.6697845458984375e-01" nType="-99"/>
          <Node pos="r" depth="2" NCoef="0" IVar="-1" Cut="0.0000000000000000e+00" cType="1" res="-2.4253647774457932e-02" rms="3.3971440792083740e-01" purity="2.0103675127029419e-01" nType="-99"/>
        </Node>
        <Node pos="r" depth="1" NCoef="0" IVar="8" Cut="3.3216613769531250e+02" cType="1" res="2.2859502583742142e-02" rms="3.6233615875244141e-01" purity="6.1860716342926025e-01" nType="0">
          <Node pos="l" depth="2" NCoef="0" IVar="-1" Cut="0.0000000000000000e+00" cType="1" res="1.3643492013216019e-02" rms="3.5954725742340088e-01" purity="7.1869659423828125e-01" nType="-99"/>
          <Node pos="r" depth="2" NCoef="0" IVar="-1" Cut="0.0000000000000000e+00" cType="1" res="-6.1254277825355530e-03" rms="3.6374410986900330e-01" purity="4.2462599277496338e-01" nType="-99"/>
        </Node>
      </Node>
    </BinaryTree>
    <BinaryTree type="DecisionTree" boostWeight="1.0000000000000000e+00" itree="62">
      <Node pos="s" depth="0" NCoef="0" IVar="1" Cut="2.0476191043853760e+00" cType="1" res="-7.0348425651900470e-05" rms="3.7390422821044922e-01" purity="4.9967494606971741e-01" nType="0">
        <Node pos="l" depth="1" NCoef="0" IVar="0" Cut="1.3333333730697632e+00" cType="1" res="-1.2726831249892712e-02" rms="3.7669032812118530e-01" purity="4.5465672016143799e-01" nType="0">
